#ifndef MODEL_WEIGHTS_H
#define MODEL_WEIGHTS_H

#include "neural_network.h"

const float fc1_weights[] = {
-0.09118509f, -0.12801868f, -0.16464354f, -0.17346631f, -0.17965220f, -0.15237397f, -0.14435582f, -0.18903142f, 
-0.11400838f, 0.01415608f, 0.00950577f, 0.05482326f, 0.03797854f, 0.08006696f, -0.00271248f, 0.01085369f, 
0.02761131f, -0.15808053f, -0.13879777f, -0.12557843f, -0.02503892f, -0.11445910f, -0.10775261f, -0.01095101f, 
0.00102873f, -0.03730687f, 0.02518340f, -0.00175718f, -0.09409028f, -0.10167477f, -0.21346381f, -0.26547033f, 
-0.27347362f, -0.26255423f, -0.18351616f, -0.13480932f, 0.00047208f, 0.05283839f, 0.07214477f, 0.04818022f, 
0.02190241f, 0.04533447f, -0.05022723f, -0.05151692f, -0.09560435f, -0.09994877f, -0.07517020f, -0.04591275f, 
0.02351936f, 0.04018992f, -0.00469947f, 0.06540503f, 0.05055208f, 0.03354657f, 0.09953161f, 0.04582827f, 
-0.10368780f, -0.09264854f, -0.16495812f, -0.23660181f, -0.33182383f, -0.34029809f, -0.19956157f, -0.07063221f, 
-0.02187488f, -0.00940619f, 0.11494825f, 0.05032711f, 0.02873450f, 0.07188947f, -0.08067185f, -0.07292107f, 
-0.10862967f, -0.10614901f, -0.05516475f, -0.00586500f, 0.02847338f, 0.04519906f, 0.07461108f, 0.07041171f, 
0.13721545f, 0.09461822f, 0.09499510f, 0.03249219f, -0.01999215f, -0.00138395f, -0.08747122f, -0.19922894f, 
-0.24045503f, -0.20017335f, -0.07105286f, 0.02655682f, 0.10304923f, 0.08511139f, 0.01162274f, 0.06713379f, 
0.07975721f, -0.02846868f, -0.04778206f, -0.12306104f, -0.07623067f, -0.09851873f, -0.01136771f, 0.08281516f, 
0.01834709f, 0.02897219f, 0.01925704f, 0.04244272f, 0.01402233f, 0.04109434f, 0.01163610f, -0.06009773f, 
-0.03617378f, -0.06251839f, -0.15694022f, -0.27159730f, -0.31375155f, -0.17265064f, 0.09547704f, 0.01412638f, 
0.07675906f, 0.09560764f, 0.03281272f, 0.06099392f, 0.06443144f, 0.03537921f, -0.02070887f, -0.05329876f, 
-0.07636448f, -0.05297901f, -0.01160887f, 0.00478434f, 0.05758335f, 0.08645124f, 0.00870268f, -0.01085178f, 
-0.04092146f, -0.06165209f, -0.06584171f, -0.07367580f, -0.15856344f, -0.17030263f, -0.23369989f, -0.31237996f, 
-0.26657885f, -0.20209239f, 0.06698965f, 0.02588519f, 0.06623670f, 0.02062596f, 0.03171987f, 0.03056843f, 
0.06044364f, 0.04392484f, -0.06871256f, -0.08168379f, -0.04197540f, -0.07556037f, 0.06107328f, 0.05189946f, 
0.05887812f, 0.01332632f, 0.00207288f, -0.02431799f, -0.07756881f, -0.11936420f, -0.08703814f, -0.12686767f, 
-0.21149834f, -0.23573177f, -0.22721098f, -0.25830603f, -0.14009815f, -0.08839308f, -0.01839347f, -0.01233688f, 
0.03149077f, 0.06506511f, -0.03004860f, 0.01319899f, 0.01002600f, -0.02719274f, -0.05010587f, -0.02660071f, 
-0.08981381f, -0.02329835f, 0.05505711f, 0.05107359f, -0.00516658f, -0.02509958f, -0.06400801f, -0.03596091f, 
-0.08925537f, -0.10020803f, -0.21807045f, -0.27443862f, -0.18147866f, -0.25383201f, -0.24235635f, -0.08524686f, 
-0.04665887f, -0.04098991f, -0.02965926f, -0.05254611f, -0.01824594f, 0.04063597f, 0.02325105f, 0.06340376f, 
-0.00099275f, -0.01395599f, -0.02923500f, -0.04947658f, -0.05358211f, -0.07228187f, -0.03517587f, -0.03464283f, 
-0.03780666f, -0.05818240f, -0.08914424f, -0.13689511f, -0.09847593f, -0.12881717f, -0.10695407f, -0.12008832f, 
-0.13399929f, -0.13005403f, -0.16386661f, -0.02619347f, -0.07330032f, -0.00265188f, -0.04743533f, -0.00446619f, 
-0.00314868f, 0.03566765f, -0.02189667f, 0.00508340f, -0.06388263f, -0.04987045f, -0.02040166f, -0.03931519f, 
0.03404615f, 0.01763958f, 0.00420358f, -0.01398682f, -0.02808168f, -0.06823156f, -0.10287493f, -0.06848160f, 
-0.10130991f, -0.11586203f, -0.14805947f, -0.13558136f, -0.11087365f, -0.05905101f, -0.13359874f, 0.00122335f, 
-0.05607382f, -0.00765100f, -0.00557370f, -0.01577135f, 0.01723896f, -0.00587989f, -0.00914449f, -0.01350944f, 
-0.01877668f, -0.00827715f, -0.03490928f, 0.02453473f, 0.07637259f, 0.09907368f, 0.10731974f, 0.05347844f, 
-0.00993615f, 0.01417326f, -0.08781732f, -0.10716504f, -0.11969367f, -0.08609100f, -0.18848045f, -0.11872827f, 
-0.22483002f, -0.17280656f, -0.22672546f, -0.06872303f, 0.00390589f, -0.01238112f, -0.01348534f, 0.04995251f, 
0.03776957f, 0.07391711f, 0.00346974f, -0.06232748f, -0.07549623f, -0.06856813f, -0.07796501f, -0.06222319f, 
-0.04734406f, -0.00478635f, 0.04417885f, 0.09475493f, 0.07896312f, 0.00936448f, 0.03319374f, 0.05167444f, 
-0.07009027f, -0.06835808f, -0.10941792f, -0.11885976f, -0.19985251f, -0.11571934f, -0.14536260f, 0.01957579f, 
0.02981457f, 0.06195438f, 0.04432035f, 0.08025558f, 0.06773732f, 0.08556624f, 0.02127688f, -0.00868991f, 
0.01656426f, -0.07430800f, 0.02639060f, -0.08400490f, -0.08363783f, -0.00938453f, -0.01733084f, 0.07306500f, 
0.07572359f, 0.08821893f, 0.11552619f, 0.09358849f, 0.07028653f, -0.01102304f, -0.02045734f, -0.15164065f, 
-0.14849654f, 0.01195235f, -0.08736100f, 0.05901637f, -0.00463260f, 0.03424484f, 0.14997694f, 0.10185490f, 
0.08425727f, 0.06850143f, 0.01477937f, -0.07218333f, -0.04192295f, -0.06023089f, -0.00354954f, -0.06107567f, 
-0.04151337f, -0.03592128f, -0.00403245f, 0.06553862f, 0.00269791f, 0.05720734f, 0.08495435f, 0.05511041f, 
0.13172784f, 0.02181985f, -0.02098947f, -0.15626507f, -0.16396238f, -0.02796317f, -0.10190872f, 0.11782155f, 
0.01864793f, 0.06618141f, 0.10469712f, 0.11971260f, 0.07095472f, 0.02978053f, -0.02156934f, -0.04828357f, 
0.01185406f, -0.01690762f, 0.03405381f, -0.06374267f, 0.00063428f, -0.03754297f, 0.04947658f, 0.09434722f, 
-0.05822947f, 0.05637068f, -0.00046834f, 0.05639352f, 0.10855613f, -0.02101784f, -0.06606291f, -0.12685606f, 
-0.29444945f, -0.09610218f, -0.11526659f, 0.02819361f, 0.09428762f, 0.13626710f, 0.10412124f, 0.06812724f, 
0.01567103f, 0.01032270f, -0.04384553f, 0.02908437f, 0.01782106f, -0.05229947f, 0.04923271f, -0.05060539f, 
0.02913276f, 0.04615170f, 0.04863016f, 0.02123414f, -0.00486755f, 0.02334477f, 0.07397629f, 0.13262129f, 
0.06072650f, -0.05514636f, -0.09872591f, -0.13405167f, -0.25899509f, -0.08056664f, -0.17110620f, 0.01976665f, 
0.07624907f, 0.10237385f, 0.08614108f, 0.04627487f, 0.02570589f, -0.08039632f, -0.01085586f, -0.03598570f, 
-0.02412384f, -0.03927054f, 0.00351277f, 0.04460451f, 0.04348947f, 0.09861045f, 0.05615828f, 0.01197443f, 
-0.00980141f, 0.05155300f, 0.06202393f, 0.11033770f, 0.10975909f, 0.00683800f, 0.00190876f, -0.11775617f, 
-0.26715359f, -0.06630613f, -0.12141263f, 0.05146147f, 0.04024477f, 0.04621607f, 0.01770629f, 0.02901756f, 
-0.01877133f, -0.05404091f, -0.07992540f, -0.04206890f, -0.00285587f, -0.00202283f, 0.01690385f, 0.02670712f, 
0.01430017f, 0.00229301f, -0.00376918f, 0.00259808f, -0.00740013f, 0.02808803f, 0.09568015f, 0.09044088f, 
-0.00401562f, -0.07059585f, -0.02757891f, -0.11967786f, -0.27178177f, -0.08129043f, -0.06369444f, 0.08467477f, 
0.05449525f, 0.07347307f, -0.04780154f, -0.07391760f, -0.05017159f, -0.04953387f, -0.06129143f, -0.00020831f, 
-0.03698314f, 0.02487589f, 0.04223690f, 0.01598456f, 0.02136156f, 0.04257464f, -0.00122588f, -0.01631246f, 
-0.06978469f, -0.05036502f, 0.01968167f, 0.06112011f, -0.05126420f, -0.03063598f, -0.08786801f, -0.13089323f, 
-0.17165168f, 0.00983246f, -0.03408909f, 0.11048002f, 0.07209185f, 0.06239338f, -0.00327677f, -0.08118111f, 
-0.04338336f, -0.03057450f, -0.09623347f, -0.01182986f, 0.05497178f, 0.02190460f, 0.02829199f, 0.01024221f, 
0.03469682f, -0.01089228f, 0.02724882f, 0.01703333f, -0.02348091f, -0.03802796f, 0.03975550f, -0.01792555f, 
-0.05868813f, -0.00581077f, -0.08033323f, -0.17205809f, -0.02710218f, 0.08753286f, 0.07720560f, 0.12595238f, 
0.06082922f, -0.01821996f, -0.04006081f, -0.00506216f, 0.00605240f, 0.03372274f, -0.01052455f, -0.00420951f, 
0.04910095f, 0.05453273f, 0.03192361f, 0.02038193f, 0.00384324f, -0.00447512f, -0.05150210f, 0.01218541f, 
0.03303350f, -0.03103270f, -0.02506999f, 0.00577085f, 0.00105429f, -0.01050610f, -0.10388532f, -0.14678779f, 
-0.01139531f, 0.08359719f, 0.08238626f, 0.05397881f, 0.02877345f, 0.04065045f, 0.05976585f, -0.00785287f, 
-0.02924289f, 0.00718642f, -0.00513275f, 0.04270976f, 0.08628301f, 0.05141866f, 0.00596670f, -0.02208120f, 
-0.02822754f, -0.05800834f, 0.00128419f, 0.01871287f, 0.01590275f, 0.04127708f, 0.03246020f, -0.00181149f, 
0.04297281f, 0.09152719f, -0.02972179f, -0.13918024f, 0.00448984f, 0.06587698f, 0.03157929f, -0.00054512f, 
0.01126470f, 0.02006939f, 0.07871251f, 0.03280244f, 0.01269493f, -0.03809015f, -0.01322988f, -0.02644157f, 
-0.01045797f, 0.06569074f, -0.01177393f, -0.05551098f, -0.01491132f, -0.03827554f, -0.03912021f, 0.00594859f, 
0.01354040f, -0.09227838f, 0.05210963f, 0.07382628f, 0.01762208f, 0.07293554f, -0.00408855f, -0.10711790f, 
-0.03532120f, 0.04712057f, -0.01038286f, -0.02668696f, -0.02258979f, 0.02836163f, 0.11291520f, 0.04744471f, 
0.03621602f, 0.05472738f, -0.05480768f, -0.02109575f, -0.02498181f, -0.00684975f, -0.07471412f, -0.02736984f, 
-0.02742179f, 0.04794817f, 0.07757838f, 0.10172324f, 0.03791808f, -0.05472048f, 0.02153541f, 0.07551137f, 
0.01057695f, -0.09161019f, -0.12740967f, -0.16451085f, -0.08983219f, 0.00916105f, -0.01390039f, -0.01024239f, 
-0.03851368f, 0.00856664f, 0.11008085f, 0.04609703f, 0.00397317f, -0.02526848f, 0.01269747f, 0.00942504f, 
0.00770650f, -0.01479193f, 0.02450087f, 0.00658928f, -0.02122873f, -0.04774185f, 0.03982832f, 0.00417687f, 
-0.00840774f, -0.03431929f, 0.02331584f, 0.04087989f, -0.02485938f, -0.10390889f, -0.17642123f, -0.22073106f, 
-0.07258463f, 0.05190674f, 0.04984305f, -0.01018460f, -0.03652314f, 0.02758091f, 0.08528360f, 0.13026951f, 
-0.01077929f, 0.00210419f, 0.05829468f, 0.02626236f, 0.02037037f, 0.07356825f, 0.04464201f, 0.01897031f, 
-0.04296832f, -0.00781280f, 0.00979150f, 0.02230922f, 0.02134764f, -0.10478985f, -0.06590461f, -0.01018341f, 
-0.04554707f, -0.16369486f, -0.11455678f, -0.26734716f, -0.05254966f, 0.07540784f, 0.02433111f, 0.03592684f, 
-0.04935068f, -0.01539908f, 0.05388204f, 0.00637073f, 0.01434599f, -0.00265098f, 0.01729969f, 0.04442219f, 
0.04882890f, 0.08010294f, 0.00161717f, 0.00536603f, 0.02304034f, 0.02664972f, 0.03655176f, 0.02208544f, 
-0.05186020f, -0.13969511f, -0.11132113f, -0.09806454f, -0.15457609f, -0.15543936f, -0.12903409f, -0.11449304f, 
-0.07678515f, 0.05818561f, 0.07707494f, 0.04799931f, 0.08592854f, -0.01073545f, 0.08364763f, 0.06337201f, 
0.01310805f, 0.06582934f, 0.00146514f, 0.00640038f, 0.01257432f, 0.09295806f, 0.01402753f, 0.07980341f, 
0.09164061f, 0.00515826f, 0.05666541f, 0.04608501f, -0.07125720f, -0.14560068f, -0.17287432f, -0.12642455f, 
-0.17089723f, -0.21894419f, -0.13004784f, -0.06257859f, -0.08226480f, 0.03711443f, 0.07126135f, 0.01661121f, 
-0.01031047f, -0.09869761f, 0.01807054f, 0.01809781f, -0.01736074f, -0.03307148f, -0.01782469f, -0.00640171f, 
0.00062131f, 0.02776278f, 0.00868090f, 0.05603883f, 0.09569912f, 0.01836084f, -0.03167453f, -0.04395134f, 
-0.08998688f, -0.20082487f, -0.16128814f, -0.15426108f, -0.14788702f, -0.17086141f, -0.11413383f, -0.10479626f, 
0.01094435f, 0.05775484f, 0.03564752f, -0.01316999f, 0.12493119f, 0.07182269f, 0.02011380f, 0.12191517f, 
-0.00092558f, -0.14284728f, 0.00300249f, 0.04056055f, -0.01269064f, 0.01897971f, 0.07732911f, 0.01249664f, 
0.00459811f, -0.04217758f, 0.02565140f, 0.03546663f, -0.10323441f, -0.07833068f, -0.17288160f, -0.18862849f, 
-0.10244912f, -0.11254174f, -0.21470183f, -0.13673186f, 0.00594881f, -0.01358653f, 0.01400143f, 0.01676947f, 
0.07504048f, 0.11377828f, 0.11898667f, 0.04287738f, -0.03691956f, -0.05594316f, 0.11336412f, 0.06176356f, 
0.07037111f, 0.08052191f, 0.07421882f, 0.01225345f, 0.04635241f, -0.04577514f, 0.04741573f, 0.04598409f, 
-0.00250786f, -0.09845550f, -0.07563005f, -0.09408525f, -0.02888172f, -0.03843567f, -0.13875672f, -0.15793188f, 
0.03770030f, 0.00577293f, 0.04280016f, 0.06918598f, 0.04459640f, 0.01975688f, 0.12610629f, 0.02438620f, 
0.01192339f, 0.00211850f, 0.05646144f, 0.08657670f, 0.01015643f, 0.00022377f, -0.06090875f, -0.04999017f, 
-0.04481141f, -0.02601150f, 0.00219637f, -0.00950593f, -0.03980402f, -0.03643103f, -0.06664957f, -0.07018986f, 
-0.02802969f, -0.07141951f, -0.08649356f, -0.11717995f, 0.03095918f, 0.09903299f, 0.11234482f, -0.10908630f, 
-0.00516211f, 0.02667548f, 0.11497577f, 0.05928994f, 0.04953499f, 0.06267570f, 0.03214495f, -0.04674060f, 
-0.12381728f, -0.14355831f, -0.13848007f, -0.09020085f, -0.02845021f, 0.01093340f, -0.08292499f, -0.05552093f, 
-0.14847277f, -0.10678114f, -0.04145439f, -0.11373018f, -0.17839552f, -0.11946383f, -0.04082387f, -0.01802525f, 
-0.00083944f, 0.02320701f, 0.06138624f, -0.01740749f, 0.07092066f, 0.03811071f, 0.11379314f, 0.03342733f, 
0.03685050f, 0.06173582f, 0.00667328f, -0.06563227f, -0.09477468f, -0.14348336f, -0.14946169f, -0.10567415f, 
-0.16231750f, -0.10607287f, -0.12754075f, -0.12725639f, -0.11334715f, -0.11772300f, -0.09982905f, -0.14936064f, 
-0.17941496f, -0.04791312f, 0.03083560f, 0.06266606f, 0.02573701f, -0.00224464f, 0.00955217f, -0.06334756f, 
0.01788845f, 0.02793304f, -0.01227160f, 0.00339959f, 0.05560521f, 0.04430497f, 0.02063013f, -0.16827540f, 
-0.09693678f, -0.12576060f, -0.14441735f, -0.15977614f, -0.15390353f, -0.14882953f, -0.13182975f, -0.14686707f, 
-0.08611529f, -0.17260143f, -0.06823654f, -0.10838705f, -0.08598143f, -0.05068707f, -0.01200856f, 0.01353857f, 
0.10332868f, 0.03909666f, -0.03157323f, -0.05138947f, 0.06468585f, 0.00861470f, -0.04845403f, -0.00421712f, 
0.00553842f, 0.01112621f, -0.09893428f, -0.14554967f, -0.08732878f, -0.12829636f, -0.16130596f, -0.18562624f, 
-0.25238764f, -0.21784835f, -0.06192075f, -0.03254591f, -0.05793096f, -0.07035994f, -0.06244417f, -0.07906492f, 
-0.17092927f, 0.00184471f, -0.03754286f, -0.09694898f, 0.07710166f, 0.05806946f, 0.07797880f, 0.01940958f, 
0.10787293f, 0.06403632f, 0.03768572f, -0.06601068f, 0.01531510f, -0.01819802f, -0.07363936f, -0.03576501f, 
-0.06932036f, -0.18556023f, -0.15088847f, -0.13677068f, -0.13718715f, -0.13604808f, -0.05242983f, -0.10173763f, 
-0.08257382f, -0.06138265f, -0.05249471f, -0.06664695f, -0.07837941f, -0.00029391f, -0.07937020f, -0.13550355f, 
-0.00262016f, -0.00345190f, -0.02313354f, -0.01109297f, 0.06465112f, -0.00222839f, -0.03906770f, -0.02869077f, 
-0.05446440f, -0.00970530f, 0.03567262f, 0.02550195f, -0.05442069f, -0.10603283f, -0.14579405f, -0.17807046f, 
-0.11959148f, -0.11618716f, -0.08377587f, -0.06984363f, -0.09799652f, -0.03995003f, -0.00146500f, -0.07248882f, 
-0.08439159f, -0.13188004f, -0.22989313f, -0.25003558f, -0.08105115f, -0.02822807f, -0.02001324f, -0.05768908f, 
-0.00991828f, -0.02889788f, 0.01132886f, 0.04441853f, 0.05013681f, 0.03980346f, 0.05195167f, 0.02520865f, 
-0.02777496f, 0.03561126f, -0.03074649f, -0.09403772f, -0.08305453f, -0.07526545f, -0.03858584f, -0.06846911f, 
-0.00941003f, 0.04115640f, 0.03754194f, -0.02561944f, -0.07422394f, -0.14740348f, -0.25264260f, -0.19792861f, 
-0.13987932f, -0.11932821f, -0.07830329f, -0.07586286f, 0.05659255f, 0.01984729f, -0.02879950f, -0.00647244f, 
0.03137132f, 0.00123897f, 0.05026308f, -0.02383517f, -0.04944523f, 0.04235831f, -0.02993741f, -0.03580633f, 
-0.02775523f, -0.05156129f, 0.03172011f, 0.03545759f, -0.01450912f, 0.06174638f, 0.09665608f, 0.00359235f, 
-0.19922844f, -0.14239353f, -0.17546982f, -0.17609017f, -0.05961027f, -0.06531006f, -0.07086446f, -0.01572155f, 
0.07526234f, 0.02203787f, 0.04360145f, 0.04917460f, 0.03724340f, -0.01845268f, 0.01571732f, -0.04875195f, 
-0.04291140f, -0.00241350f, 0.02158954f, 0.02773142f, -0.05418301f, 0.00257390f, 0.01623575f, 0.03528539f, 
0.04450168f, -0.00224889f, 0.01251842f, -0.00501595f, -0.17281748f, -0.20185097f, -0.19298099f, -0.14607692f, 
-0.07215221f, -0.05031868f, -0.03545727f, -0.02293276f, 0.02485311f, 0.01883806f, 0.04921692f, 0.00086291f, 
-0.00540502f, -0.02707704f, -0.08309454f, -0.06707994f, -0.02527490f, 0.00919070f, 0.07137430f, -0.01868824f, 
0.04563092f, 0.07487089f, 0.02646092f, 0.00769436f, -0.05732800f, -0.13159928f, 0.03117346f, -0.03413666f, 
-0.05534853f, -0.07738217f, -0.10249720f, 0.01944176f, -0.12455776f, -0.05830493f, -0.01301378f, -0.01271095f, 
0.01349608f, -0.02785746f, 0.05471911f, 0.04430069f, -0.01197963f, 0.00561865f, -0.11815044f, -0.05902138f, 
0.05916749f, 0.02612915f, 0.04652255f, 0.05316168f, 0.09758843f, 0.11123398f, 0.10598662f, 0.09394442f, 
-0.06181722f, -0.06450127f, 0.02268534f, 0.06023438f, 0.01535595f, -0.02024843f, -0.07463077f, -0.01964280f, 
-0.18681714f, -0.09240059f, -0.08348888f, -0.03253778f, -0.05932498f, -0.06829157f, 0.00693684f, 0.00773331f, 
0.05939796f, -0.04374300f, -0.04431155f, 0.03276623f, -0.01030935f, -0.04418261f, 0.10193976f, 0.06553435f, 
0.12034447f, 0.05558521f, 0.04397285f, -0.00427321f, 0.02725831f, 0.03637331f, 0.05798715f, 0.11107405f, 
0.02395933f, -0.02488763f, -0.00094769f, 0.08235028f, -0.20201372f, -0.11528198f, -0.03540958f, -0.05207400f, 
-0.02160575f, 0.01185934f, 0.04445174f, 0.02920041f, 0.02659485f, -0.06558845f, 0.00319905f, 0.06158390f, 
0.01804862f, -0.00719006f, 0.09688100f, 0.06463568f, 0.07914775f, 0.03617315f, 0.04981494f, 0.03923850f, 
0.03015330f, 0.00757589f, 0.06667688f, 0.12196515f, 0.06101547f, 0.07511201f, 0.09419445f, 0.04927548f, 
-0.13244060f, 0.00854259f, 0.01001647f, 0.01432136f, 0.02669657f, 0.02339196f, 0.07770329f, 0.02364393f, 
0.04770887f, 0.04826872f, -0.00885753f, 0.05606233f, -0.06176268f, -0.04363644f, 0.03542888f, -0.02770432f, 
0.01773688f, -0.00654300f, 0.01163250f, -0.01512031f, 0.08764904f, 0.02758638f, 0.07668145f, 0.15612796f, 
0.02348038f, 0.09795839f, 0.08841885f, 0.12263972f, -0.07766739f, -0.00680925f, -0.07559129f, -0.02267073f, 
0.04708125f, 0.07516029f, -0.00885189f, 0.04701000f, 0.10296172f, 0.08368439f, 0.05066785f, 0.06076671f, 
-0.04519220f, -0.02179549f, -0.02704748f, -0.02764390f, 0.01954919f, -0.07916530f, 0.03434676f, 0.01920987f, 
0.01499550f, -0.07238618f, -0.00754749f, 0.06504025f, -0.01902104f, 0.06912649f, 0.13281946f, 0.19077882f, 
-0.13152990f, -0.06204130f, -0.09824084f, -0.01653141f, 0.03273169f, 0.12522219f, 0.06974889f, 0.00734060f, 
0.06895522f, 0.07056388f, 0.05724129f, 0.05142413f, -0.05099934f, -0.03939609f, -0.04475911f, -0.04470873f, 
-0.05206403f, -0.06302658f, 0.04987914f, 0.02308475f, -0.04404317f, -0.07251022f, 0.02534280f, -0.00556976f, 
0.07846680f, 0.16898131f, 0.18118778f, 0.14293838f, -0.09885355f, 0.05782732f, 0.03728769f, 0.07749034f, 
0.04511411f, 0.10493460f, 0.00124710f, 0.07441509f, 0.13475120f, 0.13665494f, 0.08499351f, 0.04412867f, 
-0.03564778f, -0.10507059f, -0.03140640f, -0.03868919f, -0.04728422f, -0.07392390f, -0.03367673f, 0.03112310f, 
0.02176756f, 0.03403486f, 0.00398280f, 0.04095146f, 0.02954640f, 0.13442715f, 0.09217459f, 0.13371949f, 
-0.11605231f, -0.04681332f, -0.05000425f, 0.04491230f, 0.02190042f, 0.03182559f, -0.01077735f, 0.08692598f, 
0.05723661f, 0.03262091f, 0.04837476f, 0.00673668f, -0.03206366f, -0.11298857f, -0.07840598f, -0.06039809f, 
-0.05813035f, -0.06635787f, -0.03280612f, -0.06851122f, 0.03951214f, 0.03758294f, 0.05291186f, 0.07025281f, 
0.06246799f, 0.04515589f, 0.13592070f, 0.06754281f, -0.18568182f, -0.07250132f, 0.01926286f, 0.05888797f, 
0.10453996f, 0.07110913f, -0.01678985f, 0.10804430f, 0.08037835f, 0.05382884f, 0.00987974f, 0.00443749f, 
-0.01285614f, -0.07855739f, -0.07938592f, -0.04614275f, -0.10926415f, -0.12297207f, -0.10537809f, -0.05168110f, 
0.01675330f, 0.05674149f, 0.05216405f, 0.08461905f, 0.19285811f, 0.15242183f, 0.10596512f, 0.10696924f, 
-0.13089621f, 0.06455848f, -0.00915669f, -0.00084340f, 0.01496160f, 0.07942877f, 0.11530261f, 0.09663085f, 
0.05940037f, 0.06432345f, 0.06434181f, 0.05576610f, -0.01088990f, -0.00621507f, -0.05082050f, -0.04113002f, 
-0.02432601f, -0.06773948f, -0.01163437f, -0.01285903f, -0.03161300f, 0.09259634f, 0.09021465f, 0.13492964f, 
0.15740263f, 0.11705601f, -0.04213864f, -0.15187733f, -0.03698915f, 0.07188652f, -0.00635229f, 0.01273097f, 
0.02861742f, 0.08363948f, 0.07639836f, 0.02265878f, 0.05332390f, 0.03800816f, 0.03564999f, 0.06900967f, 
0.03569091f, 0.02956936f, 0.01994869f, 0.02700026f, -0.02984976f, -0.05465379f, -0.00119552f, -0.00501780f, 
-0.03732779f, 0.06789263f, 0.11032432f, 0.07104319f, 0.05733690f, 0.06707584f, -0.10103066f, -0.30973154f, 
0.01843096f, 0.04780399f, 0.07927537f, -0.01884476f, 0.03745665f, 0.03009267f, 0.06434681f, 0.04506504f, 
-0.00251966f, 0.00074861f, -0.01931093f, 0.04435924f, 0.11831877f, 0.11876027f, 0.05571437f, 0.05996384f, 
0.08491122f, 0.01633228f, 0.04398447f, 0.09203983f, 0.10547850f, 0.15285465f, 0.08672056f, 0.07560471f, 
-0.02506627f, -0.05320064f, -0.09452555f, -0.36391199f, -0.04857330f, -0.00448354f, 0.00466136f, 0.05364074f, 
0.05911987f, 0.05974616f, 0.01179815f, 0.01121218f, 0.05348609f, 0.06801634f, 0.13803241f, 0.18009438f, 
0.13714182f, 0.20906413f, 0.15711689f, 0.14462429f, 0.12850034f, 0.16705067f, 0.19316067f, 0.12003621f, 
0.07812630f, 0.06427144f, 0.11863076f, 0.12536825f, 0.04553574f, -0.11897986f, -0.15534793f, -0.30568299f, 
-0.09112501f, -0.07214564f, 0.00612777f, 0.06068398f, 0.08612884f, 0.05542370f, 0.10099045f, 0.08763780f, 
0.09301987f, 0.04763275f, 0.17492913f, 0.16612090f, 0.19380067f, 0.15372439f, 0.21091934f, 0.24150388f, 
0.17050864f, 0.17862274f, 0.16593978f, 0.19762330f, 0.11135937f, 0.08830263f, 0.14815715f, 0.13492748f, 
0.03321527f, 0.04133963f, -0.16343158f, -0.27244815f, -0.05229545f, -0.07795618f, -0.00293437f, -0.02335505f, 
-0.02027082f, -0.08293037f, 0.00081183f, -0.01241074f, -0.04725586f, -0.08458429f, 0.08859423f, 0.05083920f, 
0.11134168f, 0.07706924f, 0.10767427f, 0.17902087f, 0.05419454f, 0.12692158f, 0.03002811f, 0.10485519f, 
0.05490910f, -0.01140358f, 0.00810809f, 0.00919545f, -0.04731926f, -0.01512125f, -0.16049087f, -0.14421687f, 
-0.30143535f, -0.17287214f, -0.09167373f, -0.12294401f, -0.08587097f, -0.19911845f, -0.10320746f, -0.09714814f, 
-0.12563264f, -0.10421824f, -0.00308263f, 0.02101113f, -0.04360351f, -0.11034767f, 0.09127605f, 0.06335455f, 
-0.02790562f, -0.03810479f, -0.01158433f, 0.05209307f, -0.04909012f, -0.04589225f, -0.09390710f, -0.02196951f, 
0.08482057f, 0.03497624f, 0.07907950f, 0.03894106f, -0.21585524f, -0.07184882f, -0.04888899f, -0.11560928f, 
-0.04648497f, -0.07498895f, -0.08583029f, -0.05259351f, -0.04560042f, -0.03517266f, -0.07666007f, -0.05435887f, 
-0.05839788f, -0.09670898f, -0.02050965f, -0.06842127f, -0.07854365f, -0.08284904f, -0.02996879f, -0.04820634f, 
0.01055971f, 0.00060703f, -0.03912028f, 0.01668912f, 0.06762035f, 0.04676158f, 0.07188085f, 0.06364219f, 
-0.15410395f, 0.01118639f, -0.05758569f, -0.16701542f, -0.11329235f, -0.14552847f, -0.11444838f, -0.01932582f, 
0.01976620f, 0.01991627f, -0.11180419f, -0.12244180f, -0.08844604f, -0.11604908f, -0.10748648f, -0.10285176f, 
-0.14843450f, -0.15663937f, -0.17239131f, -0.11550944f, -0.07286149f, -0.04467385f, -0.04892313f, 0.01222063f, 
0.04812639f, 0.03242733f, 0.07470810f, -0.03690528f, -0.07210810f, -0.03985839f, -0.15236430f, -0.10900380f, 
-0.10781924f, -0.02732403f, -0.07566559f, -0.06312441f, -0.06854822f, -0.00932760f, -0.07087024f, -0.03247850f, 
-0.05045976f, -0.14082630f, -0.09372482f, -0.07710361f, -0.03993857f, -0.05163555f, -0.00482175f, -0.00009020f, 
-0.07139818f, -0.00064286f, -0.06403218f, -0.07278457f, 0.00017544f, -0.02079562f, -0.01787837f, -0.07649748f, 
-0.12227148f, -0.11387736f, -0.11673753f, -0.07032292f, -0.15891427f, -0.07615881f, -0.02523157f, -0.03405138f, 
-0.08919510f, -0.03663869f, -0.06667468f, -0.04421617f, -0.09529484f, -0.06294524f, -0.07512271f, -0.06694503f, 
-0.04790753f, -0.05012085f, 0.03131057f, 0.08852469f, 0.05666873f, -0.00802005f, 0.04353422f, -0.02285935f, 
0.00756294f, -0.13411316f, -0.04264748f, -0.03125034f, -0.06954395f, -0.04840766f, -0.08556611f, -0.05461049f, 
-0.09692426f, -0.09149008f, -0.03291132f, -0.04287903f, -0.04195660f, -0.00253464f, 0.04907924f, 0.04539330f, 
-0.05421770f, -0.06546212f, -0.04196086f, -0.07287967f, -0.04175169f, -0.01186717f, -0.02689567f, 0.00711863f, 
0.02866012f, -0.03979252f, -0.00831696f, -0.00718136f, -0.06831252f, -0.16452211f, -0.12809749f, -0.05943229f, 
-0.02719524f, -0.08166426f, -0.18796709f, -0.15786798f, -0.05354399f, 0.00337706f, -0.07784935f, -0.02266941f, 
-0.08239301f, -0.07209995f, 0.04760438f, 0.05964683f, -0.00818241f, -0.03160500f, 0.00677119f, -0.06314555f, 
0.02380052f, 0.08657672f, 0.00116611f, 0.08245539f, -0.04570996f, -0.08387226f, 0.01022482f, -0.00384777f, 
-0.00952002f, -0.08520097f, -0.08534452f, -0.07407705f, -0.08848565f, -0.05485180f, -0.10972714f, -0.06627004f, 
-0.05067421f, -0.00101277f, -0.05314295f, -0.00225052f, -0.00957595f, 0.03146249f, 0.09454612f, 0.14532520f, 
0.07554560f, 0.08523233f, 0.09652477f, 0.03832908f, 0.02332065f, 0.12001435f, 0.06180291f, 0.04390721f, 
-0.07154483f, -0.05060571f, 0.01959310f, -0.02171095f, -0.00282854f, 0.05464273f, 0.08196528f, -0.06590203f, 
-0.04754423f, -0.04723343f, -0.05678549f, -0.00147229f, -0.03046625f, 0.00408143f, -0.05532203f, 0.02969002f, 
0.02909944f, 0.07950750f, 0.04466065f, 0.13169280f, 0.07195197f, 0.02625743f, -0.00102373f, 0.00304478f, 
0.03411949f, 0.05303682f, 0.03007722f, -0.05153812f, -0.05189829f, 0.00004317f, 0.01998846f, 0.00491199f, 
-0.05968337f, -0.01462212f, -0.05848430f, -0.14267467f, -0.01967737f, -0.00092242f, 0.00244252f, -0.03870341f, 
0.01980354f, 0.00551483f, -0.02626678f, 0.00437803f, 0.05047918f, 0.07019085f, 0.10822956f, 0.14489238f, 
0.10518109f, 0.04266366f, 0.05954224f, 0.10314240f, 0.06606180f, 0.12962815f, 0.02755600f, 0.02282875f, 
0.04708253f, 0.04473284f, 0.03382583f, -0.01345567f, -0.06687243f, -0.11082071f, -0.06372715f, -0.16622503f, 
0.09817192f, 0.01288682f, -0.05001374f, 0.04874759f, 0.08094539f, 0.07893779f, 0.03280248f, 0.07323470f, 
0.08695034f, 0.12062741f, 0.22482498f, 0.14873828f, 0.02453388f, 0.01773891f, 0.05494418f, 0.05458785f, 
0.04404365f, 0.08282053f, 0.03590762f, 0.00756104f, 0.01362634f, 0.12236600f, 0.11608762f, 0.06833374f, 
-0.04280438f, -0.08975233f, -0.12618741f, -0.22987042f, -0.01513143f, 0.09259807f, 0.12080216f, 0.08724602f, 
0.01271400f, 0.02014711f, -0.02779524f, 0.12009761f, 0.09875429f, 0.13541304f, 0.09846568f, 0.06022723f, 
-0.01065717f, 0.01006271f, 0.05117374f, 0.11109351f, 0.05560768f, 0.11881051f, 0.12349246f, 0.11542112f, 
0.01394163f, 0.00536007f, 0.05292113f, 0.00731661f, -0.08777294f, -0.12395784f, -0.13983190f, -0.29907817f, 
-0.18745461f, 0.01313484f, 0.10354822f, 0.00601077f, 0.00087030f, -0.00823529f, 0.04256904f, 0.11084394f, 
0.09164834f, 0.12986736f, 0.08153670f, 0.08394911f, 0.03233378f, 0.04182389f, -0.02834467f, 0.05984606f, 
0.09146574f, 0.06309642f, 0.11666113f, 0.04877285f, -0.00484645f, 0.06004510f, 0.07362244f, 0.03555110f, 
-0.06149233f, -0.08006360f, -0.03754302f, -0.22942807f, -0.15566111f, -0.01728315f, 0.08150572f, -0.00094098f, 
-0.04063645f, 0.03797140f, 0.07894638f, 0.11504410f, 0.05374212f, 0.12596296f, 0.12987268f, 0.05104025f, 
0.05674217f, 0.01342990f, -0.06792831f, 0.06647383f, 0.08996963f, 0.10624138f, 0.12894763f, 0.09759995f, 
0.07777397f, 0.07188450f, 0.04862688f, 0.02508109f, -0.09924778f, -0.15315568f, -0.02167900f, -0.20119990f, 
-0.15481345f, -0.04256380f, 0.02415850f, -0.01466773f, -0.05158079f, -0.02517121f, -0.04080826f, 0.05410096f, 
0.08281450f, 0.05075629f, 0.05575444f, 0.04779666f, 0.05343795f, 0.06994023f, -0.02085391f, 0.13855477f, 
0.10014864f, 0.13262963f, 0.10094794f, 0.08463908f, 0.08146740f, -0.01580569f, -0.08435252f, -0.12520654f, 
-0.01769318f, -0.13810837f, -0.00023665f, -0.00058342f, -0.18087530f, 0.00515554f, 0.02683297f, -0.01193308f, 
-0.04675236f, -0.02384914f, -0.06230710f, -0.01923542f, 0.00386389f, 0.01228246f, 0.02032720f, 0.01103132f, 
0.03778737f, 0.03390936f, 0.07069389f, 0.11760122f, 0.10220573f, 0.14293113f, 0.10831189f, 0.05783381f, 
0.05499751f, 0.04250453f, -0.08862345f, -0.17858598f, -0.07017907f, -0.03474311f, 0.00985401f, -0.13715680f, 
-0.10369463f, 0.00638683f, 0.07643948f, 0.03857006f, 0.01539355f, -0.04723414f, -0.10198553f, -0.02931625f, 
-0.01500989f, 0.01120788f, 0.04251144f, -0.01260717f, 0.03979410f, 0.04574590f, 0.09500386f, 0.11867507f, 
0.16866918f, 0.21362561f, 0.16280501f, 0.03983988f, 0.08052045f, 0.01389019f, -0.02352244f, -0.11539585f, 
-0.01485020f, 0.08968294f, 0.09178253f, -0.07388194f, 0.01493456f, 0.09254414f, 0.07966277f, -0.01607786f, 
0.12079097f, 0.05555296f, -0.03834381f, -0.01933905f, 0.02196770f, -0.00456880f, 0.09064965f, 0.05320276f, 
0.03823019f, 0.14036681f, 0.06448495f, 0.14784668f, 0.17332403f, 0.18119806f, 0.12958895f, 0.06328316f, 
0.05893967f, 0.03254719f, -0.02206279f, -0.03479949f, -0.02653573f, 0.10063098f, 0.11087087f, 0.00968655f, 
0.06751582f, 0.06649891f, -0.01878534f, 0.01485567f, 0.07426053f, 0.04143958f, -0.00992762f, 0.00143739f, 
0.02755559f, 0.05336469f, 0.07751931f, 0.02621519f, -0.03499641f, 0.07875480f, 0.11787672f, 0.10374889f, 
0.16804807f, 0.17643228f, 0.13949440f, 0.01588326f, 0.02176915f, -0.01150475f, -0.04131472f, 0.00358840f, 
0.04236835f, 0.07015164f, 0.07603610f, -0.02749307f, -0.02038751f, 0.05213444f, 0.04219440f, 0.01355467f, 
0.05067227f, 0.10965042f, 0.02201539f, 0.07691225f, 0.05444763f, 0.08578365f, 0.04539647f, -0.03383097f, 
-0.00492852f, 0.06943756f, 0.08945545f, 0.10866716f, 0.11612759f, 0.10839426f, 0.02644170f, 0.02773665f, 
0.03852405f, -0.03253486f, -0.03638979f, 0.01060517f, 0.07103553f, 0.07782054f, 0.07243664f, -0.00306456f, 
-0.06684992f, 0.02074669f, 0.00973925f, 0.07791789f, 0.10012189f, 0.11609090f, -0.03225441f, 0.10441000f, 
0.09436208f, -0.00457370f, -0.02865557f, -0.07572372f, -0.01085521f, 0.06830516f, 0.09568740f, 0.09788751f, 
0.08450515f, 0.03259169f, 0.03093512f, -0.01301104f, -0.05671594f, -0.06960468f, -0.10975969f, -0.01551235f, 
-0.00020341f, 0.01866771f, 0.02012774f, -0.03526219f, -0.08339970f, -0.00287574f, -0.00564297f, 0.08425247f, 
0.05590545f, 0.01835711f, 0.04240658f, 0.06177491f, -0.02208931f, -0.06292901f, -0.05050418f, -0.07679385f, 
-0.07701978f, 0.02753000f, 0.00831734f, 0.09105860f, 0.05097539f, -0.01382601f, -0.01267075f, 0.05656765f, 
0.00678754f, 0.01368816f, -0.03599546f, -0.05133224f, -0.01581629f, -0.08319084f, -0.18461359f, -0.17599007f, 
-0.02143397f, -0.08652858f, -0.05299407f, -0.01990937f, -0.01134797f, -0.01038379f, -0.05974418f, -0.00001735f, 
-0.06796071f, -0.01968570f, -0.03650547f, -0.04984116f, -0.06801310f, -0.04867495f, -0.03125355f, 0.01591020f, 
-0.01921187f, -0.08619315f, -0.08077432f, -0.01858300f, 0.02724459f, -0.00139139f, -0.00686504f, -0.02653760f, 
-0.02853665f, -0.04353251f, 0.01796474f, 0.02975840f, 0.03351295f, -0.01204368f, -0.01087607f, -0.02990561f, 
-0.07742355f, -0.06313115f, -0.06066203f, 0.00285782f, -0.05825477f, -0.08375700f, -0.06715547f, -0.04682222f, 
-0.09697960f, -0.06169610f, -0.11717841f, -0.02915569f, -0.07131423f, -0.09284674f, -0.06646387f, -0.04418464f, 
0.10548644f, 0.00852716f, 0.02167734f, -0.04810327f, 0.03002188f, -0.06000682f, 0.08728943f, 0.07258673f, 
-0.03889985f, -0.02561707f, -0.07555679f, -0.03501957f, -0.04141150f, -0.05319647f, -0.08195880f, -0.09850112f, 
-0.07719541f, -0.03869892f, -0.06879979f, -0.08293241f, -0.11908489f, -0.15124354f, -0.16842510f, -0.12610738f, 
-0.10695785f, -0.11987046f, -0.10180015f, -0.09724241f, -0.05486090f, -0.02037994f, -0.01632805f, -0.03730452f, 
0.02232186f, 0.00558665f, 0.01288635f, 0.03449764f, 0.00618028f, -0.03377832f, -0.04565038f, -0.04652594f, 
-0.07205743f, -0.01714814f, -0.07201912f, -0.10499750f, -0.09990477f, -0.05693528f, -0.10464236f, -0.08359528f, 
-0.14516382f, -0.20912316f, -0.18658696f, -0.15099575f, -0.12651317f, -0.11161450f, -0.12033691f, -0.18198425f, 
-0.09412949f, -0.05121824f, -0.03700986f, 0.00415581f, 0.13735616f, 0.11213832f, 0.04405564f, -0.07105806f, 
-0.01788892f, -0.00525299f, 0.03279672f, -0.03566836f, -0.04883834f, -0.01745410f, -0.02480825f, 0.01537451f, 
-0.05057113f, -0.06127702f, -0.09365714f, -0.07679247f, -0.15051791f, -0.11369842f, -0.06241500f, -0.10252058f, 
-0.16545153f, -0.14659230f, -0.17860314f, -0.16723181f, -0.07059906f, -0.11893234f, -0.03205779f, 0.00797868f, 
0.05794569f, 0.08879185f, 0.11256879f, -0.01798980f, -0.00751034f, -0.02761087f, -0.03023186f, -0.02259979f, 
-0.05572484f, -0.05649427f, 0.00065095f, 0.05897908f, -0.07483618f, -0.07224148f, -0.09409375f, -0.06711506f, 
-0.08018924f, -0.08707049f, -0.10747238f, -0.13752300f, -0.14227198f, -0.24315387f, -0.22216524f, -0.15171403f, 
-0.05331016f, -0.09962915f, -0.04257257f, -0.00050652f, 0.01695812f, 0.04371992f, 0.03274762f, -0.08945654f, 
-0.07413645f, -0.11138614f, -0.08632023f, -0.00896161f, -0.01623126f, -0.03717782f, 0.05619445f, 0.13629690f, 
0.03955747f, -0.04136297f, -0.07915906f, -0.13513242f, -0.01508042f, -0.01789857f, 0.13489781f, 0.13178633f, 
0.04497858f, -0.01480919f, -0.00811748f, -0.01141223f, 0.03712330f, -0.07563084f, -0.04951373f, -0.04591658f, 
-0.11824924f, -0.11461119f, -0.09299536f, -0.13086574f, -0.10208569f, -0.04779570f, -0.07293593f, 0.03015877f, 
0.07717767f, 0.04964295f, -0.01984306f, 0.10920778f, 0.08602651f, 0.01803521f, 0.06716038f, 0.00891464f, 
-0.00006425f, 0.01515981f, 0.14131108f, 0.16501607f, 0.12084186f, 0.11139134f, 0.06888285f, 0.06481641f, 
0.04932494f, -0.01085820f, 0.01436117f, 0.02038258f, -0.06029581f, -0.02719895f, 0.11172194f, -0.01050664f, 
-0.01125618f, -0.00899695f, -0.02060564f, 0.03029300f, 0.06074167f, -0.02917265f, -0.02251120f, 0.07800595f, 
0.02043468f, -0.00790189f, 0.09022981f, -0.00552330f, 0.00294729f, -0.01728666f, 0.01558324f, 0.11706319f, 
0.15207055f, 0.15394709f, 0.09174118f, 0.02480327f, 0.04650075f, -0.03159548f, 0.04470763f, 0.05548951f, 
-0.01665108f, 0.09719324f, 0.05680396f, -0.08088387f, -0.01933666f, 0.02015638f, -0.02983602f, 0.06019621f, 
0.01287630f, -0.03014886f, -0.06766064f, 0.11711499f, 0.00881062f, 0.04197996f, -0.07348173f, -0.15047781f, 
-0.10879857f, 0.04008919f, 0.02019982f, 0.13729729f, 0.06308620f, 0.06742207f, 0.07575920f, 0.08937838f, 
0.06135625f, 0.03897003f, 0.06734489f, 0.09355532f, 0.03136423f, 0.08066115f, 0.10319847f, 0.02023622f, 
0.00606396f, 0.11566009f, 0.00386405f, 0.07800751f, 0.03262726f, -0.00746002f, -0.01579586f, 0.04076546f, 
-0.04663206f, -0.03967810f, -0.05398184f, -0.11819866f, -0.06963846f, 0.01656960f, 0.06059051f, 0.09184211f, 
0.04624513f, 0.07528226f, 0.01368888f, 0.04266469f, 0.09783018f, 0.00838665f, 0.06405073f, 0.07509036f, 
-0.02799195f, 0.05913652f, 0.04922973f, -0.03208265f, -0.02751353f, 0.07788432f, 0.06251949f, 0.01402427f, 
0.00976565f, 0.03287810f, 0.01107290f, 0.05896263f, -0.03928019f, 0.01509071f, -0.03549756f, -0.05448408f, 
-0.08656369f, 0.01925162f, 0.08509814f, 0.12555653f, 0.02346697f, 0.06241070f, -0.02038477f, 0.00294729f, 
0.02424782f, -0.05992354f, -0.00820907f, 0.08996039f, -0.00437577f, 0.03698572f, -0.02691448f, -0.08788543f, 
0.09792937f, 0.07057025f, 0.06896020f, 0.01371322f, -0.01789985f, 0.02732676f, -0.01302436f, 0.06384373f, 
0.02527672f, 0.02463853f, 0.01134583f, -0.12988608f, -0.11280493f, 0.00993244f, 0.01049705f, 0.04846482f, 
0.09601400f, 0.08970769f, -0.01687828f, -0.01756014f, -0.01180131f, -0.07383131f, 0.01485099f, 0.04819260f, 
0.01061911f, -0.01820990f, -0.07423176f, -0.16904365f, -0.04147718f, 0.06560172f, 0.03213273f, 0.00511392f, 
-0.00808341f, -0.00614804f, 0.04883365f, 0.20483072f, 0.06363704f, -0.01683144f, 0.03527071f, -0.14338546f, 
-0.04771620f, -0.01680132f, 0.08752409f, 0.03585049f, 0.00687389f, -0.00742968f, 0.00500799f, -0.01047016f, 
0.04413650f, -0.07259418f, -0.03224439f, -0.04418829f, -0.01032629f, -0.05082029f, -0.07670639f, -0.27235246f, 
-0.04092354f, 0.07281949f, -0.00236281f, -0.02324803f, -0.03856322f, 0.00815952f, 0.02464491f, 0.16904427f, 
0.05797178f, -0.05677941f, -0.01315299f, -0.06268196f, -0.00923228f, 0.01460813f, 0.08918653f, 0.01512891f, 
0.00528661f, -0.06652817f, 0.00247167f, -0.04737047f, -0.04310829f, -0.03254515f, -0.01072173f, -0.02690503f, 
-0.00352779f, -0.09028395f, -0.21014304f, -0.31444821f, 0.05626065f, 0.08168858f, -0.02040734f, 0.04404747f, 
0.09051631f, 0.09520403f, 0.09362988f, 0.11722846f, 0.08193690f, -0.08773921f, -0.02709362f, -0.06445563f, 
0.02982286f, 0.10874768f, 0.08258323f, 0.12306710f, 0.03972832f, -0.07658008f, 0.00093873f, -0.04897767f, 
-0.05937448f, -0.04549754f, 0.01186653f, 0.05341418f, 0.00798966f, -0.02424654f, -0.07370290f, -0.21857207f, 
-0.00231076f, 0.03764840f, 0.01154884f, 0.13416250f, 0.11046681f, 0.12187576f, 0.03698672f, 0.03804171f, 
0.02011647f, -0.03048315f, -0.02469088f, -0.09668588f, 0.03379327f, 0.07227591f, 0.10016542f, 0.10052060f, 
0.02549184f, 0.04409732f, 0.00542423f, -0.08874428f, -0.05275831f, -0.03165099f, -0.10306557f, -0.02987864f, 
-0.05597653f, -0.04458598f, -0.08237911f, -0.21714613f, -0.11062428f, 0.02146322f, 0.04918906f, 0.08320433f, 
0.09486354f, 0.05151561f, -0.02350612f, -0.03585860f, -0.03215907f, -0.00913505f, 0.05706048f, 0.06084417f, 
0.11385380f, 0.15309739f, 0.04627188f, 0.08503785f, 0.03890943f, 0.05092895f, 0.06046503f, -0.01852255f, 
0.04726402f, -0.14951916f, -0.14673531f, -0.04191579f, 0.01426213f, -0.01590146f, -0.05668608f, -0.10248201f, 
-0.18292949f, -0.05181994f, -0.09018604f, -0.06595521f, 0.03629224f, 0.06799008f, 0.00963614f, 0.01699324f, 
-0.00227885f, -0.01303014f, 0.05815279f, 0.06661972f, 0.05882290f, 0.16900599f, 0.15576658f, 0.11185002f, 
0.07144827f, 0.02310943f, 0.03456981f, -0.05559675f, -0.02756751f, -0.10046068f, -0.05767917f, -0.02601364f, 
0.06037571f, -0.00752989f, -0.03437145f, 0.01505536f, -0.05617832f, -0.03212251f, -0.08289647f, -0.07360143f, 
-0.03597081f, -0.03565744f, 0.02731190f, 0.01400682f, 0.01223585f, 0.01050189f, 0.07765818f, 0.05364321f, 
0.01824314f, 0.12395950f, 0.11221325f, 0.09948112f, 0.06570550f, 0.09277283f, 0.00752069f, -0.08904881f, 
-0.12292551f, -0.09415862f, -0.04156969f, 0.03742988f, -0.07579163f, -0.11796121f, -0.12757628f, -0.13337618f, 
-0.07683355f, -0.02986749f, -0.04021864f, -0.03937101f, -0.06162754f, -0.02395124f, -0.03440539f, 0.04612766f, 
0.01918444f, 0.03674452f, 0.01632664f, 0.00868072f, 0.03225997f, 0.03600693f, 0.07517637f, 0.12270454f, 
0.07132801f, 0.00469781f, -0.12775455f, -0.26730025f, -0.31690168f, -0.35695294f, -0.11024819f, -0.10230863f, 
-0.12901217f, -0.03706751f, -0.06245647f, -0.14225394f, -0.12743087f, -0.05232291f, -0.03150232f, -0.13156404f, 
-0.04698438f, -0.08603181f, -0.11514748f, 0.00611657f, 0.05108950f, 0.01326838f, 0.01108137f, 0.06834070f, 
0.09358573f, 0.07116048f, 0.10012646f, 0.09471595f, 0.05988711f, -0.03027778f, -0.19065794f, -0.24399188f, 
-0.18734752f, -0.26692706f, -0.17826103f, -0.11144710f, -0.04659807f, -0.05538228f, -0.05014163f, -0.09275817f, 
-0.01542045f, -0.01999499f, -0.04372021f, -0.07439959f, -0.07651579f, -0.00978904f, -0.13035713f, 0.03298369f, 
-0.00757002f, -0.00001629f, 0.00270325f, 0.05686048f, 0.09799776f, 0.04242508f, 0.10401879f, 0.07684132f, 
0.02420937f, -0.07751447f, -0.31276903f, -0.28206608f, -0.17050229f, -0.24402797f, -0.22158051f, -0.18332152f, 
-0.05771886f, 0.02113139f, 0.08040411f, 0.03283188f, -0.08920022f, -0.14124383f, -0.12174681f, -0.22451334f, 
-0.13503644f, -0.07881876f, -0.10283983f, 0.10288455f, 0.00595591f, 0.02425580f, 0.04630730f, 0.06270538f, 
0.08240432f, 0.03055524f, 0.03745882f, -0.02908119f, -0.11809746f, -0.28331938f, -0.34401637f, -0.29428309f, 
-0.20618017f, -0.24754217f, -0.23115668f, -0.24153920f, 0.02173308f, -0.01425001f, 0.09547817f, 0.11035604f, 
-0.03684376f, -0.12398458f, -0.13145761f, -0.07870439f, -0.07866574f, -0.14856842f, -0.05973309f, 0.08344656f, 
0.05536303f, 0.05607555f, 0.14355190f, 0.07975467f, 0.05259696f, -0.06287131f, -0.08502412f, -0.13914682f, 
-0.23930322f, -0.31375158f, -0.31128317f, -0.24096975f, -0.23376092f, -0.25962114f, -0.27568147f, -0.22879355f, 
-0.09726855f, -0.06294283f, 0.00411869f, 0.01704718f, -0.09583958f, -0.15090221f, -0.20551397f, -0.10566180f, 
-0.09411217f, -0.06310271f, -0.09147912f, 0.07981950f, 0.09447110f, 0.12040865f, 0.08970864f, 0.02614577f, 
-0.08255066f, -0.13350719f, -0.22558036f, -0.21886742f, -0.26157326f, -0.30456778f, -0.33043712f, -0.28505716f, 
-0.26855642f, -0.30229348f, -0.23751923f, -0.23516344f, -0.25749314f, -0.17782496f, -0.06133851f, -0.08276621f, 
-0.19883198f, -0.15418705f, -0.21340457f, -0.16346222f, -0.09249489f, -0.07141753f, -0.09194427f, 0.03251475f, 
0.12657134f, 0.20380135f, 0.10941080f, 0.01364540f, -0.06982412f, -0.15040952f, -0.33422428f, -0.31735453f, 
-0.34811202f, -0.32809472f, -0.25481439f, -0.21423681f, -0.22370541f, -0.28342503f, -0.14689742f, -0.18693371f, 
-0.18676001f, -0.23934399f, -0.17961912f, -0.13447495f, 0.01334630f, -0.08598408f, -0.18284360f, 0.01317138f, 
-0.04924101f, -0.04538121f, 0.00040172f, 0.11954567f, 0.06287532f, 0.07106460f, 0.09093446f, -0.01544277f, 
-0.12795472f, -0.29213172f, -0.34538558f, -0.38874215f, -0.30195665f, -0.25937191f, -0.31541297f, -0.25255477f, 
-0.25951329f, -0.22450647f, -0.14582376f, -0.07163848f, -0.03437399f, -0.16292109f, -0.16842358f, -0.08305248f, 
-0.03041816f, -0.03662313f, -0.11445843f, 0.02164792f, 0.03274355f, 0.02336165f, 0.01012171f, 0.04537512f, 
0.03876087f, 0.12730448f, 0.06236089f, 0.00155774f, -0.17687178f, -0.21969850f, -0.31907830f, -0.31243467f, 
-0.29827693f, -0.24471359f, -0.28878137f, -0.24189569f, -0.27243519f, -0.25579688f, -0.11278741f, -0.10661213f, 
-0.11344881f, -0.14074853f, -0.18948902f, -0.05988767f, -0.06641084f, -0.04489923f, -0.04113540f, -0.00016168f, 
0.02256335f, 0.00874670f, -0.01720914f, 0.04055093f, 0.04071045f, 0.10202193f, 0.03994292f, -0.07226907f, 
-0.11843967f, -0.17222963f, -0.25694478f, -0.23946829f, -0.26623961f, -0.25162712f, -0.25483349f, -0.26118606f, 
-0.27695382f, -0.23466311f, -0.09145329f, -0.10439438f, -0.09868872f, -0.17822842f, -0.17290474f, -0.10717594f, 
0.01530775f, 0.05448560f, 0.04236462f, 0.01697025f, -0.02014880f, -0.02608948f, -0.08379330f, -0.01149310f, 
-0.04608503f, -0.07278290f, -0.04203545f, -0.09196436f, -0.14623851f, -0.11773485f, -0.14723301f, -0.31782269f, 
-0.40671870f, -0.37543702f, -0.36827818f, -0.24413511f, -0.17136919f, -0.19502662f, -0.14562438f, -0.08679117f, 
-0.07732289f, -0.09193479f, -0.11413927f, -0.09246967f, 0.10098804f, 0.05474058f, -0.03086753f, 0.03208395f, 
-0.01461388f, -0.01515111f, -0.08963434f, -0.08435042f, -0.14710531f, -0.17593811f, -0.10307095f, -0.08916072f, 
-0.10407046f, -0.05985932f, -0.17088434f, -0.41836873f, -0.49032286f, -0.38593736f, -0.33952537f, -0.27528673f, 
-0.22473583f, -0.20069166f, -0.15551102f, -0.06373893f, -0.07155822f, -0.09656586f, -0.07766854f, -0.05552282f, 
0.08449601f, 0.03724174f, -0.02446328f, 0.04696475f, 0.04697042f, 0.01614496f, -0.06054046f, -0.06118922f, 
-0.10864884f, -0.08514825f, -0.05708897f, -0.04914673f, -0.00392216f, -0.02959770f, -0.23626208f, -0.41638055f, 
-0.50558358f, -0.40872231f, -0.26642549f, -0.24393052f, -0.22142504f, -0.29962692f, -0.26568955f, -0.03799134f, 
-0.05764519f, -0.05870722f, 0.03137824f, 0.01056236f, -0.05536212f, -0.06332844f, -0.06937044f, 0.01427403f, 
0.03949197f, 0.03035858f, -0.02614278f, -0.12036159f, -0.03745346f, -0.00436725f, 0.02142848f, 0.07206871f, 
-0.00002711f, 0.06887451f, -0.27819186f, -0.42163402f, -0.40452614f, -0.31144267f, -0.12061457f, -0.19516461f, 
-0.19026631f, -0.24705696f, -0.22154677f, -0.03491993f, -0.02822311f, -0.05041022f, 0.00378845f, -0.00063167f, 
-0.11954001f, -0.14564674f, 0.03359656f, 0.02089210f, 0.01719834f, 0.13798498f, 0.16665885f, 0.02165219f, 
-0.09456875f, -0.11768919f, -0.07495783f, 0.02473911f, 0.04894365f, -0.03916107f, 0.04575714f, 0.06146586f, 
0.05388409f, 0.03292690f, -0.05174439f, -0.00138882f, -0.03192058f, 0.02081776f, 0.02767592f, -0.00603332f, 
0.04598634f, 0.00535602f, 0.05141454f, 0.02299102f, -0.15720761f, -0.20452583f, -0.05345932f, -0.01982239f, 
-0.04190859f, 0.03116778f, 0.05516157f, 0.01474335f, -0.08774745f, -0.06524774f, -0.03065221f, -0.02264334f, 
0.01389731f, 0.00964868f, 0.03183194f, 0.06537044f, -0.00444664f, -0.07479014f, -0.06993999f, -0.04464318f, 
0.02977855f, 0.04048930f, 0.04170734f, -0.06301229f, -0.02017998f, -0.05004611f, -0.01283899f, 0.02028395f, 
-0.08872040f, -0.18387496f, -0.17396423f, -0.05770375f, -0.07099507f, -0.05915310f, -0.06170629f, -0.00825857f, 
-0.06273327f, -0.05465787f, 0.05836140f, 0.06174068f, 0.09333657f, 0.07126599f, 0.02414384f, 0.04794389f, 
0.00266136f, 0.00628190f, -0.03726253f, -0.01087624f, -0.02971536f, 0.01856647f, 0.07011106f, -0.04600200f, 
-0.00896601f, -0.06312016f, 0.03101759f, 0.09712707f, -0.19224176f, -0.16770251f, -0.10399727f, 0.01151552f, 
-0.02279189f, -0.13521899f, -0.05011841f, 0.03853550f, -0.00774706f, 0.01374684f, 0.05222894f, 0.08703829f, 
0.03108637f, 0.05218544f, -0.04235678f, 0.02642507f, 0.01011076f, -0.01397535f, 0.08188489f, 0.11177484f, 
0.05240167f, 0.05165913f, 0.01926667f, -0.02867853f, 0.00660125f, 0.07830241f, 0.18635930f, 0.26116380f, 
-0.16558427f, -0.14003499f, -0.06492095f, 0.02072834f, -0.08827333f, -0.09956186f, 0.02977767f, -0.01616274f, 
-0.00514841f, 0.08365957f, 0.09265155f, 0.11564152f, 0.08808239f, 0.01517364f, 0.05153564f, 0.04826434f, 
0.04314564f, 0.04158469f, 0.04994090f, 0.05859744f, 0.09459747f, 0.07772849f, 0.06594935f, 0.05170170f, 
0.02016045f, 0.09303333f, 0.16006312f, 0.23378804f, -0.16778114f, -0.11211806f, -0.05091704f, -0.00391474f, 
-0.03879480f, -0.00317087f, 0.00694672f, -0.00393864f, 0.06765582f, 0.12709491f, 0.05248255f, 0.06546219f, 
0.03396894f, 0.08708031f, 0.08239894f, 0.09867766f, 0.04892698f, 0.06464949f, 0.01057243f, 0.05664594f, 
0.02254633f, 0.00956573f, 0.05113026f, 0.10951152f, 0.07926075f, 0.06074490f, 0.15365422f, 0.19048941f, 
-0.18458514f, -0.19596103f, -0.07779985f, 0.01629653f, 0.04803732f, 0.05467799f, 0.10427360f, -0.00457327f, 
0.14742540f, 0.20680352f, 0.06425870f, 0.02882685f, 0.00264304f, 0.04660336f, 0.02100069f, 0.05612259f, 
0.04014761f, 0.12200545f, 0.06026008f, -0.02481088f, -0.03154153f, -0.02574064f, -0.04357027f, -0.03019310f, 
-0.03131770f, -0.08234488f, -0.09032606f, 0.00372234f, -0.22607486f, -0.19405043f, -0.01591111f, 0.10558130f, 
0.04538618f, 0.10362043f, 0.10451367f, 0.01288429f, 0.08624537f, 0.13190080f, 0.05667045f, 0.00472672f, 
-0.00236297f, 0.01003263f, 0.13715827f, 0.09219232f, 0.03434226f, 0.03160289f, -0.05769539f, -0.09926952f, 
-0.12795390f, -0.15738705f, -0.17609946f, -0.14928406f, -0.18682767f, -0.22219416f, -0.17529738f, -0.08635853f, 
-0.19382137f, -0.17133541f, -0.01966695f, 0.05432449f, 0.03274903f, 0.06870925f, 0.08704318f, 0.05911044f, 
0.04588182f, 0.09928208f, 0.16312683f, 0.13989058f, 0.10336944f, 0.06412257f, 0.14075814f, 0.09767929f, 
-0.01387035f, -0.02205199f, -0.04405670f, -0.19013469f, -0.22044681f, -0.17596401f, -0.21477890f, -0.21349794f, 
-0.16857417f, -0.21893892f, -0.18025133f, -0.13228558f, -0.02324905f, -0.08709925f, 0.02639491f, 0.09449650f, 
-0.01365865f, 0.03651589f, 0.05452982f, 0.03815667f, 0.01625867f, 0.01576828f, 0.07486838f, 0.05167851f, 
0.08492763f, 0.03461555f, 0.11367722f, 0.01256006f, -0.01881173f, -0.06290531f, -0.05306822f, -0.18249296f, 
-0.20263432f, -0.21052408f, -0.27893952f, -0.23656918f, -0.26469138f, -0.25641090f, -0.31894273f, -0.27569741f, 
-0.00029765f, -0.06962895f, 0.00731347f, 0.05113777f, 0.02188409f, 0.03003051f, 0.04726360f, -0.00010011f, 
0.08573008f, 0.02397171f, 0.08716813f, -0.00064843f, -0.00872352f, -0.00604116f, 0.06613965f, 0.04388006f, 
-0.00297417f, -0.07770407f, -0.14876091f, -0.15971282f, -0.12974638f, -0.27285799f, -0.29071459f, -0.19493182f, 
-0.20830777f, -0.19692172f, -0.28040409f, -0.28821626f, -0.12063902f, -0.07207593f, 0.04852537f, 0.06253178f, 
-0.01435443f, 0.03472627f, -0.01202481f, -0.02353914f, 0.04233944f, 0.02017819f, 0.05966933f, 0.01055314f, 
0.05863552f, -0.06193711f, -0.01722696f, -0.02261368f, -0.06525762f, -0.03251088f, -0.08133717f, -0.13785499f, 
-0.09363735f, -0.07819748f, -0.09333036f, -0.09928828f, -0.11427473f, -0.16212960f, -0.24005279f, -0.12506162f, 
-0.09190148f, -0.16325781f, 0.02285241f, 0.06397075f, -0.00221332f, 0.01796080f, 0.05357611f, -0.00192236f, 
-0.00203645f, 0.02882248f, 0.03943360f, 0.01873134f, 0.06033225f, -0.02390639f, -0.02027781f, -0.00963784f, 
-0.06781533f, -0.14527525f, -0.16284482f, -0.12876397f, -0.06223574f, -0.00102651f, -0.08879939f, -0.04279764f, 
-0.08978841f, -0.11177550f, -0.11437222f, -0.03355060f, -0.02910831f, -0.15734719f, -0.01952842f, -0.02332142f, 
-0.05081906f, 0.04132080f, 0.05578844f, -0.05754571f, -0.08620879f, -0.05449224f, -0.02779694f, -0.06706025f, 
-0.04017905f, -0.04120203f, -0.03826197f, -0.08111969f, -0.11478575f, -0.21057002f, -0.18979447f, -0.14205426f, 
-0.12286034f, -0.08428682f, -0.13540849f, -0.05374673f, -0.13750744f, -0.07725016f, -0.02000751f, 0.11426007f, 
0.12611447f, -0.09121131f, -0.01692832f, -0.02308216f, -0.10401324f, -0.05396808f, -0.03170289f, -0.00577948f, 
-0.02950621f, -0.09206892f, -0.13105784f, -0.01699353f, -0.04726088f, -0.08786614f, -0.01558105f, 0.00973207f, 
-0.03395005f, -0.16402517f, -0.16664514f, -0.15967877f, -0.06212804f, 0.02013018f, -0.05612456f, -0.06967601f, 
-0.14694408f, -0.12332956f, -0.00922608f, 0.23706366f, 0.05170343f, -0.11081392f, -0.07067405f, -0.03288199f, 
-0.13507515f, -0.06344724f, -0.00096137f, -0.05004700f, -0.08266319f, -0.11000153f, -0.16072124f, -0.07876336f, 
-0.06831500f, -0.08524014f, 0.00544794f, 0.00419844f, -0.05218157f, -0.14679980f, -0.13867284f, -0.10383785f, 
-0.04290701f, -0.05039013f, -0.08107232f, -0.06036615f, -0.07844198f, -0.09015984f, 0.01047755f, 0.20676170f, 
0.09901050f, -0.11232650f, -0.09507216f, -0.08314621f, -0.07906099f, -0.03096167f, -0.04049514f, -0.10676732f, 
-0.13934869f, -0.14361703f, -0.09543911f, -0.02925241f, -0.03072839f, -0.03956296f, 0.03719654f, -0.05874037f, 
-0.04090087f, -0.13567686f, -0.14658986f, -0.10958103f, -0.04513665f, -0.02595747f, -0.04361416f, -0.01112740f, 
-0.02417571f, -0.00530566f, -0.04324850f, 0.05944015f, 0.18693490f, -0.00705868f, -0.02948719f, -0.05549686f, 
-0.00966237f, 0.01825633f, -0.08044041f, -0.08100850f, -0.13254701f, -0.09069113f, -0.03467715f, -0.06760126f, 
-0.00564006f, -0.02950677f, 0.05839100f, -0.05402816f, -0.05081635f, -0.03711404f, -0.09510205f, -0.10803877f, 
-0.10409439f, -0.01760081f, 0.01412058f, 0.01284119f, -0.04226405f, -0.02686891f, -0.05337083f, 0.05768483f, 
0.10852873f, -0.03929986f, 0.05176177f, 0.07962506f, 0.06182297f, -0.00124759f, -0.07056023f, 0.02047169f, 
-0.10288494f, -0.03969181f, -0.00257271f, -0.04878718f, -0.07741170f, -0.03452305f, -0.01779267f, -0.09883375f, 
-0.14715649f, -0.14523067f, -0.15033403f, -0.15307367f, -0.10167423f, 0.08107638f, -0.01623406f, -0.03964884f, 
0.00778280f, -0.00874482f, -0.05663336f, 0.00864024f, 0.15924439f, -0.01556738f, 0.09119927f, 0.07342355f, 
0.11851658f, 0.10899056f, -0.00759365f, 0.03097468f, -0.01220046f, -0.04408013f, -0.01642679f, -0.04058499f, 
0.02371658f, 0.04475237f, 0.05127968f, -0.12774789f, -0.22167979f, -0.17108403f, -0.12706953f, -0.15060343f, 
-0.11911849f, -0.03439794f, -0.03061328f, -0.04920669f, -0.05192602f, -0.00884430f, -0.02437177f, 0.07840119f, 
0.10984720f, 0.00321599f, 0.07291579f, 0.08742107f, 0.15070051f, 0.11549396f, 0.05696957f, 0.07779835f, 
0.07193075f, 0.01930260f, -0.05419863f, 0.06916282f, 0.08522333f, 0.05975852f, 0.02297131f, -0.09049312f, 
-0.22062454f, -0.22128102f, -0.12975644f, -0.05668446f, -0.07316745f, 0.00778277f, 0.04663116f, -0.01832157f, 
-0.03418891f, -0.08070561f, 0.01251226f, 0.13213271f, 0.22360985f, 0.07690787f, 0.11029791f, 0.14564681f, 
0.21247105f, 0.14723575f, 0.05490916f, 0.13128445f, 0.11699336f, 0.05854198f, 0.02168557f, 0.06518123f, 
0.03582202f, 0.05168561f, 0.00820603f, -0.08349407f, -0.10989334f, -0.13387981f, -0.12432715f, -0.14377521f, 
-0.06105559f, -0.00606934f, -0.00504835f, -0.05067242f, -0.10400325f, -0.05850213f, 0.06199148f, 0.18375644f, 
0.21763147f, 0.05262256f, 0.03851128f, 0.05560877f, 0.09135763f, 0.09245889f, 0.04194603f, 0.07260470f, 
0.02583540f, 0.03406948f, 0.06961013f, 0.01326856f, 0.07392718f, 0.08516110f, 0.08267626f, 0.00056141f, 
-0.03577157f, -0.04250507f, -0.09292368f, -0.10287492f, -0.07610174f, 0.00965668f, 0.02098959f, -0.04070956f, 
-0.05594714f, 0.06954157f, 0.11535475f, 0.18134056f, 0.11830009f, -0.07500137f, -0.00685110f, 0.00381561f, 
0.03529553f, 0.04161470f, 0.04705276f, 0.14748573f, 0.13101391f, 0.08528278f, 0.02167996f, 0.05107322f, 
0.05511316f, 0.10512377f, 0.10651112f, 0.05783955f, 0.01290241f, -0.06045344f, -0.03017522f, -0.06967092f, 
-0.09522256f, -0.06244561f, -0.04926845f, -0.00135342f, -0.04126362f, 0.09593473f, -0.00197158f, -0.01457863f, 
0.12762220f, -0.00394188f, -0.04119685f, -0.02606493f, -0.07115318f, 0.01498601f, -0.06966729f, 0.06200306f, 
0.05081691f, -0.01047254f, 0.02489370f, 0.03619475f, -0.00820742f, 0.01775466f, 0.12928060f, 0.09597094f, 
0.03897868f, -0.05373942f, -0.08611289f, -0.06774908f, -0.12288257f, -0.06371856f, -0.00877433f, 0.04094543f, 
-0.02437054f, -0.00043022f, -0.14297979f, -0.14657256f, 0.01032473f, -0.04408709f, -0.03584163f, -0.06152870f, 
-0.01070870f, 0.06948306f, 0.04785715f, 0.11710785f, 0.08638195f, 0.02375315f, -0.05966178f, -0.08868668f, 
-0.05505972f, -0.00984403f, 0.06753462f, 0.00541515f, -0.05558710f, -0.02452832f, -0.07039756f, -0.04302253f, 
-0.04616455f, -0.01190824f, 0.08968244f, 0.12935030f, 0.13247249f, 0.04178777f, -0.15475091f, -0.13711029f, 
0.08995989f, -0.03562256f, -0.02624768f, -0.03439509f, -0.07656652f, 0.04992164f, -0.01145370f, 0.05530835f, 
0.12010080f, 0.04429231f, -0.05708053f, -0.06770606f, -0.02636855f, 0.01983056f, -0.01297826f, 0.02786078f, 
-0.02386499f, -0.12145235f, -0.08406872f, -0.15248320f, -0.09650298f, -0.06439991f, 0.03143992f, 0.07959688f, 
0.04538979f, -0.11408391f, -0.04760744f, 0.00057170f, 0.16364945f, 0.03788404f, -0.00547277f, -0.01036205f, 
-0.00520600f, 0.12284467f, 0.03324096f, 0.01581431f, 0.07794207f, 0.15012620f, 0.10656676f, 0.08523950f, 
0.06801106f, 0.04724565f, -0.02732339f, 0.09425139f, 0.12188594f, -0.06375851f, 0.01764777f, -0.09876581f, 
-0.05164623f, 0.07900800f, 0.14371546f, 0.14222829f, 0.03036040f, -0.13967592f, -0.06232614f, -0.01370010f, 
-0.19327976f, -0.02479170f, -0.03400169f, 0.00095130f, -0.03828367f, -0.08561084f, 0.09057425f, -0.01995673f, 
0.03091087f, -0.02154382f, -0.10011743f, -0.09138160f, -0.11050162f, -0.12062342f, -0.13128662f, -0.05573462f, 
0.00289427f, -0.01119880f, -0.07442717f, -0.00185742f, 0.00606233f, 0.08373147f, 0.06097952f, 0.12740472f, 
0.09892835f, 0.09804558f, 0.10391083f, -0.16398986f, -0.04006445f, 0.18944885f, 0.10709855f, 0.03083653f, 
0.10425277f, 0.04629350f, 0.19633238f, 0.16361994f, 0.11491987f, 0.08528695f, 0.04413772f, -0.04291150f, 
-0.05941185f, -0.06182243f, -0.03418253f, 0.00031807f, 0.00098690f, 0.07702166f, -0.00757324f, 0.07469288f, 
0.08936799f, 0.14364156f, 0.12522726f, 0.15337951f, 0.05945229f, 0.09958088f, 0.10105647f, -0.03294550f, 
-0.01769584f, 0.16198348f, 0.03426617f, -0.11162801f, 0.03574846f, 0.08486206f, 0.14723776f, 0.10249376f, 
0.11589089f, 0.08229157f, 0.08224308f, -0.05635612f, -0.07929225f, -0.06730022f, -0.05609926f, -0.05447676f, 
-0.02864877f, -0.01484119f, 0.00408788f, 0.00020773f, 0.04377525f, 0.02453051f, 0.06080162f, 0.10827221f, 
-0.04798314f, 0.03201417f, 0.03981684f, -0.09166612f, -0.05165345f, 0.10114393f, -0.05933984f, -0.07964625f, 
0.04861052f, 0.14407189f, 0.08949817f, 0.03855705f, 0.07264041f, 0.08928100f, 0.06860815f, 0.06050634f, 
-0.02054076f, -0.04486099f, -0.00975978f, -0.02706400f, -0.03570709f, 0.01594655f, 0.03823347f, 0.06685726f, 
-0.02236683f, 0.07443572f, 0.02518137f, 0.09664066f, -0.00852859f, 0.03557102f, -0.01365015f, -0.17972831f, 
-0.15411185f, 0.00882546f, -0.07346823f, -0.02794590f, -0.06978748f, 0.00568161f, 0.08358585f, 0.03779358f, 
0.06097999f, 0.09852080f, 0.04896127f, 0.01838919f, -0.03146644f, -0.00755498f, -0.00745634f, 0.00028622f, 
0.03753657f, 0.04120827f, 0.09337953f, 0.08848215f, 0.02679752f, 0.07883218f, -0.01362384f, 0.09071054f, 
0.02128631f, -0.00848542f, 0.02665389f, -0.04522645f, -0.07131957f, -0.03207383f, -0.11912389f, -0.03281759f, 
-0.10539865f, -0.01357172f, 0.00066461f, 0.02245490f, 0.13103953f, 0.09894640f, 0.09218477f, 0.05343771f, 
-0.03713663f, -0.02385773f, -0.09137476f, -0.03803323f, -0.07073578f, 0.01176309f, 0.02843980f, 0.05581463f, 
0.01186877f, 0.10480617f, 0.03129453f, 0.04916188f, 0.00754699f, -0.08883990f, 0.03668176f, -0.09053680f, 
-0.08923986f, 0.06263972f, -0.08245140f, 0.04502968f, -0.00142730f, -0.04327491f, -0.02208483f, 0.03533762f, 
0.08381500f, 0.07610442f, 0.05134676f, 0.01397003f, -0.07994813f, -0.06594501f, -0.11691738f, -0.09696532f, 
-0.09083717f, 0.05838975f, 0.08943182f, 0.03822782f, 0.02129931f, 0.07946112f, 0.04357360f, 0.09925503f, 
0.08451416f, -0.04703895f, 0.06814209f, -0.08436527f, -0.12939483f, 0.05476205f, -0.06291205f, -0.03893907f, 
-0.02070619f, -0.02204407f, -0.02651838f, 0.06839512f, 0.13695598f, 0.16801627f, 0.12949634f, -0.05063071f, 
-0.20810363f, -0.19944192f, -0.13502550f, -0.05272751f, -0.02916082f, 0.04625054f, 0.04666292f, 0.04729700f, 
-0.02307530f, 0.04444397f, -0.00324996f, 0.06053411f, 0.08375950f, -0.05556359f, 0.02028575f, -0.10260247f, 
-0.09516251f, 0.03755445f, -0.02006835f, 0.04134312f, -0.04572223f, -0.03762673f, -0.03564824f, 0.01680472f, 
0.09930629f, 0.17084642f, 0.10079540f, -0.08346451f, -0.26100659f, -0.32020682f, -0.14036877f, -0.01149939f, 
0.07292715f, 0.07045303f, -0.01421682f, 0.02586971f, 0.02649106f, 0.00341560f, -0.07667062f, -0.00183409f, 
-0.00285685f, -0.09513591f, -0.06574320f, -0.22463091f, -0.14620470f, -0.01361124f, -0.03205146f, 0.03942918f, 
-0.01242862f, 0.08938242f, 0.02545735f, 0.10409172f, 0.14717633f, 0.13604343f, 0.06218279f, -0.08210111f, 
-0.24747065f, -0.40447056f, -0.18082583f, -0.05754899f, 0.11187834f, 0.10341223f, 0.00454294f, 0.03167395f, 
0.01657415f, -0.08103451f, -0.05313788f, -0.02069856f, -0.08340014f, -0.14040945f, -0.09971394f, -0.29774997f, 
-0.16524462f, -0.06324671f, -0.13145137f, 0.04929701f, 0.05965163f, 0.07193726f, 0.07877070f, 0.05143425f, 
0.08487599f, 0.00224979f, -0.05492900f, -0.14598976f, -0.27664348f, -0.29016346f, -0.08482077f, -0.03461645f, 
0.11039331f, 0.10657279f, 0.01955632f, -0.00141863f, 0.01164809f, -0.04815211f, 0.03856241f, 0.06486094f, 
-0.06779934f, -0.14819932f, -0.11443093f, -0.23117875f, -0.21078716f, -0.00493822f, -0.03777530f, 0.10660250f, 
0.09303750f, 0.08288953f, 0.07478462f, 0.11031070f, 0.04722637f, -0.06447407f, -0.11803168f, -0.25193638f, 
-0.24872023f, -0.24343814f, -0.03809086f, 0.00295285f, 0.12022395f, 0.06601372f, 0.07426096f, 0.02651919f, 
0.01372854f, 0.01556286f, 0.10331405f, 0.09052699f, -0.02362495f, -0.07126402f, -0.03344255f, -0.17507401f, 
-0.15147404f, 0.03891069f, 0.03469558f, 0.16735317f, 0.08452886f, 0.04636156f, 0.10708157f, 0.08087967f, 
0.02662362f, -0.13391457f, -0.12528147f, -0.19797955f, -0.19765119f, -0.12341020f, -0.00765846f, 0.10975709f, 
0.12241409f, 0.08810659f, 0.08536890f, 0.01408875f, -0.00503021f, 0.01691112f, 0.02664450f, 0.05453632f, 
-0.06532286f, -0.16387141f, -0.00069876f, -0.13807023f, -0.06905760f, 0.08375713f, -0.02792526f, 0.10266067f, 
0.13038051f, 0.10979658f, 0.02968453f, 0.09184815f, -0.00723050f, -0.11064979f, -0.14238419f, -0.21364161f, 
-0.15539369f, -0.10506903f, -0.01800610f, 0.08858950f, 0.10536426f, 0.10407465f, 0.09955426f, 0.04166347f, 
0.00468242f, 0.10213596f, 0.09360281f, 0.09410036f, -0.06029721f, -0.13740215f, -0.10362090f, -0.22147080f, 
-0.11672346f, 0.03997403f, 0.05461781f, 0.12290777f, 0.10888527f, 0.11647683f, 0.08688696f, 0.06284642f, 
-0.03915946f, -0.12539397f, -0.06496696f, -0.06732299f, -0.09546207f, 0.01690444f, -0.02191547f, 0.09575737f, 
0.15930256f, 0.08410109f, 0.06859817f, 0.03042062f, 0.00892021f, 0.06283917f, 0.10105215f, 0.11256899f, 
-0.03676187f, -0.14915565f, -0.09303039f, -0.24721678f, -0.09723678f, 0.02747276f, -0.00601631f, 0.05485767f, 
0.04139841f, 0.03225942f, 0.00741229f, 0.02411171f, 0.00936964f, -0.06811591f, -0.05607108f, -0.05890398f, 
-0.10185380f, 0.00334376f, 0.01756746f, 0.05746413f, 0.10417750f, 0.13825727f, 0.04911919f, 0.01094276f, 
0.00009748f, 0.04032729f, 0.02483466f, 0.02316826f, -0.02433069f, -0.07096163f, -0.03711133f, -0.09327516f, 
-0.22355205f, -0.09212669f, -0.04604147f, 0.03648692f, 0.06411139f, 0.02563747f, -0.02918817f, -0.00617780f, 
-0.01460690f, -0.00792740f, -0.05559143f, -0.02335906f, -0.00297460f, 0.03644407f, 0.04968825f, 0.15634730f, 
0.10621865f, 0.10543133f, 0.04824461f, 0.06744078f, 0.05208086f, 0.07772543f, 0.05668703f, 0.11026026f, 
-0.03133375f, -0.11780192f, -0.05114392f, -0.13543631f, -0.20924644f, -0.06250369f, -0.03133390f, 0.01371791f, 
0.01060477f, 0.03151094f, -0.02977364f, -0.15472744f, -0.20383969f, -0.16181289f, -0.12349042f, -0.05489163f, 
-0.03545743f, 0.02521238f, 0.05302629f, 0.09778170f, 0.08657206f, 0.06089294f, 0.03402964f, 0.08701808f, 
0.05449044f, 0.10981912f, -0.01327169f, 0.10661574f, -0.01600242f, -0.03376222f, -0.00104993f, -0.21381508f, 
-0.14780363f, -0.09751003f, -0.02148761f, 0.09115367f, 0.02666526f, -0.03656220f, -0.03483433f, -0.07599780f, 
-0.18640158f, -0.19232070f, -0.10349194f, -0.06445615f, -0.06114123f, 0.04146514f, -0.02566164f, 0.11594509f, 
0.14538950f, 0.06175856f, 0.02800066f, 0.04825540f, 0.01776749f, 0.15409155f, 0.02139202f, 0.11356448f, 
-0.10876396f, -0.14336552f, -0.11826215f, -0.18363379f, -0.12120315f, -0.05886256f, -0.06706744f, -0.02383594f, 
-0.02949189f, -0.02454182f, -0.04785248f, -0.05209387f, -0.17076340f, -0.16120945f, -0.12368912f, -0.02782395f, 
-0.05129406f, -0.00553006f, -0.01056212f, 0.12945881f, 0.11452414f, 0.10015051f, 0.02872759f, 0.01915482f, 
-0.04284618f, 0.03180391f, -0.01215684f, 0.04342187f, -0.13917764f, -0.17719688f, -0.21130209f, -0.28141037f, 
-0.07479875f, 0.00512241f, -0.01953228f, -0.09735613f, -0.03703922f, -0.13253793f, -0.08095771f, -0.10204053f, 
-0.07068940f, -0.07585340f, -0.04918191f, -0.03720625f, -0.03908571f, 0.02111441f, 0.00410667f, 0.09003256f, 
0.15601145f, 0.08717018f, -0.01891403f, -0.02108064f, -0.03423311f, -0.00323425f, -0.00209769f, 0.00430101f, 
-0.21932802f, -0.12522127f, -0.10931049f, -0.19996037f, -0.07661410f, 0.01036194f, 0.04566969f, -0.02241030f, 
-0.09175430f, -0.17361884f, -0.08009346f, -0.12379679f, 0.00429654f, -0.00939178f, -0.04159630f, -0.08976639f, 
-0.07651734f, -0.01185192f, 0.02169344f, 0.07975210f, 0.07388179f, 0.03710193f, 0.04415714f, 0.05914250f, 
0.06473451f, 0.04759833f, -0.02250363f, -0.02306683f, -0.18275072f, -0.19428024f, -0.19340584f, -0.24468292f, 
-0.05277130f, -0.10455582f, -0.02927962f, 0.03163460f, -0.02196517f, -0.07766862f, -0.03106784f, -0.02562794f, 
-0.00116439f, -0.01685457f, -0.03844790f, -0.07504136f, -0.01392607f, -0.02876227f, -0.04218175f, -0.01327664f, 
0.08251895f, 0.05212118f, 0.06231810f, -0.00092047f, -0.00193387f, -0.08818167f, -0.01229297f, -0.05545678f, 
-0.18175741f, -0.23680480f, -0.25411129f, -0.36692861f, -0.20719074f, -0.21267067f, -0.17400783f, -0.07904840f, 
-0.05886750f, -0.01755944f, -0.06997401f, -0.03482690f, 0.03653642f, 0.05234409f, 0.02334380f, -0.07037052f, 
0.00648168f, -0.01883401f, 0.01714282f, 0.06487577f, 0.08825617f, 0.02102659f, 0.01654984f, -0.00997369f, 
-0.02657654f, -0.05226747f, -0.05183280f, -0.05630871f, -0.09608437f, -0.23188193f, -0.17483194f, -0.22322388f, 
-0.30652103f, -0.28219736f, -0.21400373f, -0.05855839f, -0.12060535f, -0.08463051f, -0.05753371f, -0.01608967f, 
0.08512224f, 0.08570126f, 0.03619669f, -0.09631173f, 0.00263563f, -0.05115346f, 0.00859457f, -0.02644532f, 
-0.01372433f, -0.07327191f, 0.06114425f, -0.01678970f, -0.00579726f, -0.02371988f, -0.06171467f, -0.01297383f, 
-0.05143730f, -0.19998303f, -0.29688269f, -0.21035251f, -0.34316424f, -0.31217989f, -0.27250287f, -0.16853081f, 
-0.16702105f, -0.12498800f, -0.04643965f, 0.05749578f, 0.00128950f, -0.02764925f, -0.06274206f, -0.12642796f, 
-0.01951854f, -0.08000904f, -0.06237004f, -0.11667980f, -0.09771726f, -0.06794048f, -0.07483348f, -0.10809662f, 
-0.12798153f, 0.00435418f, -0.05941215f, -0.11624350f, -0.05975388f, -0.14524098f, -0.20480542f, -0.13912706f, 
-0.21518542f, -0.16905302f, -0.22302029f, -0.18406087f, -0.13551430f, -0.14046194f, -0.05965234f, -0.00272763f, 
-0.00354265f, -0.08519244f, -0.09349431f, -0.07314900f, -0.05272492f, -0.03971969f, 0.02713001f, -0.07236956f, 
-0.03409581f, -0.10636535f, -0.06477323f, -0.10703073f, -0.10191701f, -0.02685439f, -0.07157867f, -0.15178034f, 
-0.14569788f, -0.19406152f, -0.17426722f, -0.06816426f, -0.18004060f, -0.09607919f, -0.15114905f, -0.15548645f, 
-0.10361288f, -0.05671405f, -0.02470566f, -0.03113074f, -0.02759219f, -0.08103079f, -0.04682947f, -0.08964333f, 
-0.05216949f, -0.07732970f, -0.07067040f, -0.08852831f, -0.09247751f, -0.16482294f, -0.13859016f, -0.17171879f, 
-0.00177894f, 0.03597149f, -0.04557912f, -0.04612960f, -0.04901953f, -0.10524674f, -0.07156422f, -0.03658653f, 
0.01195436f, -0.02832056f, -0.05912914f, 0.02541094f, -0.01129731f, 0.07041846f, 0.04556443f, 0.00971532f, 
0.00503490f, 0.08597486f, 0.06993078f, -0.01096846f, -0.09335474f, 0.02128009f, 0.00911066f, -0.08083080f, 
0.00057534f, 0.09267051f, -0.06471080f, -0.07874981f, -0.01184607f, -0.06408543f, -0.02399246f, 0.04194654f, 
0.15621828f, 0.16406128f, -0.03721132f, -0.04541098f, 0.00721110f, 0.00576820f, -0.01228692f, 0.01672123f, 
0.01173420f, 0.05435621f, 0.11644136f, 0.02348621f, 0.06737443f, 0.03532098f, 0.05019883f, -0.00581231f, 
-0.02984682f, 0.00717481f, -0.02800651f, -0.01656369f, -0.02339107f, 0.02437576f, -0.03203141f, -0.07138983f, 
-0.07492976f, -0.00483409f, -0.00749343f, 0.01888028f, 0.10561775f, 0.13879603f, 0.04301370f, -0.06608144f, 
-0.11355481f, -0.07138412f, 0.03850913f, 0.08297845f, 0.10632999f, 0.08356559f, 0.11862537f, 0.03539131f, 
0.10029987f, 0.07508317f, 0.05592421f, 0.04353118f, 0.02023854f, 0.04360531f, 0.04399195f, 0.02596793f, 
0.03030970f, 0.03399996f, -0.00219686f, 0.01799786f, -0.04161008f, 0.03270988f, 0.04600996f, 0.02106525f, 
0.05311546f, 0.06640007f, 0.04629296f, -0.01370878f, -0.07183956f, -0.08394871f, 0.08434946f, 0.08775526f, 
0.15225162f, 0.09951587f, 0.07560359f, 0.02256603f, 0.03621335f, -0.01146275f, -0.04514031f, 0.00282563f, 
-0.00869422f, 0.00948764f, 0.01256104f, 0.05575010f, 0.04899316f, 0.08990905f, 0.02413703f, 0.05591411f, 
0.03245703f, 0.01304994f, 0.01193370f, -0.02987098f, 0.02913797f, -0.01441984f, -0.05480178f, -0.06508806f, 
-0.10030435f, -0.05500690f, 0.09071380f, 0.11515281f, 0.10119926f, 0.09350475f, 0.04226812f, 0.03457732f, 
0.04536380f, 0.02020290f, -0.01394827f, -0.03059971f, -0.04958605f, 0.07159400f, 0.00671343f, 0.08766513f, 
0.03739797f, 0.05052533f, -0.03290459f, -0.02046645f, 0.02871397f, 0.05800491f, 0.00573721f, 0.01487988f, 
0.07801162f, -0.00774215f, -0.06130234f, -0.16230758f, -0.03156327f, -0.00878815f, 0.10950367f, 0.07787465f, 
0.07111739f, 0.02333502f, 0.07412621f, 0.01110011f, 0.00288620f, -0.04659792f, -0.06682814f, -0.14299305f, 
-0.06892390f, -0.01485555f, 0.02370206f, 0.08718367f, 0.04799474f, 0.04649742f, 0.01619780f, 0.01018019f, 
0.06124989f, 0.08452505f, 0.02102590f, 0.03929728f, 0.03120891f, 0.00117081f, -0.07517175f, -0.22416964f, 
0.03977486f, 0.05158767f, 0.12199044f, 0.00286043f, 0.07164399f, 0.05471466f, 0.07359578f, 0.01779782f, 
-0.03897993f, -0.09016200f, -0.07509861f, -0.16543868f, -0.12439148f, -0.09611750f, -0.01800905f, -0.02322300f, 
0.02481307f, 0.05868808f, 0.00837467f, 0.02349258f, 0.05647964f, 0.05194709f, -0.03488578f, 0.01392439f, 
-0.02621133f, -0.00989858f, -0.09577166f, -0.15812476f, 0.02798195f, 0.09285771f, 0.06200595f, -0.01194169f, 
-0.03577641f, 0.03358187f, 0.05722971f, 0.01079742f, -0.02686940f, -0.05047575f, -0.06485841f, -0.03555113f, 
-0.03956148f, -0.05348052f, -0.00303852f, -0.01397148f, -0.05171110f, -0.01557176f, 0.00036357f, -0.02692553f, 
-0.01106858f, -0.03913381f, -0.01691691f, 0.02264837f, 0.01713761f, -0.01591427f, -0.04388845f, -0.17832740f, 
0.00808263f, 0.03353938f, -0.00097775f, 0.03641336f, -0.04500707f, 0.02354958f, 0.04075167f, -0.05404466f, 
-0.07819653f, -0.00837151f, 0.00442057f, -0.00638601f, -0.06550855f, -0.01440591f, -0.05342440f, -0.09955138f, 
-0.04806219f, -0.00780070f, -0.01455998f, -0.01640460f, -0.04950704f, -0.08131190f, -0.01927651f, 0.05121842f, 
0.01760964f, 0.03056882f, -0.11550803f, -0.21569240f, 0.00340898f, 0.00249667f, -0.01773117f, 0.03922976f, 
0.00924228f, -0.01249592f, 0.01588539f, -0.06831666f, -0.03250777f, -0.06171741f, 0.05882073f, -0.01062723f, 
-0.03319556f, -0.01292060f, -0.04207719f, -0.07572868f, -0.07346496f, 0.00407164f, 0.00666102f, -0.04249442f, 
0.02184569f, 0.01480854f, 0.01213182f, 0.08990074f, 0.02258932f, 0.00887952f, -0.12077610f, -0.19536041f, 
-0.00389196f, 0.02852572f, 0.02896516f, 0.00076608f, -0.02439679f, -0.02802274f, -0.02826109f, -0.14797115f, 
-0.09732540f, 0.00070823f, 0.01776423f, 0.05452828f, 0.08769201f, 0.01866026f, -0.06063323f, -0.02012196f, 
-0.00058315f, -0.03237082f, 0.03681665f, -0.02515664f, -0.04719621f, 0.00099821f, -0.05100271f, -0.02732743f, 
0.00859358f, -0.15286107f, -0.15203314f, -0.25403559f, 0.02486197f, -0.03446624f, -0.03697948f, -0.08691110f, 
-0.06336890f, -0.10011559f, -0.03897747f, -0.10657184f, -0.01378709f, -0.00581156f, 0.03547361f, 0.03060509f, 
0.04733457f, 0.03858509f, 0.00529036f, -0.06243899f, -0.00507059f, -0.05542931f, -0.02834533f, -0.01437753f, 
-0.02194005f, 0.05639261f, 0.03454618f, 0.01543184f, -0.11033216f, -0.13223648f, -0.18037179f, -0.28141519f, 
-0.03718626f, -0.01670005f, -0.00670145f, -0.03988037f, -0.01670814f, -0.06797650f, -0.05292832f, -0.06437735f, 
0.02401868f, -0.03194556f, 0.07039592f, 0.00249556f, 0.02519237f, 0.02692638f, 0.01328434f, 0.01470157f, 
0.00062043f, -0.00298581f, -0.02253667f, -0.02174079f, 0.01688762f, -0.00491213f, -0.01336243f, -0.02833950f, 
-0.11479541f, -0.20666191f, -0.15817113f, -0.18194444f, -0.14487164f, -0.08304157f, 0.00493586f, -0.06968352f, 
-0.01910540f, -0.03146720f, -0.01850603f, -0.03259201f, -0.01400814f, -0.01262543f, 0.08558253f, 0.03478063f, 
0.03016303f, 0.04480679f, 0.01784500f, 0.05366077f, 0.02369070f, 0.03391755f, 0.02195510f, 0.02724423f, 
-0.02588324f, -0.04738981f, -0.09705275f, -0.12647730f, -0.10862175f, -0.20266949f, -0.11653151f, -0.17028588f, 
-0.12232421f, -0.06073192f, -0.07351661f, -0.01299938f, 0.00544680f, 0.00704857f, 0.04701344f, -0.00513909f, 
0.08007256f, -0.02477592f, 0.03345310f, 0.00998482f, -0.03047773f, 0.03435920f, 0.06562480f, 0.03271304f, 
-0.01286627f, -0.01033951f, 0.00973598f, 0.01901576f, 0.02157595f, -0.04243579f, -0.06314374f, -0.08380852f, 
-0.01866570f, -0.07787362f, -0.07287396f, -0.23959289f, -0.17502981f, -0.10049173f, -0.08692896f, -0.04836554f, 
-0.03128561f, 0.09075052f, 0.04893085f, 0.03734898f, 0.03576016f, 0.02079510f, 0.07267385f, 0.00223832f, 
-0.01593595f, 0.05638588f, 0.07374681f, -0.00171071f, -0.03377742f, -0.05277032f, -0.05700691f, -0.02181666f, 
-0.02241788f, -0.00678513f, -0.03405409f, -0.01447651f, -0.04763073f, 0.01170123f, 0.03909457f, -0.09539506f, 
-0.13571191f, -0.06656096f, -0.06069530f, 0.01491465f, 0.06608173f, 0.03997887f, 0.08843253f, 0.04793928f, 
0.02586141f, 0.02298992f, 0.04918651f, 0.00320181f, 0.05097750f, 0.03191658f, 0.05747668f, 0.03047187f, 
-0.01067688f, -0.03342411f, -0.00306333f, -0.03081995f, -0.00900509f, -0.02007219f, -0.00043100f, 0.03307840f, 
-0.02011055f, 0.03832879f, 0.08318139f, -0.05468543f, -0.14508083f, 0.00893322f, 0.06391832f, 0.07175919f, 
0.09432738f, 0.06228252f, 0.06437564f, -0.03141567f, 0.02661496f, 0.04679139f, 0.06057109f, 0.02016327f, 
0.04347529f, 0.04288717f, 0.01102493f, 0.02863716f, 0.07220268f, 0.02400660f, -0.06169699f, -0.04972154f, 
0.01006821f, 0.04432475f, -0.03058174f, -0.02562778f, 0.03580974f, 0.11203724f, 0.15192258f, -0.00814061f, 
-0.08351859f, 0.05784462f, 0.10968086f, 0.07346093f, 0.06465437f, 0.06695523f, 0.00017103f, 0.01108752f, 
0.01119420f, 0.05675099f, 0.06533618f, 0.03255896f, 0.06247460f, 0.07457166f, 0.01821889f, 0.00265376f, 
0.03826888f, 0.04381504f, 0.00278736f, -0.02829931f, 0.05114112f, 0.04097560f, 0.02232410f, 0.02257538f, 
0.06955057f, 0.09492055f, 0.14033647f, 0.05136085f, -0.05754372f, 0.08465670f, 0.04379658f, 0.04175328f, 
-0.02397157f, -0.02764536f, -0.03668773f, -0.00590622f, 0.00466901f, -0.02901102f, 0.06443585f, 0.02150098f, 
0.00178008f, -0.01701794f, 0.04267878f, 0.04719390f, 0.02854957f, 0.00932575f, 0.04707758f, -0.00856220f, 
0.04251359f, 0.07387576f, 0.03043756f, 0.03507975f, 0.09144574f, 0.10643565f, 0.23005472f, 0.07167467f, 
-0.04161817f, 0.06998067f, 0.08265942f, 0.04914041f, 0.01427527f, -0.04789455f, -0.03803788f, -0.01090701f, 
-0.02161578f, 0.04626369f, 0.02169706f, -0.03352156f, -0.01919079f, -0.05242663f, 0.04450084f, 0.02903482f, 
0.03462456f, 0.04521207f, -0.00029609f, -0.03752075f, 0.03685454f, 0.00092657f, 0.06089286f, 0.03208191f, 
0.12293182f, 0.15467893f, 0.21086495f, 0.02317932f, 0.06212124f, 0.14465331f, 0.05732727f, -0.01682460f, 
0.02112212f, 0.05027895f, 0.01846378f, -0.01990536f, -0.01011799f, 0.06367642f, -0.01655201f, -0.03422518f, 
-0.05108523f, -0.03036122f, 0.05238934f, 0.00017993f, -0.01139579f, 0.00447105f, -0.01125051f, -0.03703345f, 
-0.06768675f, 0.05456921f, -0.00403343f, -0.00063234f, 0.01228887f, 0.13966571f, 0.12155028f, -0.00161924f, 
-0.01947432f, 0.05855035f, -0.01946552f, -0.03814848f, -0.07086293f, -0.07464240f, -0.00972251f, -0.01900253f, 
0.02138850f, 0.01248495f, 0.00741959f, 0.01821689f, -0.00082921f, 0.00005131f, -0.01008845f, -0.01938773f, 
-0.04819461f, -0.02862786f, 0.03120976f, 0.06079671f, -0.01810692f, 0.05958986f, 0.00783687f, 0.03461964f, 
0.07508615f, 0.08388809f, 0.06775232f, -0.01906656f, -0.11002336f, 0.02771020f, 0.00649216f, 0.00118681f, 
0.01798605f, -0.03978675f, -0.04059166f, -0.08140945f, -0.08429632f, -0.01446429f, -0.00972953f, -0.06331667f, 
-0.08195081f, -0.02679369f, -0.01446944f, 0.00420851f, -0.06672027f, -0.06051148f, 0.05319300f, 0.04218351f, 
0.02594473f, 0.04246875f, 0.05823111f, 0.05161412f, 0.10828516f, 0.04762911f, -0.00135999f, -0.01368356f, 
-0.06902441f, 0.03748385f, 0.03306581f, -0.03488266f, 0.01444763f, 0.01452192f, -0.00177442f, -0.04072993f, 
-0.01058339f, -0.05243545f, -0.01057364f, -0.01813246f, -0.01484209f, 0.04751704f, 0.00549520f, -0.02476001f, 
0.00691884f, 0.01459059f, -0.05262452f, -0.02364972f, -0.02460758f, 0.09581764f, -0.03298727f, -0.02351917f, 
0.12008105f, 0.06627930f, 0.00249225f, -0.03647083f, -0.12995599f, 0.02127310f, -0.05051191f, 0.01953836f, 
-0.00383559f, -0.02622929f, 0.00818358f, 0.07377918f, 0.01679009f, 0.01694052f, 0.05790494f, 0.06308970f, 
0.07931793f, 0.02748827f, 0.02496027f, -0.00452816f, 0.00667201f, 0.01928794f, -0.04197487f, -0.05554229f, 
-0.02627113f, -0.08900864f, -0.04856044f, -0.04394533f, 0.14832455f, 0.13555196f, 0.07989439f, 0.02405188f, 
-0.14559820f, -0.04348011f, -0.03880397f, 0.06224006f, 0.01795855f, 0.03458910f, 0.07794914f, 0.05068661f, 
-0.02320479f, -0.01153418f, 0.10813212f, 0.12801708f, 0.08169018f, 0.04902718f, -0.00404525f, -0.01988447f, 
-0.06283692f, -0.05590236f, -0.08613671f, -0.04283555f, -0.00556595f, -0.04949354f, 0.04259732f, -0.02691648f, 
0.03819261f, 0.04709972f, 0.03465616f, 0.01537952f, -0.22546616f, -0.10122871f, -0.10661860f, -0.02217215f, 
-0.01620899f, 0.01776218f, 0.01159350f, 0.02733622f, -0.06942602f, 0.01483764f, 0.07556277f, 0.05321649f, 
-0.05650367f, -0.03034840f, -0.05180826f, -0.11994378f, -0.13243514f, -0.10481135f, -0.12748004f, -0.16772859f, 
-0.16031511f, -0.05112402f, 0.00149955f, -0.03091389f, -0.05402184f, -0.04869005f, -0.04772184f, -0.05866063f, 
-0.15862429f, -0.08402385f, -0.05107081f, 0.00708353f, 0.03558394f, 0.07901950f, 0.14892609f, 0.05767362f, 
0.12243654f, 0.06890170f, 0.05966331f, -0.02696209f, -0.08195874f, -0.02192080f, -0.01843126f, -0.04248311f, 
0.03999092f, 0.05812431f, -0.00095651f, 0.05799827f, -0.03115030f, -0.06320843f, -0.02297716f, -0.04847552f, 
-0.08538080f, 0.08789964f, 0.00702757f, -0.02870129f, -0.10005624f, 0.00705787f, 0.02757851f, 0.03022663f, 
0.11623689f, 0.11193535f, 0.21509255f, 0.12714131f, 0.17841031f, 0.16501187f, 0.18006891f, 0.07033312f, 
0.06157309f, 0.11239544f, 0.10926051f, -0.00235747f, 0.08926345f, 0.10674876f, 0.08561528f, 0.04188719f, 
0.03246967f, -0.00666472f, -0.02313659f, -0.02836631f, -0.02283654f, 0.07164194f, 0.01883773f, 0.00316570f, 
-0.08842790f, 0.10278891f, 0.05277122f, 0.00738706f, 0.12203071f, 0.05541115f, 0.03225019f, 0.07602840f, 
0.13698192f, 0.09059586f, 0.12420703f, 0.05837038f, 0.09826227f, 0.10858769f, 0.14999129f, 0.03605790f, 
0.13036433f, 0.12032284f, 0.13460161f, 0.07938813f, 0.00913466f, -0.02083927f, -0.03836671f, -0.02969109f, 
-0.00588405f, -0.00780282f, 0.02579874f, -0.04934619f, -0.01727801f, 0.13831659f, 0.09638404f, 0.08581538f, 
0.09529640f, 0.08353801f, 0.06668540f, 0.03749759f, 0.00191977f, -0.01188099f, 0.00199119f, 0.02509489f, 
0.05078499f, 0.07015963f, 0.10851570f, -0.01823392f, -0.02938648f, -0.00622733f, 0.04670016f, 0.01099613f, 
0.05636866f, 0.00042145f, -0.00219512f, 0.03082512f, 0.04807365f, 0.00445070f, -0.04694217f, -0.09250020f, 
0.01858227f, 0.11804863f, 0.06579348f, 0.03612143f, 0.03244089f, 0.02146814f, 0.07918577f, 0.00624934f, 
-0.06661595f, -0.05626877f, 0.03329145f, 0.04612960f, -0.04124939f, 0.02690517f, 0.04950584f, -0.01268499f, 
-0.04829298f, 0.01124674f, -0.00803595f, 0.02470958f, -0.04753995f, -0.00816373f, -0.07651056f, 0.04144380f, 
0.06694272f, -0.03769348f, -0.03670637f, -0.16102940f, -0.04073302f, 0.11720981f, 0.09860642f, 0.08405264f, 
0.03816760f, 0.09501415f, 0.07718389f, -0.00284183f, -0.01187006f, 0.00653309f, 0.03629323f, 0.04261379f, 
0.03757678f, 0.02153525f, 0.03729011f, 0.00708341f, -0.02436426f, -0.02449981f, -0.01989290f, 0.00935349f, 
-0.05977009f, -0.01376518f, -0.02087320f, 0.02885087f, -0.01817957f, -0.12029190f, -0.05797705f, -0.15905656f, 
-0.03692340f, 0.10694043f, 0.08365952f, 0.09424879f, 0.04409596f, 0.00421098f, 0.01220100f, -0.01396551f, 
0.01919703f, 0.05620113f, 0.07459378f, 0.10238036f, 0.06522692f, 0.02028257f, 0.03871007f, 0.06360244f, 
0.03941981f, -0.00055633f, 0.00865370f, -0.06283282f, -0.06164337f, -0.04192674f, -0.04710454f, -0.03498556f, 
-0.02605686f, -0.04440633f, -0.05826838f, -0.23813371f, -0.03786764f, 0.07018761f, 0.09339142f, 0.04505911f, 
0.09560297f, 0.08462580f, 0.02215014f, 0.04647907f, 0.03872903f, 0.07139760f, 0.05992477f, -0.00312691f, 
0.03644682f, -0.00684308f, -0.01483302f, 0.02422892f, 0.03070476f, 0.03103575f, 0.01484174f, 0.01152420f, 
0.00547722f, 0.02632887f, -0.02330060f, -0.08730171f, -0.00523121f, -0.04663120f, -0.05611974f, -0.26466745f, 
-0.09006488f, 0.08421838f, 0.05308198f, -0.00012795f, 0.04814559f, 0.04775579f, 0.01471438f, 0.03244618f, 
0.02435169f, 0.05228923f, -0.03598562f, -0.09527761f, -0.00456311f, -0.01555817f, -0.01712261f, 0.05722688f, 
0.06825688f, 0.00669152f, -0.04956251f, -0.00876349f, 0.01813238f, 0.02555232f, 0.02652970f, 0.01937139f, 
-0.00257383f, -0.12010009f, -0.11886380f, -0.25741714f, -0.04336777f, 0.05351062f, 0.05021638f, 0.03152570f, 
0.07147751f, 0.04704326f, 0.01040948f, 0.00313532f, 0.01202932f, 0.03184361f, -0.05019087f, -0.10109735f, 
-0.11458788f, -0.03038903f, 0.00752322f, 0.05013300f, 0.05445528f, -0.01457659f, -0.06601539f, -0.06618781f, 
0.04680194f, 0.02684591f, -0.00753187f, 0.05026727f, 0.01434263f, -0.15410049f, -0.09481294f, -0.24296564f, 
-0.08333746f, 0.05797016f, 0.02911525f, -0.03252613f, 0.01363189f, 0.00512077f, 0.02872561f, 0.01561668f, 
0.08017448f, -0.03968072f, -0.17168899f, -0.15017015f, -0.07893915f, -0.08424158f, -0.07213718f, -0.00243360f, 
-0.04383518f, -0.00897686f, 0.00740171f, 0.01272910f, -0.00944394f, 0.04438563f, 0.06720809f, 0.11477124f, 
0.00427627f, -0.12042858f, -0.08645253f, -0.20335479f, -0.14915867f, 0.00565565f, 0.06132230f, 0.05450385f, 
0.01489648f, 0.00355201f, 0.03896471f, 0.06603080f, 0.05581639f, -0.09412117f, -0.15411672f, -0.16939062f, 
-0.08205368f, -0.09346437f, -0.07920031f, -0.01395505f, -0.04055248f, 0.01535118f, 0.04168345f, 0.05516466f, 
0.06326388f, 0.07003009f, 0.05775068f, 0.09628182f, 0.03293931f, -0.06306048f, -0.04058536f, -0.24925876f, 
-0.11839135f, 0.01296170f, 0.07187951f, 0.05870279f, -0.00956217f, -0.01298112f, 0.03718292f, 0.01191280f, 
0.02743435f, -0.03037656f, -0.09004963f, -0.12520671f, -0.17655766f, -0.04075453f, -0.04824598f, -0.03175554f, 
-0.08196341f, -0.03860415f, 0.02455985f, 0.00581728f, 0.13090813f, 0.13159606f, 0.07547141f, 0.09173978f, 
0.00081963f, -0.09566028f, -0.05035087f, -0.16223654f, -0.02203352f, 0.01391240f, 0.02536092f, 0.00867311f, 
0.04009842f, 0.03898963f, 0.07954215f, 0.03410172f, 0.10247638f, 0.00811921f, -0.08021279f, -0.13591889f, 
-0.03648989f, -0.04415786f, -0.06317363f, -0.01874715f, -0.11114366f, -0.07849780f, 0.02421276f, 0.03909917f, 
0.07952939f, 0.08709016f, 0.06023221f, -0.00032348f, -0.11170841f, -0.12678921f, -0.05474710f, -0.22029419f, 
-0.02179921f, 0.02313229f, -0.01593455f, -0.01584081f, -0.03778641f, -0.01409464f, 0.11099340f, 0.07608746f, 
0.00879464f, -0.01081412f, -0.05881917f, -0.11639551f, 0.02094331f, 0.00704230f, -0.00751441f, 0.00967361f, 
-0.03545514f, -0.10994001f, 0.01129813f, 0.04745778f, 0.07523886f, 0.09170599f, 0.04812337f, -0.00712905f, 
-0.06692408f, -0.09248759f, 0.00031018f, -0.22248483f, -0.01791460f, 0.05488732f, 0.00769733f, 0.08092752f, 
0.02101702f, -0.00668348f, 0.10533920f, 0.05669577f, 0.02812774f, 0.05428619f, -0.00107349f, -0.09937985f, 
0.03814173f, 0.00897554f, -0.10832930f, 0.06079415f, 0.02464640f, 0.00971960f, 0.02777923f, 0.02723645f, 
0.03311046f, 0.05698374f, -0.09073504f, -0.01839772f, -0.05620384f, -0.12682611f, -0.12320014f, -0.20891635f, 
-0.15007547f, -0.03455400f, -0.07808473f, 0.01811099f, 0.08849786f, 0.03137685f, 0.08942639f, 0.07987163f, 
0.10403192f, 0.09479823f, 0.09999371f, 0.05039401f, 0.06424747f, 0.05961852f, -0.07053647f, 0.01369167f, 
0.03651542f, 0.01685552f, 0.00811057f, -0.00534917f, -0.03543829f, -0.09411552f, -0.12945695f, -0.07487322f, 
-0.08545972f, -0.20240621f, -0.12222394f, -0.17883962f, -0.18598518f, -0.06963804f, -0.04915398f, -0.00434847f, 
0.10011454f, 0.08671735f, 0.12429301f, 0.09141956f, 0.08381414f, 0.12907897f, 0.14047822f, 0.03500232f, 
0.08619352f, 0.01473237f, -0.03342370f, 0.06001796f, 0.04283750f, 0.00391465f, 0.00743222f, 0.01549855f, 
0.00972679f, -0.07004183f, -0.07567582f, 0.01475337f, 0.01774666f, -0.10602459f, -0.09126220f, -0.15418988f, 
-0.11425713f, -0.07528225f, -0.04874779f, 0.04664131f, 0.05134984f, 0.09128743f, 0.11382395f, 0.04259110f, 
0.05068550f, 0.05993235f, 0.14093916f, 0.10926694f, 0.12110526f, 0.07691240f, 0.01366875f, 0.10668009f, 
0.05111447f, 0.03499007f, 0.00091769f, 0.01446335f, -0.05347687f, -0.04145504f, -0.04936161f, -0.01236002f, 
-0.05676077f, -0.15304758f, -0.14025369f, -0.17097670f, -0.12248911f, -0.02176263f, -0.02272348f, 0.03301296f, 
0.04940666f, 0.05604869f, 0.11067539f, 0.11271244f, 0.15018593f, 0.11607192f, 0.14618307f, 0.09370536f, 
0.06380886f, 0.06414862f, 0.04329696f, 0.06162740f, -0.00620478f, -0.04084323f, -0.06577904f, -0.00247194f, 
-0.04371620f, -0.02567404f, -0.02586609f, -0.00441649f, -0.09497038f, -0.13169086f, -0.11571297f, -0.19651681f, 
-0.15191436f, -0.08860978f, -0.12582876f, 0.05277205f, 0.05339864f, 0.02888497f, 0.14089358f, 0.09474194f, 
0.07639419f, 0.05551051f, 0.08366872f, 0.08731995f, 0.07622660f, 0.09015858f, 0.03083646f, 0.01707494f, 
-0.01498572f, -0.07330249f, -0.02479009f, -0.01251113f, 0.00493040f, 0.02141704f, -0.05782007f, -0.10220839f, 
-0.14222273f, -0.12781392f, -0.15955752f, -0.22323203f, -0.12698463f, -0.10567760f, -0.06322996f, 0.05624204f, 
0.01733172f, -0.00104402f, 0.08499159f, -0.00193982f, 0.04612066f, 0.02301611f, 0.02548781f, 0.00266607f, 
0.00583693f, 0.04935509f, 0.00893458f, -0.01145279f, -0.06894813f, -0.06453499f, 0.00228282f, 0.00723668f, 
-0.00064257f, 0.05721821f, -0.02602204f, -0.05408855f, -0.18776459f, -0.17866921f, -0.19250011f, -0.22517638f, 
-0.05245675f, 0.01351090f, 0.04667663f, 0.01396992f, 0.03035493f, 0.03910720f, -0.02898947f, -0.02501006f, 
0.01495716f, 0.00356009f, -0.00655039f, -0.08201867f, 0.01198794f, 0.00010578f, -0.04827121f, -0.07357243f, 
-0.07293524f, -0.03610713f, -0.00040940f, -0.03107048f, 0.04620250f, 0.01236138f, -0.04529454f, -0.05596410f, 
-0.06413364f, -0.10073205f, -0.16968207f, -0.23917951f, -0.06735316f, 0.03726017f, 0.07220025f, 0.03551144f, 
0.07812107f, 0.00130863f, -0.06136651f, -0.05555250f, -0.06750131f, -0.14236495f, -0.08117195f, -0.09406988f, 
-0.01544265f, -0.01811998f, -0.05025167f, -0.05506857f, -0.01400602f, -0.04316419f, 0.00850930f, 0.02153275f, 
0.02915731f, 0.06545766f, 0.02859936f, -0.00562179f, 0.00051910f, -0.00802003f, -0.04311493f, -0.14649144f, 
0.01681668f, 0.01061898f, 0.06315691f, 0.10408545f, 0.03070495f, 0.01567091f, -0.03095512f, -0.02459885f, 
-0.04011711f, -0.11298116f, -0.07528249f, -0.10586871f, -0.03561791f, -0.08530633f, -0.05087788f, -0.04471033f, 
-0.04060278f, -0.07818879f, -0.00422165f, 0.01978747f, 0.01713361f, -0.04026911f, 0.02213264f, 0.04978678f, 
0.02251533f, 0.06799518f, -0.05063730f, -0.11013059f, -0.05164624f, -0.12242021f, -0.02700525f, -0.00682846f, 
-0.02676413f, -0.02760606f, -0.05665312f, -0.02008212f, -0.02990802f, 0.01283170f, -0.07414107f, -0.11166545f, 
-0.11012366f, -0.09002331f, -0.03755483f, -0.02637049f, -0.07990763f, -0.05712919f, -0.05443221f, 0.04065837f, 
0.03071222f, 0.12409499f, 0.02249898f, 0.11215740f, 0.05908626f, 0.09750972f, 0.05044558f, -0.03328582f, 
-0.03645053f, -0.07396918f, -0.15783171f, -0.15097082f, -0.09450576f, -0.05322908f, -0.06497355f, -0.06459327f, 
-0.10206413f, -0.13261184f, -0.13598289f, -0.07445402f, -0.08012991f, -0.15511405f, -0.02435141f, 0.00156948f, 
-0.08760642f, -0.08408189f, -0.04456286f, 0.09542637f, 0.02304217f, 0.10529331f, 0.02772181f, 0.05021105f, 
0.04431367f, 0.11107564f, 0.01026059f, -0.08988447f, 0.04873589f, -0.02914724f, -0.12737750f, -0.16792870f, 
-0.12693907f, -0.04818521f, -0.02225810f, -0.09572546f, -0.06288006f, -0.12843671f, -0.07430919f, 0.05559199f, 
-0.10783220f, -0.14346835f, -0.07221648f, -0.05018900f, -0.14976545f, -0.10414763f, 0.04488924f, 0.15084369f, 
0.06729804f, 0.13423854f, 0.06052629f, 0.07210752f, 0.09886438f, 0.12085263f, -0.00182656f, -0.15240622f, 
0.14915229f, -0.05647507f, -0.01941016f, 0.03092994f, 0.07994161f, 0.12294730f, -0.05585945f, 0.07375392f, 
0.09404187f, 0.04770480f, 0.02382840f, 0.02526800f, 0.02313139f, -0.02373000f, 0.04638072f, 0.04224625f, 
0.03079657f, -0.02247696f, 0.04227737f, 0.06896584f, -0.04170160f, 0.07777235f, 0.04668703f, 0.12671538f, 
-0.00503455f, 0.14147554f, 0.12853158f, 0.20600802f, 0.04197704f, -0.05029327f, -0.06438937f, -0.05007930f, 
-0.05283084f, -0.02892294f, -0.05722750f, -0.01203212f, -0.00136036f, 0.07465155f, 0.00643022f, 0.06955257f, 
0.06185401f, 0.06853796f, 0.07151698f, 0.08913416f, 0.07897871f, 0.04575038f, 0.01607609f, 0.07628091f, 
0.01432269f, -0.01848429f, 0.05126957f, 0.11776152f, 0.06997541f, 0.08732477f, 0.05143010f, 0.14702924f, 
0.09841966f, -0.06123406f, 0.05093622f, -0.01355146f, 0.03874182f, 0.07730450f, 0.11275310f, 0.06219322f, 
0.06023647f, 0.07919763f, 0.10466895f, 0.09915569f, 0.10032687f, 0.10155278f, 0.12235920f, 0.06648824f, 
0.08270262f, 0.04540499f, 0.09966461f, 0.09757968f, 0.07036308f, 0.03050250f, -0.00225696f, 0.07436033f, 
0.03617267f, 0.06977477f, 0.04386296f, 0.13309716f, 0.22905049f, 0.08823447f, 0.05042595f, 0.07678481f, 
0.03368973f, 0.07136132f, 0.06327666f, 0.09831402f, 0.10276438f, 0.08466695f, 0.14718872f, 0.04977289f, 
0.07408483f, 0.09431262f, 0.07675389f, 0.04494807f, 0.00023630f, 0.05117698f, 0.04501112f, 0.05128156f, 
0.03595778f, 0.05281743f, 0.08053641f, 0.03909300f, 0.01379380f, 0.05937936f, 0.05424098f, 0.17554997f, 
0.18374133f, 0.09014287f, 0.16824560f, 0.13858765f, 0.12095524f, 0.11658344f, 0.07971185f, 0.09231649f, 
0.09548099f, 0.12668939f, 0.20557976f, 0.14148617f, 0.12262635f, 0.00134948f, 0.05538727f, 0.02616504f, 
0.02467833f, -0.01560160f, -0.00542190f, 0.01231800f, 0.00313764f, 0.02057132f, 0.01618289f, -0.08227324f, 
-0.02889388f, 0.03241475f, 0.08431561f, 0.14865674f, 0.12999396f, 0.08204251f, 0.18863761f, 0.18454030f, 
0.15876795f, 0.10921235f, 0.08475940f, 0.14491375f, 0.17042363f, 0.17554709f, 0.17749316f, 0.14457838f, 
0.13458361f, 0.10910547f, 0.08351798f, 0.07680665f, 0.07415009f, -0.00150581f, 0.03176766f, 0.00845505f, 
-0.03968503f, 0.03420597f, -0.05470895f, -0.10346410f, -0.02694516f, -0.00890762f, -0.01289701f, 0.00081111f, 
0.08941544f, 0.02962735f, 0.06989332f, 0.17354566f, 0.15395503f, 0.08883875f, 0.06421557f, 0.12338692f, 
0.17971079f, 0.18254973f, 0.14170019f, 0.09047208f, 0.18892747f, 0.13092415f, 0.06241941f, 0.04020124f, 
0.04459579f, -0.05450439f, 0.00902854f, -0.02349646f, -0.05125574f, -0.00002833f, -0.02554223f, -0.10492154f, 
0.00950815f, 0.01922623f, -0.04671821f, 0.00449482f, 0.03687458f, 0.02034230f, 0.07533944f, 0.17392929f, 
0.16141939f, 0.06898317f, 0.06360082f, 0.07049312f, 0.05930711f, 0.08627621f, 0.00637532f, 0.07411440f, 
0.09273838f, 0.03587683f, 0.09814525f, 0.06390101f, 0.09757856f, 0.06598829f, 0.04647832f, 0.06709600f, 
-0.01036216f, -0.02322335f, -0.07652532f, -0.11365770f, -0.09612240f, -0.11211728f, -0.12858953f, 0.05324750f, 
-0.05985994f, -0.04234216f, 0.05633427f, -0.00651295f, 0.05782372f, 0.02385912f, -0.00489567f, 0.04248770f, 
0.02646256f, -0.06191316f, -0.00413241f, -0.00369247f, 0.03339564f, 0.00182984f, 0.02136602f, 0.01068789f, 
-0.03600763f, -0.01985957f, 0.02733307f, 0.02161205f, -0.02223090f, -0.07511193f, -0.02560227f, -0.16385171f, 
-0.11656772f, -0.10883101f, -0.15431264f, -0.00000414f, -0.08266635f, -0.09945501f, -0.01302620f, -0.05779985f, 
-0.01982685f, -0.03878703f, -0.03963770f, 0.01215792f, -0.05829571f, -0.06005329f, -0.14300904f, -0.09149436f, 
-0.08686102f, -0.11691439f, -0.10519148f, -0.06073909f, -0.11086290f, -0.10587437f, -0.04522498f, -0.01155401f, 
0.01423322f, -0.01489163f, -0.03653245f, -0.05779514f, -0.12654464f, -0.08916725f, -0.15624906f, -0.07472132f, 
-0.14056766f, -0.14325461f, -0.02799133f, -0.04862194f, -0.02593741f, -0.07388625f, -0.06832717f, 0.01158919f, 
-0.04153338f, -0.10389493f, -0.17675586f, -0.11039322f, -0.09001955f, -0.11971179f, -0.08572044f, -0.03835152f, 
-0.10001954f, -0.13696185f, -0.04110111f, 0.00021378f, 0.05752271f, 0.06192067f, 0.02820381f, -0.04485291f, 
-0.03555389f, -0.03443200f, -0.23874073f, -0.01121854f, -0.03586290f, -0.15034513f, -0.13742959f, -0.10725225f, 
-0.02348530f, -0.08899944f, -0.14516366f, -0.04814311f, -0.01764923f, -0.09427756f, -0.12015183f, -0.12586571f, 
-0.10569643f, -0.15796679f, -0.03224437f, -0.03634455f, -0.09394658f, -0.09995256f, -0.05574990f, -0.03846957f, 
0.02786938f, 0.05590768f, 0.01209020f, 0.03725091f, -0.02174386f, -0.02553435f, -0.14062706f, 0.04465233f, 
-0.15230948f, -0.17399772f, -0.17544612f, -0.03842580f, -0.03100439f, -0.11748981f, -0.06040339f, -0.06496938f, 
-0.02858404f, -0.03463563f, -0.03429780f, -0.00358710f, -0.13629462f, -0.12133585f, -0.07465331f, -0.08493601f, 
-0.01423666f, -0.05773527f, -0.01462749f, 0.01394366f, 0.04207005f, 0.09184098f, 0.01521416f, -0.04562958f, 
0.03605004f, 0.04680512f, -0.12449428f, 0.06742954f, -0.12025785f, -0.13215788f, -0.08441047f, -0.07647961f, 
-0.03630842f, -0.05017336f, -0.00269872f, -0.03679628f, 0.01739314f, -0.00755252f, -0.03270311f, 0.01396156f, 
-0.09130646f, -0.10214127f, -0.06195759f, -0.03373552f, -0.01817011f, -0.05179497f, -0.05604151f, 0.01687817f, 
0.04985799f, 0.01629741f, 0.02866651f, 0.01443649f, 0.03193199f, 0.00794914f, -0.12398153f, 0.00708245f, 
-0.11601903f, -0.13711181f, -0.10268432f, -0.12295467f, -0.04147846f, -0.02909554f, -0.02240063f, 0.00384213f, 
0.01634374f, 0.06449527f, -0.02526253f, -0.01196135f, -0.05222270f, -0.09688854f, -0.12292883f, -0.07233670f, 
-0.01527141f, -0.07124615f, -0.12314975f, -0.03574517f, -0.06737580f, 0.05962351f, 0.02710635f, 0.04979292f, 
-0.01859418f, 0.00826761f, -0.07497736f, 0.09988961f, -0.19655733f, -0.14961654f, -0.09660010f, -0.02801159f, 
0.05542313f, 0.01723860f, 0.06299073f, -0.04481503f, -0.04117431f, -0.00657070f, -0.07250964f, -0.04775632f, 
-0.03452277f, -0.05523311f, -0.03945132f, -0.02245986f, -0.04010833f, -0.10738596f, -0.08339740f, -0.07666059f, 
-0.02370135f, -0.03401904f, 0.01422540f, 0.06000170f, 0.01835616f, 0.06434863f, -0.04739649f, 0.15048042f, 
-0.12410183f, -0.16209750f, -0.06304996f, -0.06169602f, -0.01242050f, 0.06007085f, 0.06194448f, -0.01026562f, 
0.00430109f, 0.03246423f, -0.04392325f, -0.02024327f, -0.03536495f, -0.09104797f, -0.00754563f, -0.02957918f, 
-0.04371042f, -0.02968082f, -0.06555233f, -0.04520176f, -0.04248998f, -0.04194038f, 0.00382739f, 0.00963110f, 
0.03233754f, 0.07456771f, -0.10739989f, 0.03753258f, 0.02881761f, -0.17042784f, -0.07678205f, -0.09163468f, 
0.00611197f, -0.00361426f, 0.03108695f, 0.01827600f, -0.00091018f, 0.02025892f, -0.00903215f, -0.04763513f, 
-0.09969033f, -0.03755784f, -0.00041939f, -0.01529373f, -0.03139844f, -0.08233276f, -0.02159046f, -0.00444967f, 
0.01267176f, -0.02250096f, 0.00408000f, 0.04985464f, 0.02477180f, 0.14429897f, -0.06560335f, 0.03296338f, 
0.03034651f, -0.09679526f, -0.01540519f, -0.06981028f, -0.02642881f, -0.10810402f, -0.00677323f, -0.09415506f, 
-0.09015387f, -0.09301953f, -0.04845916f, -0.01887494f, -0.01085177f, 0.02149596f, 0.02276118f, 0.02405989f, 
-0.04496143f, -0.01053252f, -0.00442532f, 0.06920620f, 0.05590994f, -0.01276550f, 0.04248266f, 0.04158280f, 
0.10484245f, 0.16437389f, -0.01153636f, 0.07936668f, -0.03403781f, -0.09500655f, -0.00302404f, -0.06694634f, 
-0.02276899f, -0.01571520f, 0.01966739f, -0.07200450f, -0.09209709f, -0.01009075f, -0.03164143f, 0.02246683f, 
-0.04344713f, 0.02401527f, 0.00780744f, 0.01261480f, 0.02606842f, 0.02582918f, 0.02233755f, 0.05431134f, 
-0.01230166f, -0.00187741f, 0.02525651f, -0.00166844f, 0.09893871f, 0.12526138f, 0.05008980f, 0.17202820f, 
0.07064495f, -0.00413910f, 0.03715320f, -0.04484072f, -0.06206951f, 0.02198293f, -0.04512211f, -0.04308166f, 
-0.10767153f, -0.04973551f, -0.04951745f, -0.03272292f, 0.00222716f, -0.00270380f, 0.08498830f, 0.03281664f, 
-0.00379345f, -0.00184560f, -0.00308943f, 0.02354531f, -0.02149033f, 0.03295014f, -0.00618555f, 0.07061370f, 
0.08958613f, 0.07367423f, 0.02348720f, 0.26389256f, 0.08733572f, -0.03281516f, -0.01475151f, -0.01842930f, 
-0.01402016f, 0.04803300f, -0.08057731f, 0.05624590f, 0.01195558f, 0.07326718f, 0.06995822f, 0.06501134f, 
0.05544570f, 0.00832099f, -0.00914539f, 0.03166926f, 0.03841254f, 0.01609715f, -0.01653210f, 0.00514642f, 
0.01711947f, -0.00850215f, -0.00632181f, 0.03197442f, 0.13426700f, 0.03965051f, 0.04396374f, 0.23413965f, 
0.03565031f, -0.06426468f, 0.01084027f, -0.03925775f, 0.06026988f, 0.09105371f, 0.05467778f, 0.05873886f, 
0.02820556f, -0.01250210f, 0.02029341f, 0.10719843f, 0.05992679f, 0.12152278f, 0.11311352f, 0.09182095f, 
0.04018676f, 0.01005099f, 0.02040442f, -0.01525402f, 0.01851073f, 0.01431728f, 0.01094620f, 0.00769800f, 
0.07414696f, 0.16384107f, 0.07831801f, 0.17345230f, 0.03073367f, -0.03345413f, 0.06295018f, -0.01584546f, 
0.05804711f, 0.04879694f, 0.02882822f, 0.03458851f, 0.03395952f, 0.10655715f, 0.09378872f, 0.15757078f, 
0.11309523f, 0.13181725f, 0.09004318f, 0.08881125f, 0.06443716f, 0.00824351f, 0.01911958f, 0.04521831f, 
0.12980182f, 0.04957460f, 0.02796754f, -0.08217186f, -0.03779353f, 0.16287896f, 0.02264750f, 0.06988867f, 
-0.00847186f, -0.06183453f, 0.04154807f, 0.03563061f, 0.04217192f, 0.03828729f, 0.00198345f, 0.06367129f, 
0.04826201f, 0.08759355f, 0.08147389f, 0.10012183f, 0.02843855f, 0.06044761f, 0.04337162f, 0.04685533f, 
0.12206148f, 0.01528455f, 0.03219865f, 0.02524071f, 0.03663055f, 0.03756406f, -0.01109128f, -0.06604997f, 
0.03776012f, 0.12876159f, 0.11301326f, 0.03258621f, 0.06604668f, -0.00863536f, 0.12015828f, 0.04187073f, 
0.17131406f, 0.15310633f, 0.04024561f, 0.01182682f, 0.04455975f, 0.00386551f, 0.03521888f, 0.03526684f, 
0.03910310f, 0.03798480f, 0.06757221f, 0.07386260f, 0.02488083f, 0.04639861f, 0.05461749f, 0.08533280f, 
0.04548154f, 0.10244954f, -0.00340689f, -0.00850990f, 0.01279150f, 0.03029478f, -0.03980378f, -0.00670691f, 
0.02373668f, -0.02886575f, 0.01654999f, -0.03596558f, 0.03924564f, 0.02137784f, 0.02742511f, -0.03352579f, 
-0.01224303f, 0.03231991f, -0.02207728f, 0.02800328f, -0.01170702f, -0.03728520f, -0.00269390f, 0.03425297f, 
-0.06592010f, -0.01453104f, 0.00716156f, -0.02668886f, -0.01733987f, 0.01858363f, 0.03333415f, 0.03734241f, 
0.02337249f, 0.02591310f, 0.00811993f, 0.06618922f, 0.06975336f, 0.00775668f, 0.08283067f, 0.06947813f, 
0.11250623f, 0.12789106f, 0.10103404f, 0.01764354f, 0.03328433f, 0.01240992f, 0.04204741f, 0.03894550f, 
0.04120483f, -0.00781383f, 0.04434564f, 0.08144201f, 0.02134403f, 0.04005497f, 0.03368870f, 0.05074516f, 
-0.02684051f, -0.01118826f, 0.06108040f, -0.01879507f, 0.07851808f, 0.07846562f, 0.08257280f, 0.14812513f, 
-0.09144432f, -0.07390198f, -0.04775893f, -0.07362282f, -0.00305605f, -0.03851368f, -0.09606497f, -0.12781681f, 
-0.11176313f, -0.08625037f, 0.03421870f, -0.03781610f, 0.03241723f, -0.02765615f, 0.03326948f, 0.00749079f, 
-0.03460750f, -0.02922241f, -0.02043864f, -0.06683469f, -0.07877148f, -0.11620986f, -0.06902368f, -0.06316825f, 
-0.08993399f, -0.21349619f, -0.16791356f, -0.14416035f, -0.00742141f, 0.00040658f, -0.02804901f, -0.01611000f, 
0.08583598f, 0.02336877f, -0.00775726f, 0.01693948f, 0.03967844f, 0.02268689f, 0.03802728f, 0.09810042f, 
0.05980025f, 0.07596248f, 0.10099978f, 0.04969964f, 0.08794618f, -0.02727601f, 0.02210614f, 0.02135330f, 
0.02065408f, -0.00411985f, -0.02136669f, -0.08285607f, -0.03575582f, -0.18381101f, -0.16538811f, -0.16559294f, 
-0.06932770f, -0.06517415f, -0.12078860f, 0.00049705f, -0.00248068f, -0.03286114f, -0.04749624f, -0.00630028f, 
0.03387387f, 0.05093629f, 0.02289318f, 0.06814766f, 0.01770975f, -0.03479481f, 0.04404236f, 0.02423798f, 
-0.00318390f, -0.04473488f, 0.02041214f, -0.05983988f, 0.06873959f, 0.01771545f, -0.06503383f, -0.05769379f, 
-0.06115224f, -0.15501224f, -0.19712757f, -0.19327511f, 0.01313362f, -0.06877149f, -0.11125977f, -0.01881645f, 
-0.00487933f, -0.01054668f, -0.02155268f, -0.01384006f, -0.00573277f, 0.05408180f, -0.02810119f, -0.01222028f, 
-0.01813676f, -0.06668435f, -0.04839955f, -0.03361355f, -0.03763717f, 0.00472323f, -0.00464209f, 0.01388947f, 
-0.01906822f, -0.03991188f, -0.08827230f, -0.06012354f, -0.06873535f, -0.08888982f, -0.16925102f, -0.21118566f, 
-0.10031767f, -0.02826818f, -0.05743748f, -0.04403269f, -0.00568458f, -0.06290354f, -0.09337498f, 0.04063620f, 
-0.02367656f, 0.00136622f, -0.02676285f, 0.02155818f, -0.06034249f, -0.09681728f, -0.07928251f, -0.05699658f, 
-0.05117209f, -0.05248484f, -0.06647930f, -0.01758383f, 0.02001375f, -0.06105734f, -0.04539146f, -0.01521461f, 
-0.02342496f, -0.11049822f, -0.08121277f, -0.16726701f, -0.12508373f, 0.02850012f, 0.01525643f, 0.00793074f, 
0.02429194f, 0.02109601f, -0.01922419f, 0.08670229f, 0.04283563f, 0.00915617f, -0.01056582f, 0.05022756f, 
-0.01363970f, -0.11224364f, -0.07189041f, -0.02003478f, -0.03654885f, -0.03693020f, -0.08349487f, -0.02041454f, 
0.01774704f, -0.06512392f, -0.08382066f, -0.00833506f, -0.01978761f, -0.09667935f, -0.03344359f, -0.13142325f, 
-0.01453326f, 0.07714339f, 0.03146163f, 0.05723163f, 0.05762872f, 0.01428747f, 0.02147172f, 0.05936781f, 
-0.02126993f, -0.06064288f, 0.00488352f, 0.04478154f, 0.00171828f, -0.06951554f, -0.03659633f, 0.02095111f, 
-0.00631592f, -0.08765297f, -0.06132845f, -0.00112083f, -0.01230495f, -0.07587518f, -0.04573756f, -0.04793008f, 
-0.09531827f, -0.05387320f, 0.00126926f, -0.06582262f, -0.07201345f, 0.06755745f, 0.14699997f, 0.11546856f, 
0.06155391f, 0.07663229f, 0.05189819f, 0.02621682f, 0.01356861f, 0.04752929f, 0.00006514f, -0.02338146f, 
-0.01192917f, -0.01995219f, -0.07387899f, -0.02556819f, -0.06332426f, 0.01436753f, 0.01831716f, -0.01809436f, 
0.03015324f, -0.02018223f, -0.00762855f, -0.02354660f, -0.07731119f, -0.04523822f, -0.02669997f, -0.09067939f, 
-0.03483654f, 0.03722363f, 0.09409233f, 0.07105374f, -0.02526359f, 0.05473999f, 0.10540548f, 0.02399792f, 
0.03377204f, 0.09226571f, -0.04792028f, -0.03617696f, -0.02636641f, -0.04697473f, -0.07936718f, -0.01901867f, 
0.02205781f, 0.00988130f, -0.00797918f, 0.06239834f, 0.03565245f, -0.00229168f, -0.05927032f, -0.07918755f, 
-0.11136861f, -0.08224007f, -0.05800422f, -0.14162683f, 0.02967574f, -0.03480907f, 0.04285307f, -0.00702854f, 
