#ifndef MODEL_WEIGHTS_H
#define MODEL_WEIGHTS_H

#include "neural_network.h"

const float fc1_weights[] = {
-0.01997348f, -0.00057661f, -0.00634771f, -0.00814955f, -0.01511604f, -0.04079226f, -0.08425659f, -0.03553215f, 
-0.07722436f, -0.07310382f, 0.01054282f, 0.03774747f, 0.02358989f, -0.01451719f, 0.03949201f, 0.08969618f, 
0.01930146f, 0.06863973f, 0.10553499f, 0.02999333f, 0.10291163f, 0.05680383f, 0.05450764f, 0.02435939f, 
-0.02599850f, 0.00178134f, 0.00739167f, -0.03581191f, -0.01655693f, 0.08619781f, 0.16851166f, 0.10916663f, 
0.07053435f, 0.04286625f, -0.02790851f, -0.00472485f, -0.01694361f, 0.03978811f, 0.00648989f, 0.05745655f, 
0.04482402f, 0.04729748f, 0.02715522f, 0.05097793f, -0.11716743f, -0.02466432f, 0.01883484f, 0.00236209f, 
0.02048902f, 0.01528390f, -0.03505797f, 0.00305103f, -0.01640799f, -0.00751160f, -0.03099327f, 0.00132561f, 
0.17100404f, 0.18738265f, 0.10732369f, 0.04587533f, 0.03482248f, 0.02358874f, 0.05014126f, 0.00934735f, 
0.06259845f, 0.20699199f, 0.16788320f, 0.14411317f, 0.11382294f, 0.13144851f, 0.15770978f, 0.25306457f, 
0.22256806f, 0.17454256f, 0.01935515f, 0.04974057f, 0.02438628f, 0.02513662f, 0.04442012f, -0.00125820f, 
-0.03245327f, 0.02480257f, 0.03430028f, 0.09832422f, 0.18964957f, 0.19043095f, 0.12324771f, 0.06618790f, 
0.00256745f, 0.09150228f, 0.10644310f, 0.07164141f, 0.10573965f, -0.01163058f, 0.11667563f, 0.15880221f, 
0.09491084f, 0.09070507f, 0.01961086f, 0.13685414f, 0.09735996f, -0.05374786f, -0.13989858f, -0.04095142f, 
-0.14701891f, -0.16722691f, -0.04202620f, 0.08229902f, 0.11222682f, -0.07040647f, -0.07370724f, 0.03355097f, 
0.12371384f, 0.08257408f, 0.06373499f, -0.05813305f, -0.05844333f, 0.03462816f, -0.03637306f, -0.13142626f, 
-0.08687053f, -0.13643461f, -0.12001755f, -0.02945603f, -0.02306439f, 0.01601575f, 0.08877231f, 0.13556731f, 
0.03238836f, -0.02257544f, -0.07160477f, -0.12407940f, -0.14854839f, -0.15775891f, -0.11407305f, -0.25092536f, 
-0.17700379f, -0.23601170f, -0.16488162f, 0.01363867f, 0.05759803f, -0.02290986f, -0.01137979f, -0.03009023f, 
-0.02256897f, -0.00973224f, -0.00068800f, -0.08404596f, -0.08388408f, -0.12147509f, -0.20760146f, -0.11832056f, 
0.07798031f, 0.04057041f, 0.07694529f, 0.15947112f, 0.13474880f, 0.02742450f, -0.02635935f, -0.16840425f, 
-0.31703535f, -0.25473499f, -0.16727832f, -0.19422615f, -0.15708815f, -0.23202212f, -0.09974690f, -0.04939754f, 
-0.08353085f, -0.09219994f, -0.06355610f, -0.07898102f, -0.06652851f, -0.02157124f, -0.05283948f, -0.06336342f, 
-0.12905671f, -0.10073504f, -0.05531336f, -0.02555608f, -0.04434753f, -0.00345602f, -0.01788422f, 0.07917568f, 
0.17374714f, 0.09554726f, 0.01200510f, -0.10425430f, -0.40559739f, -0.33794856f, -0.32047486f, -0.25421795f, 
-0.24116831f, -0.12913546f, -0.06756250f, 0.01695589f, -0.09463620f, -0.01758382f, -0.06093500f, 0.03426177f, 
0.18971279f, 0.10480548f, -0.09135121f, 0.07391917f, -0.13178605f, -0.00528107f, 0.01998209f, -0.08690185f, 
-0.16283540f, -0.10166559f, -0.07352185f, 0.07126589f, 0.13959064f, 0.27710295f, 0.10403715f, -0.08316390f, 
-0.38937312f, -0.44940466f, -0.37845501f, -0.22660425f, -0.25200501f, -0.13647345f, -0.03755257f, -0.01643839f, 
-0.05175192f, -0.07293526f, -0.09782122f, 0.00724361f, 0.24821962f, 0.16862951f, -0.01728928f, 0.02319976f, 
-0.16054139f, 0.00396186f, -0.00428379f, -0.22131543f, -0.23922037f, -0.10094593f, -0.00407654f, 0.18129247f, 
0.20694625f, 0.30737558f, 0.04640799f, -0.14585176f, -0.46716252f, -0.56681871f, -0.37209642f, -0.27697289f, 
-0.24698414f, -0.20061190f, -0.13208100f, -0.02805543f, -0.04203471f, -0.08030855f, 0.01059184f, 0.06580997f, 
0.28512838f, 0.11261723f, 0.05367603f, 0.02915878f, -0.12269600f, -0.10363439f, -0.17994455f, -0.29727256f, 
-0.21229255f, -0.07761266f, 0.16176948f, 0.27077827f, 0.33853769f, 0.24460974f, 0.01171612f, -0.30441669f, 
-0.55917376f, -0.48434430f, -0.35814223f, -0.07580693f, -0.18564531f, -0.07752258f, -0.19084112f, -0.04435344f, 
-0.03115293f, -0.06552418f, -0.01711155f, 0.04982989f, 0.07959132f, -0.02709526f, 0.02884004f, -0.12149203f, 
-0.17785227f, -0.16375327f, -0.19269659f, -0.17676675f, -0.11171996f, 0.06523317f, 0.18455257f, 0.27292573f, 
0.23233142f, 0.17074673f, -0.22109176f, -0.34218180f, -0.43958127f, -0.33371955f, -0.19368634f, -0.06947219f, 
-0.09201628f, 0.07585315f, -0.05083639f, 0.03062684f, 0.00869679f, -0.05538423f, -0.11541205f, 0.12152213f, 
0.02385587f, -0.10399552f, -0.14568166f, -0.12272409f, -0.05212077f, -0.00914361f, -0.07402885f, -0.04998194f, 
0.05164031f, 0.09855554f, 0.26516712f, 0.20531657f, 0.11395887f, -0.12586753f, -0.30521819f, -0.35998514f, 
-0.18455960f, -0.16900235f, -0.07410143f, -0.02206913f, -0.09566561f, -0.04966139f, -0.08463193f, 0.16665153f, 
-0.03899847f, -0.07935904f, -0.06680800f, -0.10292576f, -0.09115162f, -0.04221044f, -0.06511020f, -0.05656935f, 
0.00274805f, -0.00431070f, 0.02691658f, 0.02425594f, 0.09931406f, 0.12978946f, 0.18537965f, 0.08697467f, 
0.01498876f, -0.19922040f, -0.22677103f, -0.23425527f, -0.08955071f, 0.02114355f, 0.00384127f, 0.08918916f, 
0.12948669f, 0.09499936f, -0.13634583f, 0.18924865f, -0.01032038f, -0.02783704f, -0.05225643f, -0.12597774f, 
-0.24410862f, 0.01357826f, 0.06747784f, -0.15809441f, -0.03720893f, -0.02929679f, 0.10840221f, -0.01377096f, 
-0.03094256f, 0.00808055f, 0.10130183f, -0.00370716f, 0.04464027f, -0.02593105f, -0.03304568f, 0.00444558f, 
0.16366334f, 0.26116055f, 0.12196831f, 0.17930123f, 0.08955202f, 0.12683131f, -0.12716894f, -0.03544650f, 
-0.02982081f, -0.07661131f, -0.04005602f, 0.02791006f, -0.23359001f, -0.07665527f, -0.09223305f, -0.09837049f, 
0.01302542f, 0.02168000f, -0.00735386f, -0.03818198f, 0.06166827f, 0.04623383f, 0.09479201f, -0.02253459f, 
0.00176023f, -0.01601357f, 0.01873621f, 0.16938308f, 0.12292912f, 0.25050133f, 0.16313112f, 0.18024172f, 
0.05208822f, -0.02275919f, -0.02362456f, -0.00427983f, 0.02567797f, -0.05021306f, -0.00755356f, 0.02433703f, 
-0.28826794f, -0.21387024f, -0.02423739f, 0.00019009f, -0.00622322f, 0.05236464f, 0.02801852f, 0.14650013f, 
0.08488177f, 0.10201889f, 0.06247921f, 0.00681627f, -0.03173538f, -0.03247679f, 0.00095606f, 0.04211641f, 
0.02311691f, 0.15176983f, 0.23972772f, 0.15355717f, -0.02814043f, -0.13328561f, 0.15606721f, 0.06631096f, 
0.02638944f, 0.00256628f, 0.04081665f, -0.05552299f, -0.17880850f, -0.02589869f, 0.04974535f, 0.15888320f, 
0.08398365f, 0.24470991f, 0.14578466f, 0.12750688f, 0.13705052f, 0.11500033f, 0.02968038f, -0.12247612f, 
-0.04376512f, -0.02963217f, -0.00387040f, 0.04971436f, -0.03235271f, 0.10741002f, 0.14275204f, 0.10828339f, 
0.09822113f, -0.14240396f, 0.03160999f, 0.09295990f, -0.07013309f, 0.00939670f, 0.03811362f, -0.11845523f, 
-0.15698656f, -0.08745136f, 0.05636180f, 0.05518269f, 0.06391760f, 0.06496709f, -0.00319940f, -0.02737728f, 
0.05440478f, 0.09098934f, 0.02810255f, -0.10191322f, -0.01041035f, -0.01146259f, -0.04460340f, -0.02480841f, 
-0.06866338f, 0.21479191f, 0.19633652f, 0.18335859f, 0.18703549f, 0.05188432f, 0.04466056f, -0.20273872f, 
0.01162051f, 0.06802948f, 0.11931511f, -0.09227367f, -0.14059705f, -0.05228515f, -0.09017772f, -0.07562487f, 
-0.07038842f, 0.05411652f, -0.05843093f, -0.10148855f, -0.03710747f, 0.09442847f, -0.09220919f, -0.06426507f, 
-0.06802052f, -0.03912537f, -0.04313574f, -0.00307187f, -0.01476185f, 0.11269017f, 0.10037270f, 0.15656699f, 
0.03922965f, 0.07566986f, 0.10030885f, 0.10806874f, -0.01622777f, 0.01414825f, -0.05626189f, -0.01899604f, 
-0.03062510f, -0.05313677f, 0.03518213f, -0.00320326f, -0.11164607f, 0.00516508f, -0.08249493f, -0.03865558f, 
-0.13005626f, 0.04738454f, -0.03923184f, 0.01668169f, 0.04300924f, -0.04141727f, -0.01971965f, 0.01607781f, 
-0.01110816f, 0.03053309f, -0.04434650f, -0.01097581f, 0.00136279f, 0.14648919f, 0.00545208f, 0.12202673f, 
-0.03872043f, -0.01150600f, -0.03409266f, -0.01412496f, -0.28421193f, -0.08004238f, 0.07492041f, 0.01844160f, 
-0.02696729f, 0.00114350f, -0.03472780f, -0.06905484f, 0.02220850f, 0.01161983f, 0.07335392f, 0.07905112f, 
0.06740099f, 0.05441123f, 0.11506232f, 0.03059522f, 0.03715628f, -0.06018090f, -0.03692337f, 0.07490844f, 
0.08633012f, 0.07902222f, 0.03804443f, -0.02905735f, -0.02836061f, 0.04371716f, 0.27737796f, 0.16189787f, 
-0.22944063f, -0.13674997f, -0.00251853f, -0.02097596f, 0.06618135f, -0.00124019f, 0.02263637f, -0.03834474f, 
-0.04174053f, -0.05695439f, 0.02717277f, 0.03403976f, 0.07829568f, -0.01903185f, 0.02432457f, -0.07349747f, 
-0.09847228f, -0.15150037f, -0.02527888f, 0.03866754f, 0.02669568f, -0.10236593f, -0.02942167f, -0.02575226f, 
-0.03265868f, 0.02459489f, 0.20004508f, 0.18151745f, 0.02423861f, 0.11646792f, 0.14192280f, 0.01308044f, 
-0.03856891f, -0.09074454f, 0.00291538f, -0.05854312f, -0.08375928f, -0.03237168f, -0.05843013f, -0.01713353f, 
0.02305782f, -0.03317776f, -0.02308622f, -0.04623022f, -0.09841571f, -0.04825192f, -0.01111291f, -0.11568999f, 
-0.14915223f, -0.16685475f, -0.04243104f, -0.07559514f, -0.02107529f, 0.00442328f, 0.09369589f, 0.07122491f, 
0.00597394f, 0.05392449f, 0.01362588f, 0.11438160f, 0.01019208f, 0.09700608f, 0.00736945f, -0.00896553f, 
-0.00624597f, 0.02355692f, -0.03141316f, -0.01388386f, -0.03988019f, 0.04842506f, 0.00608733f, -0.01567540f, 
-0.02744003f, -0.17520258f, -0.28480616f, -0.20453380f, -0.15592358f, -0.05977268f, -0.00745385f, -0.07899460f, 
0.03654955f, 0.01726331f, 0.06543689f, 0.08171529f, 0.13254923f, -0.00846725f, 0.04536140f, 0.14682868f, 
0.09999549f, 0.13505954f, 0.01631832f, 0.02246391f, 0.00557451f, 0.05209521f, 0.11255524f, -0.06572236f, 
0.00199801f, 0.08336873f, -0.02452842f, -0.00737718f, -0.00824584f, -0.05765651f, -0.21907556f, -0.18576132f, 
-0.09460495f, -0.04030129f, -0.06294879f, -0.02034183f, 0.04640244f, 0.02863763f, -0.01478826f, -0.01725638f, 
0.16269827f, 0.09138134f, 0.16603701f, 0.09201158f, 0.10561956f, 0.09484957f, 0.01390997f, 0.06203087f, 
-0.02596678f, 0.00018367f, -0.07333899f, -0.10903540f, -0.18418543f, -0.18777202f, -0.06447472f, -0.13265571f, 
0.04761500f, -0.09473868f, -0.09825973f, -0.04706408f, -0.06335286f, -0.03479745f, 0.00031625f, -0.05732618f, 
-0.07470120f, -0.03994180f, -0.03627768f, 0.00862250f, -0.01184232f, -0.04517614f, -0.07761864f, 0.00179076f, 
-0.08809632f, -0.19277069f, -0.10234433f, -0.01414356f, -0.23402448f, -0.18433981f, -0.23796521f, -0.12590374f, 
-0.21479885f, -0.26462099f, -0.14413537f, -0.40633047f, -0.27831084f, -0.12086469f, -0.07568943f, -0.04437891f, 
-0.05520649f, -0.03281331f, 0.00925995f, 0.02536610f, -0.07182860f, -0.09336761f, -0.01853973f, -0.02725060f, 
0.00116834f, 0.04541783f, -0.03499389f, -0.17551817f, -0.11330400f, -0.01567147f, -0.01061656f, -0.01365965f, 
-0.01482592f, -0.03883586f, -0.27083081f, -0.08475962f, -0.06291535f, -0.04505634f, -0.12742952f, -0.08768558f, 
-0.01200680f, 0.01487234f, -0.02669010f, 0.00712421f, -0.00903064f, 0.00068972f, 0.03031153f, 0.02372626f, 
-0.02941665f, 0.00496812f, -0.00125391f, -0.04593728f, -0.09723579f, -0.09562998f, 0.02218262f, 0.03131610f, 
0.01726528f, -0.04085191f, -0.04502663f, -0.13095698f, -0.07832800f, -0.02129704f, -0.03606158f, -0.00266653f, 
-0.00080977f, 0.06416896f, 0.05773361f, 0.07978503f, 0.02994499f, 0.00605028f, -0.00807722f, -0.04213729f, 
-0.02085879f, 0.04739138f, 0.09415306f, 0.08918607f, -0.02643772f, -0.08598638f, 0.06258479f, 0.11276785f, 
0.07700850f, 0.07894763f, 0.02615370f, 0.03565833f, -0.03592329f, -0.01521354f, -0.05506554f, -0.09521842f, 
-0.04855998f, 0.04704524f, 0.06054017f, 0.11955065f, 0.12326881f, 0.22057486f, 0.14967528f, 0.03402405f, 
0.05937627f, -0.01281446f, -0.03566783f, 0.04273848f, 0.02992570f, 0.00449139f, 0.03491488f, 0.11443660f, 
0.10610327f, 0.12011796f, 0.15205458f, 0.12291536f, 0.12226462f, 0.08545566f, 0.03608804f, 0.03269862f, 
0.03703922f, 0.04872320f, -0.02007912f, 0.02350306f, -0.06032687f, -0.06726063f, -0.03132442f, -0.05776596f, 
-0.06412749f, 0.00397257f, 0.07088012f, 0.02456746f, -0.04949123f, -0.02964139f, 0.06975044f, 0.06701580f, 
0.00062657f, -0.06598774f, -0.01560526f, 0.03290192f, 0.20563209f, 0.21727955f, 0.20413937f, 0.22100163f, 
0.26143345f, 0.11189386f, 0.13114156f, 0.03990921f, 0.02309771f, 0.00530794f, 0.02080825f, 0.03996190f, 
0.04644421f, -0.03654561f, 0.11695807f, 0.09698564f, 0.07213525f, 0.15113249f, 0.15099965f, 0.07172600f, 
0.22361363f, 0.17163846f, 0.05849539f, 0.03197452f, 0.01872992f, 0.07663217f, 0.02943389f, -0.06939001f, 
0.11558867f, 0.15806788f, 0.16496311f, 0.15757363f, 0.11831785f, 0.07157344f, 0.08840124f, 0.04451439f, 
-0.20459504f, -0.27524966f, -0.24988328f, -0.04107808f, -0.07172277f, -0.07145711f, 0.03383338f, 0.00306402f, 
-0.03089268f, -0.02173736f, -0.05606493f, -0.01437742f, 0.08647865f, 0.20036049f, 0.08949433f, 0.13612171f, 
0.18413538f, 0.06632473f, -0.02331800f, -0.10909995f, 0.03906244f, 0.04478969f, 0.13590577f, 0.13706867f, 
0.10384367f, 0.25328156f, 0.18601803f, 0.05904809f, 0.02530556f, -0.07505751f, -0.12960397f, -0.15747154f, 
-0.06157511f, 0.04087094f, 0.10709604f, 0.01574776f, -0.03000243f, -0.03953617f, -0.09248426f, -0.11944719f, 
-0.04035636f, -0.14831769f, -0.01476899f, -0.07312842f, -0.02247380f, -0.11570969f, -0.11369082f, -0.12568431f, 
-0.11539923f, -0.11810611f, -0.00620512f, 0.02556279f, -0.00139786f, 0.17541640f, 0.09603207f, 0.01768759f, 
0.10783406f, 0.00259740f, 0.07138609f, 0.01490458f, -0.01658732f, 0.01215535f, -0.03073822f, 0.04711963f, 
0.03603170f, -0.05466756f, -0.08587644f, 0.01980242f, -0.00893434f, -0.09517719f, 0.07449617f, 0.10261825f, 
0.12131924f, -0.01342324f, -0.08029264f, -0.17700234f, -0.14013912f, -0.03904146f, 0.05248265f, 0.11443211f, 
-0.13297875f, -0.08001271f, 0.02541464f, 0.08520776f, 0.03134482f, 0.01220729f, 0.08449541f, 0.05251010f, 
0.03869715f, -0.01027214f, 0.05874388f, 0.02935712f, 0.04505162f, 0.04544629f, -0.02007338f, -0.05046608f, 
-0.01044043f, -0.07512781f, 0.00798502f, 0.18717441f, 0.05774173f, -0.04273545f, -0.01061552f, -0.18745491f, 
0.03199242f, -0.02445848f, 0.05962937f, 0.16953731f, -0.23574646f, -0.17350636f, -0.08150589f, 0.04283925f, 
-0.02592077f, -0.05929469f, -0.00159511f, 0.00661893f, 0.04981055f, -0.00865880f, 0.04568632f, 0.11282559f, 
0.08385427f, 0.08009741f, 0.11894248f, 0.02184053f, 0.04069353f, 0.11395563f, 0.07179279f, 0.07004523f, 
0.12475353f, 0.18677241f, -0.05871301f, -0.06214345f, 0.00923216f, 0.07114317f, 0.02970338f, 0.09425393f, 
-0.26919955f, -0.16267024f, -0.00165984f, -0.01239543f, 0.08080292f, -0.02697903f, -0.05460345f, 0.02307381f, 
0.00912285f, -0.03619932f, 0.05960620f, -0.04324941f, 0.00055930f, 0.16228567f, 0.03994998f, 0.07427337f, 
0.19293450f, 0.14691442f, 0.08370285f, 0.12185290f, 0.25248101f, 0.19019717f, 0.13323043f, 0.14082207f, 
-0.04503039f, 0.00235811f, 0.03770227f, -0.05234699f, -0.15124804f, -0.19800599f, -0.11358026f, 0.00032943f, 
-0.09700686f, -0.05517191f, -0.14978035f, -0.04751761f, -0.06777991f, 0.06028332f, 0.04729283f, -0.02888392f, 
0.02683123f, 0.07896151f, 0.07570151f, 0.12078466f, 0.15502341f, 0.04044985f, 0.15968569f, 0.10460670f, 
0.23095161f, 0.28897297f, 0.28391689f, 0.12449285f, -0.01592858f, -0.10186552f, -0.10564386f, -0.01911431f, 
-0.18025322f, -0.21370727f, -0.12136751f, 0.12580822f, 0.04216444f, -0.09133027f, -0.10822590f, -0.01190118f, 
0.00825102f, 0.10350721f, 0.00179496f, -0.01225730f, -0.05663460f, 0.04970952f, 0.10857477f, 0.07811569f, 
0.02714073f, 0.10933322f, 0.16038318f, 0.13915680f, 0.05026853f, 0.13702060f, 0.20456471f, -0.05052970f, 
-0.09920881f, -0.06808526f, -0.07756916f, 0.09730978f, -0.14867398f, -0.17207526f, -0.21060796f, 0.01747135f, 
0.09158053f, -0.06046409f, -0.07152185f, 0.01292486f, 0.02869003f, 0.12607656f, -0.02918409f, 0.10279343f, 
0.03198574f, -0.00508640f, -0.00895414f, -0.00970033f, -0.08442049f, -0.08782276f, -0.08915025f, -0.17821874f, 
-0.29975358f, -0.11518175f, 0.22199610f, -0.02045144f, 0.00113732f, -0.05217139f, 0.02776177f, -0.01479225f, 
-0.18750958f, -0.06406371f, -0.05861323f, 0.05314221f, 0.02942161f, -0.03325623f, 0.03731988f, 0.12894985f, 
0.14708154f, 0.06340289f, -0.02318631f, 0.01297509f, 0.01444389f, -0.03224476f, -0.13630863f, -0.06949811f, 
-0.07953168f, -0.12254354f, -0.25652000f, -0.30703098f, -0.30494922f, -0.21198785f, -0.03366933f, -0.00120768f, 
0.05670441f, 0.06505723f, 0.12182680f, 0.03567517f, -0.13827553f, 0.00523975f, 0.12411975f, 0.11025368f, 
0.02731227f, -0.08921034f, -0.02028886f, 0.07985155f, 0.11271855f, 0.04489329f, -0.09475383f, -0.01718918f, 
-0.12433365f, -0.07853512f, -0.10685571f, -0.10958427f, -0.06204758f, -0.04199702f, -0.11692451f, -0.28487974f, 
-0.27862424f, -0.13615823f, -0.13469517f, 0.07235190f, -0.00853034f, 0.03057362f, 0.05605078f, -0.09133263f, 
-0.01840481f, 0.06332911f, 0.06696015f, 0.13872936f, -0.05257041f, -0.16159430f, -0.07849121f, -0.10753148f, 
0.04001550f, -0.09585333f, -0.04936850f, 0.05658328f, -0.09190956f, 0.07494460f, 0.00369622f, -0.08791801f, 
-0.00120276f, -0.02061672f, -0.12821324f, -0.16039380f, -0.27029175f, -0.06268889f, -0.20409556f, -0.05166100f, 
0.11679846f, 0.06561118f, 0.01858769f, -0.05805880f, 0.15284958f, 0.05427454f, 0.00731519f, 0.00169421f, 
-0.12492430f, -0.24150372f, -0.13669242f, -0.07380699f, -0.01877034f, -0.10518155f, -0.06234302f, 0.11424907f, 
0.06661943f, 0.16895026f, -0.03573662f, -0.03437451f, -0.05014157f, -0.23426916f, -0.30540270f, -0.45712209f, 
-0.42248660f, -0.33825201f, -0.25590310f, -0.10736301f, 0.15322655f, 0.15576112f, -0.01469164f, -0.10658240f, 
0.15797471f, 0.08169772f, 0.01933370f, 0.07172988f, -0.06366721f, -0.01484124f, -0.03673171f, 0.05865176f, 
-0.00184293f, -0.07559184f, 0.04414225f, 0.19142376f, 0.17296839f, 0.18491866f, 0.04413475f, -0.12194405f, 
-0.17257950f, -0.37419736f, -0.40603730f, -0.14680129f, -0.06398380f, -0.11265580f, -0.01477842f, -0.02260103f, 
0.06105624f, 0.09770755f, -0.01144748f, -0.23412299f, 0.08126595f, 0.10987639f, 0.10200916f, 0.14781384f, 
0.14944838f, 0.03811976f, 0.10922059f, 0.14047247f, 0.09973272f, 0.04709823f, 0.13702375f, 0.18756002f, 
0.20188494f, 0.14695701f, 0.01366585f, -0.18246636f, -0.27406088f, -0.41817886f, -0.30106685f, -0.12237232f, 
-0.06557272f, -0.17277288f, -0.04730044f, -0.23206489f, 0.03675103f, 0.15438314f, 0.08327384f, -0.18412371f, 
0.02944053f, 0.07307822f, 0.02370512f, -0.00511965f, 0.14138870f, 0.08691684f, 0.02912473f, 0.01966063f, 
0.07692487f, 0.05564556f, 0.13790023f, 0.14843599f, 0.08229873f, 0.07288468f, -0.03221274f, -0.24695741f, 
-0.36932969f, -0.42931801f, -0.26054266f, -0.13128446f, -0.04522137f, -0.17676133f, -0.22248799f, -0.18696426f, 
0.05985609f, 0.07579920f, -0.11484841f, -0.18029711f, -0.07548036f, -0.01360854f, 0.04338490f, -0.05653531f, 
-0.00558556f, 0.06349741f, 0.02161143f, -0.01276601f, 0.03996163f, 0.14223534f, 0.11808654f, 0.05969281f, 
-0.02972611f, -0.05151111f, -0.26391748f, -0.47903198f, -0.53052652f, -0.38666975f, -0.22325003f, -0.09063779f, 
-0.09616135f, -0.18723792f, -0.20858426f, -0.16395387f, 0.04913600f, 0.03576760f, -0.08701523f, -0.20661378f, 
-0.17231263f, -0.07126752f, 0.05989161f, 0.00641716f, -0.00420852f, -0.03374133f, -0.00697595f, 0.10210689f, 
0.11452790f, 0.09004419f, 0.10382404f, 0.02805183f, -0.07369172f, -0.06239531f, -0.36496440f, -0.57909286f, 
-0.42489159f, -0.33450347f, -0.24239194f, -0.10195798f, -0.12944135f, -0.07103346f, -0.01253899f, -0.09478577f, 
0.02807665f, -0.02727316f, -0.11224753f, 0.04442603f, -0.12220123f, -0.11543143f, 0.02460120f, 0.03322747f, 
-0.06604221f, 0.06604154f, 0.06592951f, 0.08734749f, 0.14422895f, 0.05290417f, 0.05831895f, 0.01119275f, 
-0.20538050f, -0.23593980f, -0.64961910f, -0.44935858f, -0.35898057f, -0.28182346f, -0.16218269f, -0.15444888f, 
-0.16391009f, -0.08931065f, -0.12170059f, -0.07543122f, -0.01980749f, -0.04254375f, 0.01580382f, -0.00555771f, 
0.05616449f, 0.02186887f, 0.03886596f, 0.01979061f, -0.12082960f, -0.06057395f, 0.01872878f, -0.00741354f, 
-0.03801066f, -0.04011859f, -0.01553543f, -0.19778237f, -0.32613096f, -0.54911518f, -0.52027708f, -0.35838163f, 
-0.17021780f, -0.05834548f, -0.04542180f, -0.05372940f, -0.09181242f, -0.15519020f, -0.15558319f, -0.03524325f, 
-0.01896320f, 0.03798943f, 0.04628191f, 0.07732280f, 0.10754997f, 0.23807085f, 0.05645844f, -0.04489662f, 
-0.01870913f, -0.05300851f, 0.01194324f, -0.02610907f, 0.11870406f, 0.12160876f, 0.02230131f, -0.14024012f, 
-0.32203329f, -0.42625186f, -0.46839949f, -0.44085747f, -0.22764017f, -0.34240350f, -0.13047399f, -0.01604092f, 
-0.10075797f, -0.08289311f, -0.02711276f, -0.03909510f, 0.04369243f, -0.03164417f, -0.09313880f, -0.08983526f, 
-0.01089653f, -0.00857096f, -0.03498916f, -0.06619946f, -0.10959192f, -0.09236896f, 0.02802470f, 0.07477103f, 
0.01581898f, -0.06209850f, -0.05531796f, -0.10649130f, -0.14211610f, -0.33350676f, -0.36166853f, -0.31154716f, 
-0.27368596f, -0.23730402f, -0.19638731f, -0.06415468f, -0.01841770f, -0.08382397f, -0.02712920f, -0.03623221f, 
-0.01354509f, -0.16436851f, -0.09465406f, -0.07613479f, -0.14184803f, -0.16121301f, -0.13520727f, -0.03199615f, 
0.01210259f, 0.08027919f, 0.08561248f, 0.09739080f, 0.05287060f, 0.15303710f, -0.10994215f, -0.22160448f, 
-0.19127201f, -0.16882011f, -0.10362412f, -0.04343380f, -0.06823438f, -0.05136366f, 0.00606811f, -0.07907166f, 
-0.02939283f, -0.07229792f, -0.08649755f, -0.00865965f, -0.15785609f, -0.11968529f, -0.05768665f, 0.04694234f, 
-0.02645877f, -0.00213340f, -0.01481568f, -0.00843369f, 0.03932026f, 0.02173890f, 0.13239315f, 0.07686070f, 
-0.01690488f, -0.12947385f, -0.10469433f, -0.11062901f, -0.08476408f, -0.07452509f, 0.00886443f, 0.01221814f, 
0.02701358f, -0.00756368f, -0.01841158f, -0.04686668f, -0.04045620f, -0.06529715f, 0.01712869f, 0.00673215f, 
0.01973593f, 0.03026361f, 0.07505882f, 0.04607065f, 0.10568368f, 0.07443964f, 0.08272590f, 0.11569615f, 
0.12815896f, 0.08405625f, 0.07713970f, 0.05723190f, 0.00423867f, -0.04658004f, -0.06275285f, -0.04182494f, 
-0.09441806f, -0.05025855f, -0.06089490f, -0.08487166f, -0.12007276f, -0.05025648f, -0.08927228f, -0.06028277f, 
-0.04546656f, -0.06746707f, -0.02281246f, -0.07576235f, 0.03824650f, 0.03740025f, 0.07769816f, 0.05648411f, 
0.09889422f, 0.04730060f, 0.07299080f, 0.05511901f, 0.02465791f, -0.00215314f, 0.00195448f, 0.08722121f, 
-0.05344873f, -0.12479037f, -0.04398897f, -0.09976314f, -0.06108324f, -0.10479764f, -0.11635952f, -0.11284669f, 
-0.14393586f, -0.08607329f, -0.07226022f, -0.13836801f, -0.10271911f, -0.09609825f, -0.08078734f, -0.08381229f, 
-0.00485516f, 0.03746607f, -0.01563217f, -0.01691337f, 0.06060161f, 0.06230612f, 0.03007058f, -0.03630472f, 
-0.07908341f, -0.01950434f, -0.08933072f, -0.14276676f, -0.15010373f, -0.13552810f, -0.09329512f, -0.15717497f, 
-0.14497058f, -0.12363435f, -0.12623042f, -0.09468833f, -0.14386278f, -0.12728155f, -0.08210808f, -0.10888179f, 
-0.07398723f, -0.06146313f, -0.10342445f, -0.08635132f, 0.04397520f, -0.01723053f, 0.02310128f, 0.02369160f, 
0.02726413f, 0.06689361f, -0.07697728f, -0.08917047f, -0.12156793f, 0.03867514f, -0.08739554f, -0.06446090f, 
-0.11645857f, 0.05015498f, 0.17134143f, 0.15348099f, 0.14508104f, 0.07983460f, 0.00115234f, 0.00287202f, 
-0.01952612f, -0.00349154f, -0.03697977f, -0.04329768f, -0.03066405f, -0.10523714f, -0.06420233f, -0.06472107f, 
0.02074712f, 0.00999074f, 0.04120091f, -0.00674183f, -0.07665934f, -0.15085772f, -0.16855635f, -0.14869279f, 
-0.15239149f, 0.04371236f, -0.14544418f, -0.15322897f, -0.03795210f, 0.10715929f, 0.03868788f, 0.00644992f, 
-0.00371727f, 0.05581236f, -0.03335790f, 0.07041717f, 0.00141755f, 0.06629505f, 0.01993468f, -0.02919848f, 
-0.06724787f, -0.05618514f, -0.08021561f, -0.09625753f, -0.03146027f, -0.02479541f, -0.01112664f, 0.01483969f, 
-0.17829663f, -0.15262741f, -0.11854246f, -0.05997971f, -0.02944328f, -0.05708669f, -0.02704036f, -0.06071475f, 
-0.01155280f, 0.03434385f, 0.10632514f, -0.06264497f, -0.11320531f, -0.10391919f, -0.07172515f, -0.04548261f, 
-0.03095278f, 0.08105712f, 0.09073482f, 0.05766183f, 0.08018380f, 0.12412332f, -0.05345510f, -0.05782908f, 
-0.04992810f, 0.00042123f, -0.01782918f, -0.02376772f, -0.17286280f, -0.08988556f, -0.15694860f, -0.16967455f, 
-0.19396447f, -0.17066582f, -0.04724997f, 0.05716228f, 0.20941184f, 0.24769802f, 0.07591231f, -0.20200104f, 
-0.29956448f, -0.24861930f, -0.16181006f, -0.09176328f, -0.07745741f, 0.03688930f, 0.01015205f, 0.02090735f, 
0.04378036f, -0.04806145f, -0.06424374f, -0.00149277f, -0.04170356f, -0.06531475f, -0.03292155f, -0.00718078f, 
-0.11611750f, -0.10299551f, -0.08051711f, -0.17398596f, -0.23061912f, -0.08488445f, 0.04361907f, 0.16177003f, 
0.22856644f, 0.23306707f, -0.02066569f, -0.20081602f, -0.25366738f, -0.13045162f, 0.01023684f, -0.02378564f, 
-0.04607182f, -0.02216855f, -0.04678996f, 0.03703758f, 0.05990426f, 0.03474719f, 0.03557521f, -0.00320755f, 
0.12508172f, -0.05555067f, -0.00529849f, 0.00278906f, -0.20870972f, -0.20216368f, -0.10993698f, -0.24800280f, 
-0.23701780f, -0.07512398f, -0.02903532f, 0.12693433f, 0.21764734f, 0.14676403f, 0.01081414f, -0.15525906f, 
-0.21140173f, -0.04426764f, 0.02635206f, 0.01210622f, 0.03678958f, -0.04769058f, -0.03476136f, 0.02812758f, 
-0.00427000f, 0.05341678f, -0.07420421f, -0.04955160f, -0.02395287f, -0.04266270f, 0.05563226f, 0.02289706f, 
-0.15000351f, -0.17081153f, -0.20723936f, -0.19894955f, -0.21679352f, -0.14301158f, -0.11328607f, 0.07675844f, 
0.19958365f, 0.13742459f, -0.05751391f, -0.21761055f, -0.14564852f, 0.00422309f, 0.12321886f, 0.10843612f, 
0.05623592f, 0.00331991f, -0.02403587f, -0.07263147f, 0.10551636f, -0.06857109f, -0.06826366f, -0.01570589f, 
0.00441271f, 0.05251976f, 0.14287779f, 0.14715631f, 0.11105396f, 0.04502604f, -0.10950542f, -0.08050333f, 
-0.11112236f, -0.15698270f, -0.10079797f, 0.11497727f, 0.20412332f, 0.12615851f, -0.05880690f, -0.20530516f, 
-0.07382825f, 0.20512795f, 0.23447451f, 0.10556811f, -0.01246295f, 0.06089301f, 0.03080345f, -0.07553077f, 
0.00880345f, -0.14763056f, -0.06673553f, 0.03803682f, 0.00731257f, 0.17332539f, -0.11209158f, 0.02083624f, 
-0.06546025f, -0.15620515f, -0.03337597f, -0.03797935f, -0.10269765f, -0.15032023f, -0.01920929f, 0.05679493f, 
0.13067897f, 0.07005742f, -0.17286155f, -0.40190548f, -0.13922396f, 0.10697709f, 0.13004401f, 0.10905559f, 
-0.04817605f, -0.01180815f, -0.04778355f, -0.02597355f, -0.03354754f, -0.13329028f, -0.14668652f, 0.02318709f, 
0.01390496f, 0.02699323f, -0.05490116f, 0.03895601f, -0.10563758f, -0.13600942f, -0.04464388f, -0.09690610f, 
-0.04443993f, -0.15785781f, -0.02817345f, 0.16274580f, 0.27297837f, 0.16816160f, -0.17958926f, -0.25952804f, 
-0.10649548f, 0.07993856f, 0.07357541f, -0.03964048f, -0.02220207f, 0.01937233f, 0.01699754f, 0.03299155f, 
0.16529194f, 0.07155399f, -0.07422403f, 0.05625816f, 0.02076690f, 0.00314893f, 0.06214784f, 0.11593043f, 
-0.17403045f, -0.09979182f, -0.04567473f, -0.04365830f, -0.01734564f, -0.01151302f, 0.05920818f, 0.22785164f, 
0.25787571f, 0.00273735f, -0.23369756f, -0.16672103f, -0.03349723f, 0.07331190f, -0.00036998f, -0.06144452f, 
-0.04870993f, -0.06225542f, -0.02390744f, 0.10737891f, 0.28578350f, 0.29162258f, 0.05912640f, 0.20300315f, 
0.06060469f, -0.01936380f, 0.01392804f, -0.01752327f, -0.09893499f, 0.01981855f, 0.00010919f, 0.11241996f, 
0.07805721f, 0.03048854f, 0.14163019f, 0.22475889f, 0.15831338f, -0.12762314f, -0.24013668f, -0.14031170f, 
-0.00514805f, 0.06810033f, -0.04185634f, -0.06201758f, -0.10343871f, -0.00849890f, -0.05722940f, 0.06478649f, 
0.29899827f, 0.24315064f, 0.15232757f, 0.08088300f, 0.17224212f, -0.04099479f, 0.02855763f, 0.02857599f, 
-0.15394370f, -0.09005319f, 0.00340023f, 0.15374410f, 0.04055332f, 0.13896340f, 0.20965652f, 0.23180200f, 
0.04220295f, -0.12296765f, -0.16073726f, -0.07527332f, 0.02529871f, 0.01877922f, -0.03098870f, -0.02284517f, 
-0.04776090f, 0.04624978f, 0.01575767f, 0.04891029f, 0.18890457f, 0.12025310f, 0.21401627f, 0.14778122f, 
0.04231836f, -0.05429062f, -0.09333670f, 0.03267721f, -0.11137643f, -0.08117260f, 0.00915295f, 0.07393215f, 
0.10705885f, 0.08316692f, 0.08126950f, 0.04333110f, -0.01768143f, -0.10943600f, -0.11178623f, 0.02335254f, 
0.02910720f, 0.09526891f, 0.03552411f, 0.06853841f, -0.01796071f, 0.19818148f, 0.04634807f, 0.09743314f, 
0.10895565f, 0.14569199f, 0.27328256f, 0.09725365f, 0.02822272f, -0.04898613f, -0.10985006f, -0.09757778f, 
-0.01434692f, -0.00952503f, 0.06838371f, 0.10956047f, 0.08534202f, 0.16608582f, 0.14584088f, 0.00526448f, 
-0.08080334f, -0.10994969f, 0.00461628f, 0.05995415f, 0.06545549f, 0.00825411f, 0.06766979f, 0.11271390f, 
0.05393490f, 0.21567401f, 0.13134952f, 0.10266334f, 0.17282844f, 0.11129522f, 0.18166509f, 0.12890224f, 
-0.02656443f, -0.05333664f, -0.16624834f, -0.07086027f, 0.11856671f, 0.01658705f, 0.14775354f, 0.15011504f, 
0.13210715f, 0.16679455f, -0.03225374f, -0.13442825f, -0.16622482f, -0.15135126f, 0.00065472f, 0.02674336f, 
0.03812785f, -0.03426354f, 0.06191543f, 0.09712617f, 0.09594191f, 0.12446728f, 0.02031203f, 0.17050888f, 
0.22908987f, 0.08838198f, 0.14066206f, 0.20127940f, 0.03831898f, -0.06373307f, 0.01686829f, 0.13838542f, 
0.09292901f, 0.01447540f, 0.11305432f, 0.17492037f, 0.20086764f, 0.18232821f, 0.00326836f, -0.14069359f, 
-0.16298766f, -0.09651198f, 0.02827924f, 0.00347539f, 0.00729659f, -0.00752446f, -0.01270548f, 0.03629932f, 
0.00575307f, 0.07077629f, 0.08728447f, 0.05093606f, 0.02272127f, -0.06707782f, 0.13429953f, 0.06160728f, 
0.03182577f, 0.02100938f, 0.12050985f, 0.06981418f, 0.12121111f, 0.09742083f, 0.10698026f, 0.19254553f, 
0.16075179f, 0.06415497f, 0.00316108f, -0.02808425f, -0.00414403f, -0.03001022f, -0.09693798f, -0.11960367f, 
-0.05347658f, -0.14487372f, -0.05254554f, -0.06177067f, -0.01560502f, 0.02466607f, 0.02158753f, -0.13615251f, 
-0.18851733f, -0.19219315f, -0.02535470f, 0.00740347f, -0.00268717f, 0.02187416f, 0.08276147f, 0.09205346f, 
0.08418962f, 0.16167264f, 0.08679047f, 0.11309779f, 0.16815919f, 0.08758937f, 0.06457858f, -0.00239354f, 
-0.00651870f, -0.06033279f, -0.11171252f, -0.04209881f, -0.03804338f, -0.10196473f, -0.17621559f, -0.03297520f, 
0.07263550f, -0.01589569f, 0.06893898f, -0.08962024f, -0.20160449f, -0.15159194f, 0.11642762f, -0.03548362f, 
0.01513770f, 0.03960554f, 0.08376139f, 0.09705960f, -0.00307272f, 0.09531302f, 0.14394942f, 0.10305837f, 
0.08460084f, 0.07309806f, 0.11836774f, 0.08886043f, 0.03897506f, -0.01531215f, -0.14015961f, -0.04738820f, 
-0.03596125f, -0.19744912f, -0.15618953f, 0.14692947f, 0.09010579f, -0.02370740f, -0.02028865f, -0.08583024f, 
-0.20137252f, -0.16303983f, 0.03429926f, -0.02846445f, 0.02441265f, 0.06711808f, -0.04262090f, -0.11472621f, 
0.12024640f, 0.10706586f, 0.18075407f, 0.17393102f, 0.05777017f, 0.08007305f, 0.09859940f, 0.04932366f, 
0.02013526f, -0.16069286f, -0.03892102f, -0.05013709f, -0.05773563f, -0.10592715f, -0.03079985f, 0.09593059f, 
-0.01615064f, -0.24398172f, -0.19120573f, -0.05417638f, -0.17809664f, -0.12793188f, -0.03127189f, -0.02034163f, 
0.06295712f, 0.02570681f, -0.04401906f, -0.19590864f, -0.19836995f, 0.02181908f, 0.08336163f, 0.12942085f, 
0.06726979f, 0.06704958f, 0.04368686f, -0.03340269f, 0.01536386f, -0.01187936f, 0.01324013f, 0.00907573f, 
0.03059319f, -0.04025950f, -0.09306975f, -0.15478867f, -0.21176782f, -0.15261568f, -0.17918058f, -0.08953365f, 
0.01482850f, 0.09401599f, -0.01469461f, 0.00023089f, -0.04172112f, -0.05989024f, -0.07147919f, 0.06212719f, 
0.05672308f, -0.10754329f, -0.10307448f, -0.15987338f, -0.15273848f, -0.14897704f, -0.04819886f, -0.00660759f, 
0.04037133f, -0.00905264f, -0.14377889f, 0.02642661f, 0.12823814f, -0.16052015f, -0.27993762f, -0.28067711f, 
-0.34626117f, -0.16840702f, -0.06575526f, -0.03973625f, -0.02813280f, -0.00606062f, 0.04896997f, -0.02081715f, 
-0.05084200f, -0.01409888f, -0.07558814f, -0.01135184f, -0.17775601f, -0.20928811f, -0.29318950f, -0.34728059f, 
-0.26336947f, -0.16764092f, -0.17763680f, -0.12498058f, -0.05443037f, -0.15935872f, -0.28569692f, -0.03382783f, 
-0.04264807f, -0.16644496f, -0.18524061f, -0.04911368f, -0.13818195f, -0.12563075f, 0.02326895f, -0.07196787f, 
-0.10413166f, -0.03521052f, 0.00169169f, -0.00794275f, -0.01478406f, -0.04255474f, -0.01830361f, -0.00021553f, 
-0.03111880f, -0.04518885f, -0.13630301f, -0.11781193f, -0.10474974f, -0.11127609f, -0.21548869f, -0.22555831f, 
-0.18847366f, -0.12851514f, -0.21054195f, -0.21476480f, -0.19753149f, -0.12928644f, -0.07894447f, -0.11496883f, 
-0.05096006f, 0.03727798f, 0.01153191f, 0.00606159f, 0.00579338f, -0.00543227f, 0.03145828f, 0.00888797f, 
-0.00666483f, -0.01863112f, 0.02393523f, -0.03618415f, 0.02370254f, 0.02753059f, -0.02344877f, -0.06306063f, 
-0.00316424f, 0.01399756f, -0.06705470f, -0.07153796f, -0.03829489f, -0.03836123f, -0.04345306f, -0.02375314f, 
-0.00352205f, -0.00420353f, 0.05962186f, -0.00589733f, -0.04664907f, -0.02342582f, -0.05346336f, 0.03302743f, 
-0.03077881f, -0.03180214f, 0.00495895f, 0.04942266f, 0.00949882f, 0.01063027f, -0.07836905f, -0.00988142f, 
-0.06684520f, -0.06298794f, -0.01406789f, -0.04065126f, -0.05122104f, -0.03049276f, 0.00102031f, 0.00857589f, 
-0.03056232f, 0.00898373f, -0.05143338f, -0.02271718f, 0.00221263f, -0.00699959f, -0.03511933f, -0.04939408f, 
-0.01902730f, 0.02846985f, 0.03070495f, 0.03840331f, -0.03530773f, -0.00085776f, 0.01855994f, 0.03780830f, 
-0.05331830f, -0.05567568f, -0.03505422f, -0.08328912f, -0.06435987f, -0.01472712f, -0.05222578f, -0.00656919f, 
-0.07419496f, -0.08171558f, -0.04998823f, 0.02451810f, 0.07825504f, 0.08137344f, -0.00694156f, -0.01563340f, 
0.02660941f, 0.02387555f, 0.13624105f, 0.18710722f, 0.10070737f, 0.12431490f, 0.08028168f, 0.03713531f, 
-0.02907171f, 0.00672022f, 0.01592742f, 0.01819859f, -0.04729434f, -0.07052496f, -0.10073479f, -0.04623527f, 
-0.06309062f, -0.09088592f, -0.09586735f, -0.02850507f, -0.06836940f, -0.05060488f, -0.07538272f, -0.02952798f, 
-0.07447582f, -0.10303706f, -0.10355088f, 0.02000570f, 0.02622068f, 0.05817814f, 0.09495720f, 0.13505509f, 
0.12143718f, 0.08452176f, 0.03526623f, 0.19922291f, 0.05707690f, -0.06660324f, -0.04136807f, -0.04558553f, 
-0.03178831f, -0.01778935f, -0.07962810f, -0.00851509f, 0.02348043f, -0.02671091f, -0.10342573f, -0.06994995f, 
-0.03574746f, 0.16672397f, 0.06001703f, 0.07428386f, 0.03676810f, -0.04283227f, -0.03375398f, 0.01707781f, 
0.06571232f, 0.07413125f, 0.00295361f, 0.12718479f, 0.09500421f, 0.02903951f, 0.02582474f, 0.17821924f, 
0.05756047f, -0.03701744f, -0.08645301f, -0.01318217f, 0.01074726f, -0.05609450f, -0.03532578f, -0.06693488f, 
-0.11508924f, -0.11765613f, -0.04585756f, 0.06206818f, 0.06351908f, 0.09222399f, 0.14566809f, 0.03862546f, 
-0.04280369f, -0.09336391f, -0.08142489f, -0.06906702f, -0.02525223f, 0.06601000f, 0.04125803f, 0.17058165f, 
0.11556321f, 0.10528830f, 0.14762093f, 0.16569388f, 0.22183190f, 0.06511059f, 0.04732396f, 0.04179017f, 
0.02408851f, 0.03643161f, 0.03904408f, -0.15030657f, -0.18099551f, 0.06703047f, -0.06602835f, 0.05315196f, 
0.13373527f, 0.06362708f, -0.01385921f, -0.08603065f, -0.09974817f, -0.08782556f, -0.14007218f, -0.11448633f, 
-0.10382780f, -0.10152105f, -0.04228238f, 0.03393374f, 0.12813167f, 0.02401796f, 0.08950934f, 0.24399056f, 
0.11614756f, 0.09515882f, 0.06998637f, 0.11146278f, 0.01331403f, -0.00091085f, -0.06347420f, -0.24647425f, 
-0.23333332f, 0.01137484f, -0.07818959f, 0.00927838f, 0.12603876f, 0.05428347f, -0.03895540f, -0.05755492f, 
-0.09054888f, -0.09269611f, -0.07587955f, -0.07964437f, -0.10981596f, -0.10337751f, -0.03657803f, 0.00461438f, 
0.05492438f, 0.10799414f, 0.25797272f, 0.17767558f, 0.00880461f, -0.02516510f, -0.00235936f, 0.01834621f, 
-0.01430794f, -0.08149850f, 0.01779306f, -0.17553681f, -0.21098730f, -0.03356869f, 0.01707986f, 0.03260542f, 
-0.01893017f, 0.07065537f, -0.00979899f, -0.01682843f, -0.03224109f, -0.03344243f, -0.06341556f, -0.06156227f, 
-0.06387715f, -0.09060327f, -0.07909868f, -0.02498346f, 0.08891666f, 0.15081018f, 0.09518059f, -0.05747303f, 
-0.04826963f, 0.07434068f, 0.13255836f, 0.09035917f, -0.06277077f, -0.05846605f, -0.01838771f, -0.13942447f, 
-0.10217384f, -0.05210408f, -0.06144478f, 0.02751423f, 0.02223110f, 0.05376235f, -0.03028855f, 0.05407514f, 
-0.06876816f, -0.10982389f, -0.13009214f, -0.08508445f, -0.09318643f, -0.05357765f, -0.04709781f, -0.00034141f, 
0.02461253f, 0.10039064f, -0.04263080f, 0.01394643f, 0.00331761f, 0.11235663f, -0.01849058f, -0.06664297f, 
-0.02538360f, -0.02619805f, -0.18133886f, -0.30105132f, -0.05860598f, -0.04837310f, -0.04642978f, 0.07233763f, 
0.09471047f, 0.12611151f, 0.06158232f, 0.07903471f, 0.00053834f, -0.11171476f, -0.07217082f, -0.05764165f, 
-0.12557396f, -0.10098302f, -0.00484961f, 0.00984346f, -0.07100146f, -0.00359838f, -0.10968343f, -0.09491260f, 
-0.02559275f, -0.06063966f, -0.03967626f, -0.10757781f, 0.03269981f, -0.01686898f, -0.22881284f, -0.28562883f, 
-0.27930278f, -0.09055391f, -0.00036409f, 0.01639850f, 0.08315711f, 0.11115548f, 0.03824382f, 0.04407628f, 
0.07513823f, 0.04773331f, -0.08556399f, -0.15027940f, -0.08838133f, -0.04422473f, 0.02155925f, -0.01555986f, 
-0.16035458f, -0.15537614f, -0.13183071f, -0.12587459f, -0.02667441f, -0.00335010f, 0.00382420f, -0.01450740f, 
0.03439779f, 0.01833969f, -0.15561110f, -0.15010975f, -0.23263705f, -0.06001919f, 0.08479104f, 0.06501426f, 
0.05451722f, -0.02426158f, 0.02253860f, 0.16202049f, 0.18480268f, 0.09027507f, -0.02834791f, -0.09008637f, 
-0.01956973f, 0.05593675f, 0.02126489f, -0.01760937f, -0.12127434f, -0.09394895f, -0.11452621f, -0.05123541f, 
-0.04484437f, -0.10060722f, -0.14309487f, -0.09621190f, 0.03968748f, 0.05568551f, -0.07023111f, -0.03994988f, 
-0.11748669f, -0.03834249f, 0.09864085f, 0.10478067f, 0.09380236f, 0.06264780f, 0.01617494f, 0.08813892f, 
0.11679336f, 0.11449250f, 0.07780332f, 0.14122275f, 0.09149384f, 0.04585908f, 0.03205974f, -0.03224681f, 
-0.10355754f, -0.18206666f, -0.18383242f, -0.18311258f, -0.17393787f, -0.20868714f, -0.23712066f, -0.04248481f, 
0.05253992f, 0.04574991f, -0.00789843f, 0.04177152f, -0.05376750f, 0.06764552f, 0.01506862f, 0.04704889f, 
-0.00675142f, -0.03241172f, -0.01040490f, 0.11700056f, 0.11110630f, 0.12099199f, 0.05318834f, 0.05210451f, 
0.07298495f, 0.06197671f, -0.03076630f, -0.07579099f, -0.16639611f, -0.14910807f, -0.21973456f, -0.18913023f, 
-0.11571015f, -0.16364899f, -0.21371493f, -0.04586670f, 0.08624899f, 0.13981439f, 0.16027029f, 0.01108685f, 
-0.05398846f, -0.05847614f, -0.04081155f, 0.00601297f, -0.04379998f, -0.05514181f, -0.06881092f, 0.03231984f, 
0.08798121f, 0.08909260f, 0.06105908f, -0.02106924f, 0.00328962f, 0.01368920f, -0.04087541f, -0.08795634f, 
-0.17456807f, -0.19802059f, -0.15353076f, -0.06194737f, -0.17224854f, -0.17715253f, -0.22311315f, -0.07323638f, 
0.14383289f, 0.16015913f, 0.13991591f, -0.04382147f, -0.16413349f, -0.14384723f, -0.15237020f, -0.12167837f, 
-0.07277245f, -0.07631198f, -0.06519352f, 0.02875394f, 0.06793875f, 0.03480052f, -0.05622113f, -0.03215479f, 
0.03028247f, -0.03687848f, 0.04274057f, -0.07411229f, -0.16563714f, -0.24117573f, -0.17046134f, -0.05962317f, 
-0.15474080f, -0.20278475f, -0.18032563f, -0.09878673f, 0.02763477f, 0.01224574f, -0.04137705f, -0.10822377f, 
-0.12464525f, -0.21572758f, -0.18835908f, -0.10885998f, -0.11462324f, -0.09438580f, 0.04064777f, 0.02006159f, 
0.02658695f, -0.04667063f, -0.02141113f, -0.08068462f, -0.01853254f, -0.01046601f, 0.04810072f, 0.00058418f, 
-0.08636959f, -0.08162311f, -0.12196951f, -0.02187880f, -0.16940030f, -0.22753860f, -0.15602483f, -0.03277431f, 
-0.06371415f, -0.01554123f, -0.08839975f, -0.13555865f, -0.11817966f, -0.09253205f, -0.19744712f, -0.11346239f, 
-0.01418200f, 0.13078946f, 0.08744137f, 0.03640477f, 0.03763611f, 0.00327325f, -0.03092536f, -0.00675762f, 
-0.04562978f, 0.02851556f, -0.00229803f, 0.10460225f, 0.03911999f, -0.11514701f, -0.17702818f, -0.13576129f, 
-0.14484037f, -0.07089653f, -0.08553396f, -0.02470931f, 0.03327974f, -0.07640518f, -0.08383814f, -0.13019642f, 
-0.12415215f, -0.19639352f, -0.17807016f, -0.11908026f, 0.05395026f, 0.07878835f, 0.01352327f, -0.01741053f, 
-0.17365083f, -0.05697254f, -0.04566295f, -0.03151330f, -0.03060495f, 0.00759306f, 0.03697510f, 0.07536393f, 
0.12093163f, -0.10463437f, -0.12484366f, -0.13591617f, -0.08653429f, -0.11043794f, -0.10642447f, -0.07427920f, 
-0.02619520f, -0.04293111f, -0.03652557f, -0.15107201f, -0.13836049f, -0.15067010f, -0.12047963f, -0.00192508f, 
-0.00465861f, 0.08838476f, 0.07688490f, 0.04947622f, -0.04689503f, -0.09715696f, -0.08709811f, -0.01996742f, 
-0.04842851f, -0.04612201f, 0.02527779f, 0.09317835f, 0.06543007f, -0.06485293f, -0.04185224f, -0.13174534f, 
-0.10074606f, -0.10058884f, -0.07699044f, -0.07995120f, 0.01279177f, -0.02135361f, -0.01606209f, -0.07674331f, 
-0.09461977f, -0.18218444f, -0.09601097f, -0.06620831f, 0.01354410f, 0.08610491f, 0.03026436f, 0.03595540f, 
-0.03701328f, 0.01650544f, 0.00824965f, 0.00432990f, -0.05038247f, 0.00297070f, -0.00073831f, 0.06969555f, 
0.03007751f, 0.03032420f, -0.01048188f, -0.08841505f, -0.17915070f, -0.13657767f, -0.08813546f, -0.07268911f, 
0.01595063f, 0.00466523f, -0.06276027f, -0.07219439f, 0.02494893f, -0.08581820f, -0.13276018f, -0.06959233f, 
-0.02835132f, 0.00362492f, -0.00326152f, 0.02884785f, 0.01757460f, 0.07034105f, 0.08216427f, 0.10159086f, 
0.01836837f, 0.05977311f, 0.10647035f, 0.09974710f, 0.01111681f, 0.09623026f, 0.02708987f, -0.03932888f, 
-0.07998925f, -0.12958153f, -0.03792125f, -0.10435926f, -0.04414633f, -0.03888417f, -0.08000605f, -0.05359914f, 
-0.08933212f, -0.09790104f, -0.09598839f, -0.08013081f, -0.01556305f, -0.04304468f, 0.03840343f, -0.02917672f, 
0.08849926f, 0.07946689f, 0.07293817f, 0.02434752f, 0.07628588f, 0.13989198f, 0.11575481f, 0.06134709f, 
0.01594734f, 0.02550160f, 0.03152682f, -0.05525185f, -0.08938353f, -0.15198906f, -0.08121644f, -0.00258869f, 
-0.04672676f, -0.03461980f, -0.02538007f, -0.02794879f, -0.13113858f, -0.16103731f, -0.04569704f, -0.01091686f, 
0.01379754f, 0.08519650f, 0.03694453f, 0.10226724f, 0.05526068f, 0.01599634f, 0.01429858f, -0.00405918f, 
0.04207473f, -0.01387030f, 0.10697408f, -0.04524486f, -0.01887854f, -0.01342168f, 0.05677697f, 0.02686590f, 
-0.05449982f, -0.05986590f, -0.05465662f, -0.01862873f, -0.04537323f, -0.02034567f, 0.00992945f, -0.02298174f, 
-0.17116120f, -0.20109272f, -0.08082251f, -0.03634192f, 0.04600315f, 0.10954297f, 0.16269097f, 0.08129151f, 
0.02556714f, 0.01132573f, -0.01788383f, -0.01562859f, -0.03629683f, 0.08645839f, 0.09003411f, -0.07352726f, 
-0.02220313f, 0.07662524f, 0.10521144f, 0.08077041f, 0.00248111f, 0.00174056f, 0.05086001f, 0.04901319f, 
-0.05216072f, -0.01446302f, -0.05431394f, -0.02720317f, -0.01767252f, -0.11290400f, -0.15654723f, 0.01315367f, 
0.04307994f, 0.01163896f, -0.06306550f, 0.00103704f, -0.02834467f, -0.21403718f, -0.07038154f, -0.00335350f, 
0.04513236f, 0.03318985f, 0.03390214f, -0.22833826f, -0.11891726f, -0.01737486f, -0.04428389f, -0.01911359f, 
0.03614598f, 0.03652833f, 0.06536967f, 0.06450843f, -0.01297351f, -0.06267750f, -0.04997582f, -0.05140855f, 
-0.06713530f, -0.02076726f, -0.02949236f, -0.01197965f, -0.04256602f, -0.08058018f, -0.18328626f, -0.10527395f, 
-0.02389975f, -0.02552440f, 0.00561913f, 0.09299427f, -0.02779053f, -0.01826364f, 0.00364201f, -0.05401550f, 
0.06817298f, -0.05011205f, -0.05462337f, 0.05441006f, 0.04860526f, 0.06749669f, 0.02799707f, -0.02072373f, 
-0.03280225f, 0.02506607f, 0.00198172f, -0.02994917f, 0.01347718f, 0.02391622f, 0.00828579f, 0.02628439f, 
0.02940354f, -0.00275932f, -0.01535867f, -0.03323547f, 0.02169748f, -0.01036997f, -0.01235560f, -0.00275638f, 
0.01185967f, 0.00486944f, 0.02392380f, 0.02378786f, 0.00974076f, 0.00827238f, 0.00789732f, 0.00802736f, 
0.00384544f, 0.00955803f, -0.01963419f, 0.01577532f, -0.03288226f, 0.02676039f, -0.01021860f, -0.00821709f, 
-0.02977701f, -0.02051459f, -0.00735940f, -0.01095603f, -0.01436216f, 0.01423491f, -0.00486611f, 0.01315134f, 
-0.02308265f, -0.00874920f, -0.03218912f, -0.00653054f, -0.02580025f, 0.00019431f, -0.01413821f, -0.03122986f, 
0.02105990f, -0.00394303f, -0.00509389f, -0.02038385f, -0.00308034f, -0.02490758f, -0.02586361f, 0.00825018f, 
-0.02970724f, -0.01862194f, 0.01780013f, -0.03533827f, 0.00439414f, -0.03008501f, 0.01428075f, 0.00210842f, 
-0.02509627f, 0.03567103f, -0.01325260f, -0.00175289f, 0.03203526f, 0.03516416f, 0.00903242f, -0.02983303f, 
0.00626776f, 0.01089263f, 0.02008107f, 0.01995138f, -0.02911664f, -0.02357351f, 0.01978761f, 0.01399608f, 
0.03278915f, -0.03476685f, 0.02399677f, 0.01842530f, 0.01248817f, -0.01438969f, -0.03473870f, 0.01899352f, 
0.01655846f, -0.03204563f, 0.02042638f, -0.01005433f, 0.01806761f, -0.02841903f, -0.02278457f, 0.02046659f, 
0.00313538f, 0.02119991f, -0.01178305f, 0.02073271f, -0.03144821f, -0.00781308f, 0.00890341f, 0.00691303f, 
-0.03088582f, 0.01324644f, 0.03162660f, 0.01084836f, 0.02790488f, 0.03553619f, 0.01887226f, 0.02940834f, 
0.02879298f, 0.00522223f, 0.00322924f, -0.03046511f, -0.01427117f, 0.02300579f, -0.03393855f, -0.00140297f, 
-0.01128924f, 0.02170785f, -0.02830080f, 0.02415770f, -0.03151743f, -0.02247520f, -0.00895661f, 0.02479376f, 
0.00371467f, -0.01439285f, 0.02712654f, -0.03718769f, -0.02685534f, 0.01487181f, -0.01872449f, -0.02166940f, 
0.02113350f, -0.01269410f, -0.01915450f, 0.01301119f, -0.00584312f, -0.01102834f, 0.02010563f, 0.01789704f, 
-0.03079757f, 0.01336151f, -0.00976059f, -0.02100003f, -0.01092015f, 0.02493839f, -0.01965225f, -0.02688004f, 
-0.00584822f, -0.00770032f, -0.01613013f, -0.04380260f, 0.00262319f, -0.01811072f, 0.00508120f, -0.03039497f, 
-0.00362521f, 0.02289266f, -0.02945113f, 0.01362045f, 0.03092037f, 0.02560503f, -0.01920459f, -0.02517569f, 
-0.01435667f, 0.01565677f, 0.00281577f, 0.03173984f, -0.00824092f, 0.00058248f, -0.02886037f, -0.03714197f, 
-0.01093415f, -0.01135965f, 0.00707408f, -0.04012448f, 0.01922099f, 0.01025195f, -0.00615171f, 0.00737301f, 
-0.00651033f, -0.01767828f, -0.00178436f, -0.03496134f, -0.04045418f, 0.01516333f, 0.02551186f, -0.00110764f, 
0.02764588f, 0.03365206f, -0.01869837f, -0.03272454f, -0.03169495f, -0.02868881f, 0.01542264f, -0.03287657f, 
-0.01175833f, -0.00817371f, -0.03828451f, -0.01450293f, -0.00914970f, -0.03197754f, -0.02810806f, -0.00299520f, 
-0.03039961f, 0.02076889f, -0.00228457f, 0.00493026f, -0.03395090f, 0.01884471f, 0.02486759f, -0.03959838f, 
-0.01676112f, 0.02678149f, -0.02798971f, 0.01903789f, -0.02797952f, 0.01753417f, -0.02897559f, -0.00253326f, 
-0.02315137f, -0.02027605f, 0.01418202f, 0.02066784f, -0.01961305f, -0.02227397f, -0.04035503f, -0.02404800f, 
0.01536440f, 0.00243458f, 0.00900936f, -0.02195884f, -0.00744717f, -0.02716319f, -0.02474584f, 0.00436138f, 
-0.03881508f, -0.00647723f, 0.00551705f, 0.01792957f, -0.00012463f, -0.02337943f, 0.00004038f, -0.02896254f, 
0.00451352f, -0.00830415f, -0.02092538f, 0.01860306f, 0.03388317f, -0.03550602f, 0.00728395f, -0.01311950f, 
0.00174232f, -0.02071865f, 0.00290661f, -0.04420424f, -0.03797839f, -0.00757782f, -0.01760701f, -0.02391679f, 
0.01343526f, 0.00180257f, -0.03643250f, -0.02458665f, -0.04589861f, 0.00706915f, -0.02335047f, 0.02297314f, 
0.00281684f, 0.02124585f, 0.01214468f, 0.01776866f, -0.00090594f, 0.02007696f, -0.00637878f, -0.03234707f, 
-0.02911565f, 0.03060866f, -0.00696398f, 0.00553231f, -0.02798897f, 0.00956481f, 0.01417457f, 0.01883724f, 
-0.02294667f, 0.01759017f, -0.01679915f, 0.03997931f, 0.02726453f, 0.01164168f, -0.02046519f, 0.02493883f, 
-0.01510703f, 0.01978875f, -0.00060982f, -0.00674313f, -0.01529076f, -0.04295336f, 0.00398360f, -0.02949441f, 
-0.02431528f, -0.00292728f, -0.00180240f, 0.00137818f, 0.00123739f, 0.01249301f, -0.00300818f, 0.02486684f, 
-0.00463685f, 0.00234573f, -0.03164587f, -0.00933494f, 0.00838512f, -0.03621052f, -0.00006853f, -0.01783457f, 
-0.02478356f, -0.03025982f, -0.03216606f, -0.00863760f, -0.01851857f, -0.03235011f, -0.04238581f, -0.00807592f, 
0.00917438f, -0.00980585f, 0.01220220f, -0.01948007f, 0.00489437f, 0.02991703f, -0.02583943f, -0.03172661f, 
0.02748710f, 0.03167170f, -0.00071312f, -0.02972261f, -0.00920105f, -0.01827618f, -0.02012516f, 0.00480899f, 
-0.02848511f, -0.04095814f, -0.02979126f, -0.02849742f, -0.00197955f, -0.04183825f, -0.01516496f, 0.01384140f, 
-0.02739333f, 0.00884949f, 0.00924459f, -0.03454472f, 0.01772149f, -0.04033845f, -0.02914037f, -0.03141475f, 
-0.03369135f, -0.02747975f, 0.02323714f, -0.01758338f, -0.01191942f, 0.00985769f, 0.00439977f, -0.02026817f, 
-0.02660891f, 0.01705302f, -0.02161198f, -0.02538156f, -0.00535555f, -0.00573420f, -0.02249301f, -0.03789383f, 
0.01396966f, -0.04128768f, -0.00635419f, -0.04179537f, 0.01934596f, 0.00573095f, -0.01888778f, 0.02353622f, 
-0.00694885f, -0.01547921f, -0.02173148f, 0.00330268f, -0.03399673f, -0.00968309f, 0.02308248f, -0.01169338f, 
0.00329004f, -0.03358424f, 0.02318614f, -0.00012408f, -0.02494847f, 0.00127461f, 0.00115332f, 0.02303345f, 
-0.02977857f, -0.03963418f, 0.02428728f, -0.02210658f, 0.02118020f, 0.02161466f, -0.04004848f, -0.00286157f, 
-0.01477939f, 0.01045721f, -0.01574108f, -0.03734993f, -0.03609973f, 0.00691765f, 0.02724492f, 0.02517967f, 
0.02312750f, 0.02202835f, -0.01393262f, -0.02901439f, 0.03073072f, 0.03264637f, 0.00106106f, 0.03191000f, 
0.01403569f, 0.02114747f, -0.03448823f, -0.00433714f, 0.02063938f, -0.00420315f, 0.02323444f, -0.02061566f, 
0.00383340f, -0.01100151f, -0.02858520f, -0.00884383f, -0.04468116f, -0.00129505f, -0.03540051f, 0.01984057f, 
0.01014294f, -0.01641211f, 0.00816725f, 0.00949379f, -0.03194809f, 0.01305483f, 0.01098968f, 0.00811648f, 
-0.02773667f, 0.00285313f, 0.03048622f, -0.01785197f, -0.02492822f, -0.02039241f, -0.01134416f, -0.01187572f, 
-0.00620549f, 0.01969636f, 0.01617768f, -0.01233415f, 0.00666416f, -0.01857602f, -0.00735555f, -0.03274943f, 
0.00911117f, -0.02284152f, -0.01160898f, 0.02044745f, 0.00122847f, -0.04312261f, -0.00116571f, -0.01922564f, 
0.02019137f, 0.03035068f, 0.02981323f, -0.01694401f, -0.01523310f, -0.01547934f, 0.00527536f, -0.02068945f, 
-0.02553453f, 0.01559402f, -0.00896687f, 0.01046904f, -0.00560222f, 0.00554780f, -0.03695242f, 0.01281533f, 
-0.01301697f, -0.03713097f, 0.00320948f, 0.02636523f, -0.01313005f, -0.02701683f, -0.04282909f, -0.00585726f, 
0.00886060f, 0.01172734f, -0.03548549f, -0.03426803f, -0.02382371f, -0.01282839f, -0.02329842f, 0.00119320f, 
-0.02309031f, 0.01331174f, -0.00442600f, 0.01691168f, -0.03559240f, -0.02303300f, -0.00131212f, 0.01997068f, 
-0.02830215f, -0.02238159f, -0.01061083f, 0.03485688f, -0.02404740f, 0.00890996f, 0.00579202f, 0.00968034f, 
-0.01210841f, -0.04283583f, 0.01879993f, -0.01969467f, 0.00833901f, 0.01204583f, -0.03284943f, -0.01106181f, 
0.02720698f, -0.03459089f, -0.00177322f, -0.01849671f, 0.02536573f, -0.01553326f, -0.03478610f, 0.01577836f, 
-0.01960055f, -0.00242261f, 0.02418090f, -0.02688479f, -0.02576002f, -0.00224622f, 0.00991717f, 0.01268287f, 
0.01992036f, -0.02632455f, 0.00390070f, -0.03727159f, -0.04064405f, -0.02922304f, 0.01046043f, 0.00116000f, 
-0.01162838f, -0.00542391f, -0.03076684f, 0.00972824f, 0.00053017f, -0.01416690f, 0.02958371f, 0.01291386f, 
0.01434001f, -0.00991990f, -0.02245111f, 0.03081914f, -0.02822475f, -0.00996204f, -0.02383708f, -0.02994263f, 
0.00019487f, -0.02560849f, 0.02424247f, -0.00021128f, -0.02016404f, 0.00463618f, -0.02688682f, 0.02454435f, 
0.00810929f, -0.03034420f, -0.03399608f, -0.00185638f, -0.02362431f, -0.03091200f, 0.01316257f, 0.02509584f, 
0.00785077f, 0.02627442f, 0.00924640f, 0.03150475f, 0.02392488f, 0.01868315f, -0.00805954f, 0.02617854f, 
-0.00473308f, -0.00781865f, -0.00568741f, -0.03998783f, 0.01219169f, -0.04388032f, -0.02405887f, 0.00769377f, 
-0.02137323f, 0.01212584f, -0.03026119f, -0.01561094f, -0.02853017f, 0.01546398f, 0.01829591f, -0.01360904f, 
0.02648863f, 0.02604677f, -0.02704964f, -0.02640090f, -0.00252681f, -0.03083259f, 0.02266276f, 0.00296947f, 
-0.00300645f, -0.00248967f, 0.01340699f, -0.01152351f, 0.01447321f, 0.00404657f, 0.00058349f, -0.00769898f, 
-0.00391982f, -0.02511676f, -0.01694902f, -0.03859209f, 0.00271856f, -0.03751559f, 0.00770845f, 0.00318645f, 
0.01973084f, 0.02717360f, -0.00018402f, 0.00186559f, -0.01937631f, -0.00949557f, 0.01753818f, -0.02456961f, 
0.00838233f, 0.02136355f, -0.03274043f, 0.00161434f, -0.03097610f, 0.01417872f, -0.00075972f, 0.03189923f, 
0.01460353f, -0.02602016f, -0.02166083f, 0.00944746f, 0.01373442f, 0.02167707f, 0.01459642f, -0.00421016f, 
-0.00472449f, 0.01156591f, -0.03017974f, 0.01721293f, 0.03026580f, -0.03633946f, -0.03641921f, -0.04039195f, 
0.01113977f, -0.00027307f, 0.02696057f, 0.00418106f, -0.01837617f, -0.02880508f, -0.01043803f, 0.03035997f, 
0.02321753f, 0.01320307f, 0.01398289f, -0.00529409f, -0.00466167f, -0.02548541f, 0.01740529f, -0.00785033f, 
0.02907779f, 0.00895543f, -0.02967347f, -0.00766793f, 0.00072675f, 0.00438508f, -0.02281268f, 0.02275500f, 
-0.02178135f, -0.03309832f, -0.01866520f, -0.01236266f, -0.02551119f, 0.00374947f, 0.02769852f, -0.02012639f, 
-0.02527310f, 0.00989574f, 0.02536717f, -0.03360645f, -0.01885991f, 0.02925315f, -0.01453764f, -0.02078545f, 
0.00892378f, -0.02194636f, -0.00649363f, 0.02354594f, 0.01428545f, -0.03562751f, 0.00468866f, -0.02788620f, 
-0.00454001f, -0.02603616f, -0.02004085f, -0.01864553f, -0.00826682f, 0.02474384f, -0.00326230f, -0.01378958f, 
0.01401414f, -0.00725692f, 0.01639763f, 0.00648362f, 0.02252231f, -0.03406215f, -0.00344600f, 0.02037149f, 
-0.00957569f, 0.03015245f, 0.00745438f, -0.02802155f, 0.00135396f, 0.01986621f, 0.01269307f, -0.00483361f, 
0.01320844f, -0.00109802f, 0.01258113f, -0.02395700f, -0.01063517f, -0.02785411f, -0.02964480f, 0.00570732f, 
-0.00586332f, -0.02306846f, 0.01964427f, -0.00840407f, -0.01841823f, 0.01989959f, -0.00247053f, -0.00878717f, 
-0.02819161f, -0.02775085f, -0.01558222f, 0.03466543f, 0.00336782f, -0.02790224f, 0.00372471f, -0.02432232f, 
0.03382031f, 0.00232018f, 0.02132892f, 0.02465812f, -0.00871667f, -0.02861062f, 0.00087262f, -0.02947983f, 
0.01017138f, -0.02127679f, 0.03129584f, -0.03421237f, -0.03334896f, -0.01229297f, 0.01792235f, -0.01191286f, 
0.00879723f, 0.00654548f, -0.02264808f, -0.02187890f, -0.01992413f, 0.01195598f, -0.01879309f, -0.03190680f, 
0.00311843f, -0.00535328f, 0.01039398f, -0.01665536f, -0.00421086f, 0.00782772f, 0.01969797f, -0.00836614f, 
-0.00931136f, -0.06963112f, -0.09931074f, -0.15997185f, -0.09351899f, -0.06242633f, -0.08608794f, -0.05358759f, 
-0.10670756f, -0.14160433f, -0.13759376f, -0.13778119f, -0.10650894f, -0.11924681f, -0.14313796f, -0.06969159f, 
-0.02436258f, -0.06699490f, -0.07645332f, -0.03929428f, -0.02050865f, 0.02127690f, -0.05439356f, -0.08478615f, 
-0.07879308f, -0.00870770f, 0.00723856f, 0.04462590f, 0.00231332f, -0.07482694f, -0.02575146f, 0.08568228f, 
0.14043948f, 0.02151411f, -0.14972694f, -0.00497488f, 0.06175731f, 0.04056953f, -0.04255008f, 0.04880767f, 
0.06648514f, -0.02613003f, -0.05673201f, -0.05631151f, -0.04719261f, -0.02755695f, -0.01653441f, -0.02469274f, 
-0.02503576f, -0.04739884f, -0.03527210f, -0.02161716f, -0.07352428f, -0.02285469f, 0.01856500f, 0.08027565f, 
0.14239459f, 0.24943943f, 0.31130239f, 0.34741393f, 0.21073516f, 0.04129677f, 0.20359944f, 0.14301701f, 
0.10147732f, 0.19514108f, 0.15075661f, 0.14560729f, 0.15833865f, 0.24198832f, 0.16661777f, 0.10305900f, 
0.06414264f, -0.08211093f, -0.08184037f, -0.12879866f, -0.06887069f, -0.09301616f, -0.11180492f, -0.00687265f, 
-0.03013358f, 0.08517063f, 0.13667719f, 0.15207046f, 0.13820171f, 0.18726780f, 0.13131098f, 0.13334635f, 
0.06456193f, 0.06302366f, 0.17132697f, -0.01861389f, -0.03056847f, -0.09705056f, -0.07908436f, 0.06620669f, 
0.02152858f, 0.11492640f, 0.00157399f, 0.08874697f, 0.14355832f, -0.08846718f, -0.02559163f, -0.13538374f, 
-0.03933679f, -0.04634138f, -0.12344059f, -0.06998514f, 0.05127286f, 0.18758692f, 0.22461885f, 0.08552961f, 
0.18735673f, 0.16834815f, 0.09006253f, -0.07265750f, -0.04745021f, 0.00156408f, -0.04090236f, -0.14520112f, 
-0.18303889f, -0.16818406f, -0.09926864f, 0.03616706f, -0.03635819f, -0.12677594f, -0.11893593f, 0.01407382f, 
0.02837292f, -0.00690318f, -0.05909678f, 0.02597999f, -0.00949347f, -0.00643121f, -0.07451973f, -0.09441141f, 
0.16560593f, 0.13496371f, 0.12352887f, 0.00510322f, 0.11533077f, -0.01195696f, -0.02748146f, -0.10073189f, 
-0.07996827f, -0.11777273f, 0.05089438f, -0.01625394f, 0.00024672f, -0.07177872f, -0.10611939f, -0.04870578f, 
-0.08053636f, -0.04218163f, -0.12799655f, 0.05923855f, 0.02503571f, -0.00836495f, 0.06263806f, 0.05733730f, 
-0.01318346f, 0.03640511f, -0.08931331f, 0.05928734f, 0.20607479f, 0.11693446f, 0.03676403f, -0.02400337f, 
-0.06829205f, -0.14831164f, -0.21939270f, -0.17381461f, -0.21920587f, -0.12660863f, -0.09972647f, 0.01194301f, 
-0.02064202f, -0.15069292f, -0.20541120f, -0.22822662f, -0.24068634f, -0.21345858f, -0.00240087f, -0.01463522f, 
-0.04862910f, 0.01922746f, 0.01267775f, 0.09600999f, -0.02460132f, -0.06349229f, -0.13123266f, -0.08998885f, 
0.13479808f, 0.14571327f, -0.00602079f, 0.00595040f, -0.01958035f, -0.10480274f, -0.15114312f, -0.15332907f, 
-0.15616632f, -0.15717883f, -0.00347577f, 0.04235729f, -0.05447697f, -0.04105063f, -0.14807041f, -0.28970104f, 
-0.15901250f, -0.16653594f, -0.11376163f, -0.13697194f, 0.14346570f, 0.19248648f, 0.08926183f, 0.10699484f, 
0.06940214f, -0.13784425f, -0.12829982f, -0.12209405f, 0.07529484f, 0.19077636f, -0.00417860f, 0.05615801f, 
-0.08249357f, -0.01013444f, -0.06816304f, -0.08894121f, -0.21313924f, -0.10475007f, -0.01245431f, 0.08180411f, 
-0.03718823f, -0.07851499f, -0.17694855f, -0.11835895f, -0.00548521f, -0.09326587f, -0.16054267f, -0.06180694f, 
-0.04224275f, 0.02880419f, -0.12937120f, -0.04851753f, -0.10444173f, -0.10881160f, -0.09690280f, -0.00232723f, 
0.01721383f, 0.15051158f, -0.03887589f, 0.03018322f, -0.05353967f, -0.08370780f, -0.08350835f, -0.08171327f, 
-0.18884419f, -0.08421579f, 0.00725707f, -0.00622491f, 0.00315925f, -0.04571106f, -0.14194310f, -0.08959859f, 
0.01038898f, 0.05780054f, -0.07276639f, -0.07739760f, -0.02261525f, -0.30674964f, -0.13192213f, 0.03303401f, 
-0.11860648f, -0.08386426f, -0.00941652f, -0.06510746f, -0.03882234f, -0.00245522f, -0.03120206f, 0.01265841f, 
0.02438078f, -0.05066365f, -0.04861348f, -0.08800480f, -0.18638945f, -0.10092013f, 0.01359179f, 0.07378311f, 
-0.04700813f, -0.06677072f, -0.07703763f, -0.04917835f, -0.00085975f, 0.05356116f, -0.07067320f, -0.03232619f, 
0.03802347f, -0.22610806f, -0.09789195f, -0.05069059f, -0.14183526f, 0.14534210f, -0.26646391f, -0.19685189f, 
-0.08392533f, 0.03719391f, 0.00420648f, 0.00692022f, 0.04615385f, 0.01535459f, 0.02870024f, -0.08729091f, 
-0.07751823f, 0.02861480f, 0.07585851f, 0.03916828f, 0.05288032f, -0.03990875f, -0.08531625f, -0.00232810f, 
0.10077786f, 0.04810029f, -0.02090253f, -0.02136683f, -0.08959177f, -0.12989669f, -0.27258390f, -0.02787689f, 
-0.04423605f, -0.08304053f, -0.18951705f, -0.10828974f, -0.17965041f, 0.02164530f, 0.00864216f, 0.00849521f, 
0.08343475f, 0.02871613f, 0.08800457f, 0.03125145f, 0.13538724f, 0.21932150f, 0.13613193f, 0.09153659f, 
0.08408234f, 0.00557061f, -0.01324360f, 0.09591723f, 0.11227787f, 0.09805066f, 0.17085226f, 0.01500883f, 
0.12108600f, -0.03580976f, -0.16650903f, 0.07516253f, -0.00344608f, -0.08155099f, -0.14863302f, -0.06107565f, 
-0.08304186f, 0.10146881f, 0.13862412f, -0.04014549f, 0.02406935f, -0.03180724f, 0.03031938f, 0.00844883f, 
0.06472565f, 0.13264734f, 0.05319881f, 0.05728479f, 0.11719003f, 0.03727908f, 0.10948249f, 0.11407182f, 
0.04548846f, 0.09339531f, 0.18075205f, 0.21620567f, 0.20020533f, -0.08659631f, -0.01436135f, 0.09719519f, 
-0.03735837f, -0.07721556f, -0.06679057f, -0.02269881f, -0.10314868f, 0.07205792f, 0.14513728f, 0.04520704f, 
0.00766620f, -0.02148033f, -0.05462977f, -0.07792197f, 0.00542165f, 0.08708055f, 0.04484532f, 0.09730405f, 
0.11381572f, 0.01100181f, 0.03821982f, 0.07790143f, 0.06084825f, 0.11263379f, 0.19174784f, 0.25025260f, 
0.20549193f, -0.05846852f, 0.05805145f, -0.04788904f, -0.06136072f, -0.03561928f, 0.11908470f, -0.08135429f, 
-0.23215750f, 0.03200267f, 0.14775801f, 0.12476889f, 0.02759842f, -0.00962931f, -0.04209974f, -0.07683510f, 
0.10095141f, 0.11853107f, 0.09377121f, 0.10862708f, 0.11990073f, 0.01882857f, 0.00279581f, 0.08183633f, 
0.06125635f, 0.06331220f, 0.08502544f, 0.15228827f, 0.15282926f, 0.06591091f, -0.07691360f, 0.15317488f, 
-0.05490519f, -0.07024954f, 0.10131917f, -0.18031661f, -0.21082501f, 0.06011575f, 0.08574240f, 0.19011524f, 
0.03127142f, 0.06576052f, -0.03699493f, -0.03144094f, 0.05212353f, 0.09581707f, 0.09251547f, 0.14236552f, 
0.10210744f, 0.08604725f, 0.05383793f, 0.05525813f, -0.00708261f, 0.04675154f, 0.13086747f, 0.12298646f, 
0.12088531f, 0.25317737f, 0.08189511f, 0.10816576f, 0.01615279f, -0.02534975f, 0.06660520f, -0.18572317f, 
-0.15758091f, -0.07760762f, 0.05676613f, 0.01900597f, 0.04673909f, 0.00225894f, -0.00258970f, 0.02694010f, 
0.07429553f, 0.03971891f, 0.01545286f, 0.02998695f, 0.11826040f, 0.03229112f, 0.03051138f, -0.12271121f, 
-0.03939398f, 0.11424614f, 0.03715269f, -0.04383535f, -0.14256263f, 0.19027032f, -0.09003002f, 0.15915333f, 
-0.09877598f, -0.02297542f, -0.03636122f, -0.06885887f, -0.12235247f, -0.08304289f, -0.07348989f, -0.01620589f, 
-0.02464176f, -0.02133102f, 0.04268592f, -0.01779624f, 0.10897000f, 0.11968341f, 0.00560270f, 0.11008933f, 
0.12977879f, 0.05975541f, -0.00125417f, -0.04181199f, -0.07154109f, 0.00162893f, -0.05751033f, -0.01221635f, 
-0.11600910f, 0.10088573f, -0.12849747f, 0.07237767f, -0.08251568f, -0.17963943f, -0.06079716f, -0.04592155f, 
-0.01854593f, -0.12762590f, -0.15201293f, -0.07629765f, -0.13747692f, 0.01994985f, 0.02312193f, 0.10746133f, 
0.09735791f, 0.06023319f, 0.08085767f, 0.12055910f, 0.09449241f, 0.06081651f, 0.00598133f, -0.08808506f, 
-0.06265905f, -0.08666185f, -0.11551229f, -0.10476407f, -0.18974407f, -0.10968000f, -0.03602707f, 0.07356178f, 
-0.09596714f, -0.11480533f, -0.02238283f, -0.00554248f, -0.03568522f, -0.03747744f, -0.16171795f, -0.07751398f, 
-0.13455757f, -0.04566954f, 0.06184877f, 0.12200369f, 0.13475272f, 0.05261479f, 0.03889348f, 0.10437980f, 
0.05047326f, -0.01642514f, -0.00058967f, -0.07555582f, -0.04891684f, -0.08574755f, -0.16079997f, -0.33759290f, 
-0.28178144f, -0.24976870f, -0.05542348f, -0.01926738f, 0.08295999f, -0.07423531f, -0.01795209f, -0.01379324f, 
-0.06085867f, -0.04062720f, -0.04041856f, -0.04652768f, -0.07172483f, -0.04763220f, 0.01326351f, 0.02724720f, 
0.06462675f, 0.04490091f, -0.04153720f, -0.10322604f, -0.06754098f, 0.00276563f, 0.03570318f, -0.06546836f, 
-0.09365399f, -0.20725726f, -0.17163880f, -0.28364673f, -0.30539078f, -0.17693265f, 0.12816656f, -0.03816495f, 
-0.00173335f, -0.02014505f, -0.02647489f, -0.09880280f, -0.17400651f, -0.10314092f, -0.09735144f, -0.13611135f, 
-0.15267339f, -0.02284442f, 0.01264969f, -0.06871334f, -0.05518662f, -0.08393073f, -0.20716716f, -0.11479076f, 
-0.06225297f, -0.13546577f, -0.07750802f, -0.02353192f, -0.06817919f, -0.08752529f, -0.02431368f, -0.19114859f, 
-0.23680019f, -0.00929591f, 0.09751128f, 0.02795282f, 0.00591762f, -0.04769912f, -0.04045695f, -0.07229795f, 
-0.02556155f, -0.09412718f, -0.10497464f, -0.18624829f, -0.21787244f, -0.08977704f, -0.05894369f, -0.10023604f, 
0.01682832f, -0.12919137f, -0.08607937f, -0.13194540f, -0.20968890f, -0.19010635f, -0.13550329f, 0.00487760f, 
0.03817697f, 0.04350865f, -0.05947049f, -0.11883099f, -0.22140290f, -0.01257140f, 0.06559227f, 0.01514880f, 
0.01183477f, 0.00076892f, -0.03456707f, 0.00719871f, -0.10158435f, -0.08975330f, -0.14715999f, -0.25755709f, 
-0.27497396f, -0.13243066f, -0.14551996f, -0.13303328f, -0.11429071f, -0.12150504f, -0.06768751f, -0.15438193f, 
-0.07453689f, -0.02694890f, -0.07122865f, -0.00552010f, 0.01234676f, 0.07525043f, 0.09764384f, -0.09838960f, 
-0.03119016f, 0.03649913f, -0.01516665f, -0.01635609f, -0.02390654f, -0.03195785f, -0.02356384f, 0.00234924f, 
-0.14058968f, -0.22291215f, -0.14065944f, -0.31856760f, -0.33158427f, -0.22869527f, -0.22153686f, -0.27841157f, 
-0.17295958f, -0.21648633f, -0.29152536f, -0.18083498f, -0.24002887f, -0.10839977f, -0.12307557f, -0.27544802f, 
-0.14383702f, -0.07254769f, -0.00795322f, 0.06730403f, -0.15400635f, -0.02165111f, -0.04469087f, 0.01301550f, 
0.00171928f, -0.01163297f, -0.00251948f, -0.03508478f, -0.11418080f, -0.14236277f, -0.15964939f, -0.31580934f, 
-0.18458515f, -0.24695630f, -0.30371639f, -0.28966427f, -0.28618655f, -0.19575256f, -0.37599850f, -0.24995521f, 
-0.21516949f, -0.27203828f, -0.33730599f, -0.36260912f, -0.32447931f, -0.14367960f, -0.17833965f, -0.16446401f, 
-0.02210775f, -0.02348048f, -0.01874189f, -0.02627805f, -0.01453417f, 0.01152351f, -0.01940686f, -0.03147933f, 
0.00834825f, -0.00624707f, -0.05533353f, -0.11139976f, -0.11974373f, -0.09741730f, -0.20444305f, -0.24654675f, 
-0.24150628f, -0.17512622f, -0.31085688f, -0.15375400f, -0.04630176f, -0.05182278f, -0.11031891f, -0.10739881f, 
-0.13059676f, 0.06120062f, 0.04087242f, 0.08160986f, 0.03297916f, 0.01861273f, 0.00569283f, -0.01489444f, 
-0.03169500f, -0.01044797f, -0.02982750f, -0.04830157f, -0.00589557f, -0.05736020f, -0.03690080f, -0.01744912f, 
-0.02549874f, -0.05493401f, 0.01184676f, -0.03546742f, -0.03031505f, -0.00567588f, -0.02625051f, -0.01720571f, 
-0.08198912f, -0.10828600f, -0.10619224f, -0.05425821f, -0.07412437f, -0.07376949f, -0.09172719f, -0.02669459f, 
-0.04053296f, -0.03787994f, -0.03084145f, -0.03514057f, -0.01305427f, -0.03161409f, -0.05109433f, -0.03488898f, 
-0.05231272f, -0.01448246f, -0.06218899f, -0.05557677f, -0.02234532f, -0.07230986f, -0.06958082f, -0.07769135f, 
-0.10438237f, -0.02395096f, -0.02543533f, -0.09665137f, -0.05335154f, -0.09931329f, -0.09806870f, -0.12942916f, 
-0.10913630f, -0.05060777f, -0.06006099f, -0.12828392f, -0.06954583f, -0.06234628f, -0.00652599f, -0.06384748f, 
-0.00751081f, 0.00397982f, -0.05115778f, -0.00152091f, -0.03559220f, -0.06665039f, -0.07387229f, -0.09168608f, 
-0.08906583f, -0.04074404f, -0.09991259f, -0.15571705f, -0.05550567f, -0.05136403f, 0.01037590f, -0.08261361f, 
0.01714366f, -0.12358465f, -0.12709768f, -0.17903328f, -0.14338239f, -0.14645234f, -0.06129341f, -0.09688242f, 
-0.08085344f, -0.04825676f, -0.05299603f, -0.06614920f, -0.01334692f, -0.05626179f, -0.03740352f, 0.01505446f, 
-0.08428214f, 0.00343046f, -0.11570725f, -0.10259850f, -0.09562520f, -0.06128230f, -0.10563315f, -0.05705497f, 
-0.08463613f, -0.04463469f, 0.03144426f, 0.05085713f, 0.11356942f, 0.04610530f, -0.06417450f, -0.07502465f, 
-0.03517963f, -0.07903750f, -0.12332278f, -0.12666726f, -0.00942858f, -0.04963301f, -0.04060796f, 0.00075656f, 
-0.01563585f, -0.04850531f, -0.01010722f, -0.06486434f, -0.00403410f, -0.05914073f, -0.15341437f, -0.01428652f, 
-0.00203505f, 0.03851777f, -0.00555652f, 0.03448579f, -0.00744852f, -0.04754094f, -0.07771488f, -0.03559987f, 
0.04581152f, -0.05942339f, -0.05902386f, -0.02771088f, -0.06002306f, -0.02841475f, 0.05676728f, -0.10785923f, 
-0.09744360f, -0.09202369f, -0.03347031f, -0.04752578f, -0.01762231f, -0.03104819f, -0.03939443f, -0.02237121f, 
0.06229427f, -0.01518067f, 0.09252783f, 0.18407416f, 0.05765534f, 0.01521383f, -0.02167349f, -0.09096332f, 
-0.01422572f, 0.00788462f, 0.03525481f, -0.03070097f, 0.02047256f, -0.02974343f, -0.04149421f, 0.02920319f, 
-0.00974504f, 0.09534016f, 0.13751635f, -0.03287296f, -0.16458368f, -0.13960265f, -0.01449992f, -0.06364977f, 
0.01018769f, 0.01227837f, -0.04516287f, 0.07328824f, 0.16843092f, 0.15969574f, 0.14124264f, 0.07056823f, 
0.02741651f, 0.02400182f, 0.00416350f, -0.11123399f, -0.03919105f, 0.02410982f, -0.02014817f, -0.03620475f, 
-0.05579313f, -0.12511300f, -0.11757375f, -0.04590164f, -0.00848470f, 0.15153024f, 0.15226887f, 0.06096513f, 
-0.09970254f, -0.20022346f, -0.09827292f, 0.01184901f, 0.03069281f, -0.05424522f, -0.03969014f, 0.27462026f, 
0.26035640f, 0.12234735f, 0.05445140f, 0.04937885f, -0.07331651f, 0.03672712f, 0.01283365f, -0.07278554f, 
-0.00058827f, 0.03812322f, -0.02958350f, -0.01006487f, -0.09245791f, 0.02069217f, -0.04463664f, -0.04598082f, 
-0.07105712f, 0.09734810f, 0.18461628f, 0.13534854f, -0.07512961f, -0.18893862f, -0.03522181f, 0.04398081f, 
0.02664646f, -0.07636403f, 0.05801057f, 0.17353064f, 0.26905456f, 0.02715331f, 0.00929245f, -0.00972535f, 
-0.08813155f, 0.05909003f, -0.00351442f, 0.00175874f, 0.13284755f, 0.06278986f, 0.13929576f, 0.13006753f, 
0.10447635f, 0.04900885f, 0.03072051f, -0.00799281f, -0.03158563f, -0.01385636f, 0.16088361f, 0.01297723f, 
-0.21801136f, -0.14488964f, 0.01083612f, 0.05011639f, 0.00467930f, -0.01346791f, 0.06275869f, 0.16152117f, 
0.10636488f, 0.00326067f, -0.02872401f, 0.01550310f, -0.09937579f, -0.01435018f, -0.08203539f, -0.03551096f, 
0.07215424f, 0.14196379f, 0.14736505f, 0.02905974f, 0.11814772f, 0.11127476f, 0.01550334f, 0.05867416f, 
0.05735043f, 0.00749682f, 0.05413102f, 0.06247430f, -0.12393643f, -0.03069718f, -0.01069281f, -0.04605458f, 
0.02656105f, -0.00034246f, 0.16517249f, 0.26229039f, -0.02907369f, -0.03822215f, 0.01085258f, -0.03557043f, 
-0.11412337f, -0.10095604f, -0.10016785f, -0.06705818f, 0.00563542f, 0.06859563f, 0.04063104f, 0.00195037f, 
-0.00780704f, 0.10382826f, 0.10788999f, 0.03296587f, 0.00190974f, -0.02458753f, 0.04633547f, -0.00568548f, 
-0.17731759f, -0.14970186f, -0.06274210f, 0.03163954f, 0.08945469f, 0.11067401f, -0.01395066f, 0.06545819f, 
-0.03309068f, -0.14473061f, -0.10385121f, -0.06846443f, -0.08840457f, -0.13319668f, -0.06607003f, -0.04593508f, 
-0.09343587f, 0.02894736f, 0.05678147f, -0.03995292f, -0.03991440f, 0.11679052f, 0.07119272f, 0.02836531f, 
-0.02749671f, -0.11245085f, 0.00284147f, -0.10048081f, -0.16250388f, -0.10572732f, 0.03200309f, -0.06404690f, 
0.02883111f, -0.01585492f, -0.03353764f, -0.06729789f, -0.11825269f, -0.09061098f, -0.06879344f, -0.07708422f, 
-0.09871402f, -0.08583408f, -0.02238882f, -0.07464534f, -0.01302828f, 0.06569237f, 0.02069713f, -0.00337729f, 
-0.06488159f, -0.00424177f, -0.00232071f, -0.07856457f, -0.05245227f, -0.09396741f, -0.09907319f, -0.12191955f, 
0.02712313f, -0.02674665f, -0.09456717f, -0.11701015f, 0.05048678f, 0.02759214f, -0.07897029f, -0.13456537f, 
-0.19047387f, -0.05976624f, -0.04784172f, -0.14036752f, -0.06723243f, -0.01428374f, -0.06904250f, -0.00801431f, 
0.05742214f, 0.10915194f, 0.05732535f, -0.01547330f, -0.12299447f, -0.03092431f, -0.02092663f, -0.10982982f, 
-0.06133056f, -0.03048232f, -0.03864159f, -0.08534744f, 0.02950212f, 0.17825325f, 0.06429725f, 0.05550677f, 
0.05283760f, 0.01264540f, -0.06652643f, -0.09024988f, -0.03583793f, 0.04910068f, -0.01450686f, -0.00733753f, 
-0.04587613f, -0.05626619f, -0.06497282f, 0.04649708f, 0.12943518f, 0.07884900f, 0.01369729f, -0.07856533f, 
-0.13218640f, -0.00847367f, -0.08584872f, -0.05766333f, -0.05897776f, 0.01244016f, -0.02927773f, -0.03283990f, 
0.14789939f, 0.11450806f, 0.09583347f, -0.03901245f, 0.02855316f, -0.02234807f, -0.03506161f, -0.12462927f, 
0.04949535f, 0.13018708f, 0.07345630f, 0.02267415f, -0.03932375f, -0.09986347f, -0.08165813f, 0.07878359f, 
0.11223397f, 0.06306484f, 0.08373127f, -0.01331969f, -0.07147869f, -0.08927089f, -0.07951582f, -0.07075414f, 
-0.00884299f, 0.04031743f, 0.04486145f, 0.09887773f, 0.22383159f, 0.05147057f, 0.12378769f, 0.02470531f, 
-0.01863265f, 0.02991687f, 0.01876444f, -0.05695409f, 0.02546083f, 0.00852747f, -0.01372182f, 0.02101637f, 
-0.00418828f, -0.01088603f, -0.00172943f, 0.11003169f, 0.07995559f, 0.04295703f, 0.05422493f, 0.02910018f, 
0.03581873f, 0.00159099f, -0.04369585f, -0.01575502f, 0.08687841f, 0.09861182f, 0.02397709f, 0.05764615f, 
0.08569148f, -0.00882135f, 0.06286155f, 0.04240069f, 0.02178483f, 0.02731263f, 0.06381595f, 0.02924239f, 
0.09584598f, -0.00125543f, -0.05185860f, -0.03903409f, -0.01745099f, 0.00627523f, 0.08457114f, 0.11087284f, 
0.06571627f, 0.07794458f, 0.03147230f, 0.03411027f, 0.06716085f, -0.01015188f, -0.08086549f, 0.02071038f, 
-0.04217865f, 0.08157122f, 0.04385957f, 0.05339878f, 0.06425641f, -0.04491061f, 0.10078851f, 0.14392179f, 
0.01669865f, 0.01155157f, 0.05922936f, 0.09060068f, -0.01926379f, 0.01319639f, -0.01212924f, 0.03227860f, 
-0.00153481f, 0.02935226f, 0.08175360f, 0.06336574f, 0.04850908f, 0.03458240f, -0.01702244f, 0.02013999f, 
0.05631684f, 0.02978601f, 0.03693113f, 0.01473667f, 0.01089752f, 0.01829426f, 0.02120009f, 0.01668813f, 
0.06829218f, -0.02955746f, 0.06400231f, 0.11063554f, -0.00980327f, -0.00623688f, -0.04649611f, 0.06251230f, 
0.07651789f, 0.08103920f, 0.03342204f, -0.01952386f, 0.03202730f, 0.02591570f, -0.03576837f, -0.04585363f, 
-0.07453928f, 0.01518840f, 0.03618130f, 0.01365052f, 0.02212188f, 0.10232920f, 0.07594333f, 0.00486605f, 
0.03205036f, -0.00648850f, -0.01260433f, -0.00478137f, -0.07228724f, -0.02359919f, 0.04195805f, -0.01584529f, 
0.02060358f, 0.04350333f, -0.04126861f, 0.08696542f, 0.04704561f, -0.03683716f, 0.00475776f, 0.03269380f, 
0.04091253f, -0.06133239f, -0.00723657f, 0.04185747f, 0.03435552f, 0.04446563f, -0.05073115f, -0.05383517f, 
-0.02302871f, 0.03885753f, 0.11148508f, 0.04743354f, 0.03834476f, 0.03294628f, -0.05124389f, -0.09406199f, 
-0.17390507f, -0.16809671f, -0.02163190f, -0.02520678f, -0.03771476f, 0.03017092f, -0.01721836f, 0.09812853f, 
-0.01152843f, -0.10131215f, 0.04097144f, 0.02586485f, -0.00804611f, -0.06454613f, -0.05246899f, -0.02713337f, 
-0.02245008f, -0.06621055f, -0.10369555f, -0.07341354f, 0.00973154f, 0.00455104f, 0.03166215f, 0.04590457f, 
-0.05463320f, -0.13899362f, 0.05010243f, 0.02930748f, -0.19901048f, -0.10130364f, 0.10229000f, -0.03610055f, 
-0.04120435f, 0.00993511f, 0.01247352f, 0.02674420f, -0.13442256f, 0.06444069f, 0.18377723f, 0.10782217f, 
0.00137240f, 0.00806013f, -0.02069042f, -0.02258497f, -0.03807076f, -0.03518330f, -0.05127061f, -0.03598483f, 
0.02416760f, -0.03116110f, 0.03503198f, 0.07138214f, -0.07509781f, -0.04065413f, 0.12568964f, -0.04201821f, 
-0.07105067f, -0.07487727f, -0.03011733f, -0.04454377f, -0.01041679f, -0.02466531f, 0.06871320f, 0.03115879f, 
-0.01873941f, -0.06894812f, 0.07579412f, 0.21187459f, 0.04118435f, 0.05262846f, 0.02724393f, 0.05025654f, 
-0.02460725f, -0.00004679f, 0.00659148f, 0.01231886f, 0.01122755f, 0.03463673f, 0.09178184f, 0.06593166f, 
0.02566450f, 0.00269126f, 0.00761768f, -0.02984568f, -0.16048977f, -0.09147265f, -0.03998330f, -0.01949530f, 
-0.00238906f, 0.02237149f, -0.00728778f, 0.06833919f, 0.04884479f, 0.00146421f, 0.01576033f, 0.01183411f, 
0.05527105f, 0.04944792f, -0.08081742f, -0.07926317f, -0.04351394f, -0.02422548f, 0.01386934f, 0.03977605f, 
0.02896047f, -0.04660539f, -0.12036703f, -0.09304131f, -0.03476996f, -0.04105353f, -0.17093921f, -0.16715543f, 
-0.10094628f, -0.08760475f, -0.02057478f, -0.07846507f, 0.02120683f, -0.02449217f, -0.05065892f, 0.01172016f, 
-0.02339897f, -0.12418430f, -0.02618645f, 0.00674636f, -0.06518444f, -0.08436766f, -0.11547391f, -0.15667467f, 
-0.08081868f, -0.10018113f, -0.21282110f, -0.18423094f, -0.14562044f, -0.13791823f, -0.09788743f, -0.05719301f, 
-0.20647830f, -0.32017636f, -0.24332850f, -0.18423933f, -0.08402232f, -0.05192501f, 0.00302429f, 0.00919302f, 
0.01553728f, -0.04133977f, -0.00508472f, 0.01412178f, -0.10661592f, -0.25254348f, -0.26246727f, -0.14659084f, 
-0.11204768f, -0.16797519f, -0.02483381f, 0.02164801f, -0.18617235f, -0.18817025f, -0.21423057f, -0.17305578f, 
-0.11593590f, -0.02864994f, -0.03224223f, -0.06807473f, -0.15469098f, -0.24134751f, -0.17679895f, -0.04119089f, 
-0.00742064f, 0.01493501f, -0.02068488f, -0.03679588f, 0.06340803f, 0.01330776f, -0.01694402f, -0.00001048f, 
-0.05059238f, -0.02248165f, -0.02651334f, -0.09924942f, -0.04299202f, -0.04161415f, -0.06663305f, -0.12513630f, 
-0.05232480f, -0.01503733f, -0.02941982f, -0.02558743f, -0.05300475f, -0.09030861f, -0.10681533f, -0.06020647f, 
-0.09751835f, -0.10730202f, -0.14874089f, -0.01088727f, -0.01532354f, -0.04084491f, -0.02595751f, 0.02134855f, 
0.07353211f, 0.07751192f, -0.03562873f, 0.04192276f, 0.03970805f, -0.00834865f, -0.07480761f, -0.03598473f, 
0.04152190f, 0.03064563f, -0.06707256f, -0.16021411f, -0.08725769f, -0.07144415f, -0.03738185f, -0.05783351f, 
0.05306750f, 0.07084653f, 0.07618888f, 0.09841945f, 0.11309926f, 0.07186510f, 0.09816395f, 0.07801650f, 
0.10708021f, 0.00908034f, -0.06450137f, -0.09833027f, 0.01677466f, 0.09860588f, -0.00819003f, -0.00927065f, 
-0.03247016f, 0.00493640f, -0.00461463f, -0.02039774f, -0.04084972f, -0.06065763f, 0.03644156f, 0.03347143f, 
-0.01681270f, 0.04347538f, 0.08737212f, 0.11274724f, 0.10021996f, 0.13046943f, 0.19176692f, 0.16632448f, 
0.18292831f, 0.07032375f, 0.07783417f, 0.07810621f, 0.11875829f, 0.05971770f, 0.02795581f, -0.04536381f, 
0.04120984f, 0.07396726f, 0.04406776f, -0.03482400f, 0.07989696f, 0.02924038f, -0.01258309f, -0.03834043f, 
-0.00845094f, 0.06320151f, 0.08834731f, 0.13848315f, 0.14090922f, 0.10761629f, 0.16409041f, 0.12357604f, 
0.15053527f, 0.13470517f, 0.18000892f, 0.10174896f, 0.06699876f, 0.07478266f, 0.03749300f, 0.06522021f, 
0.03611702f, 0.03043697f, 0.13164377f, 0.05374099f, 0.05730491f, 0.09296010f, 0.09141160f, 0.09476823f, 
0.10481312f, 0.06504752f, 0.02906819f, 0.08865444f, 0.15038426f, 0.06043100f, 0.08598707f, 0.03966001f, 
0.10146265f, 0.08532967f, -0.00861370f, 0.09896220f, 0.06253861f, -0.03247751f, 0.03245770f, 0.00204785f, 
-0.01280377f, -0.04787659f, 0.03447392f, 0.13771939f, 0.04827163f, 0.13266368f, 0.05493479f, 0.15574969f, 
0.15997615f, 0.16203611f, 0.23991777f, 0.19868103f, 0.23646834f, 0.11081734f, 0.10274944f, 0.01225842f, 
0.08046870f, 0.03378633f, 0.03690838f, -0.03665758f, -0.00156886f, -0.01017340f, 0.05383049f, 0.11278784f, 
0.08765370f, 0.00395916f, -0.02135002f, -0.01198403f, -0.00539766f, 0.05037735f, 0.01782210f, 0.02726271f, 
0.10493427f, 0.18523128f, 0.16539282f, 0.16497947f, 0.17621610f, 0.19713983f, 0.23548415f, 0.20204610f, 
0.12134581f, 0.07770678f, 0.03953117f, 0.04712013f, -0.05906729f, -0.02889322f, -0.10449199f, -0.01158290f, 
0.02749524f, 0.01567288f, 0.02756053f, -0.01630636f, -0.02098536f, -0.01322051f, 0.02469218f, -0.00547483f, 
0.05259794f, 0.01555766f, 0.01581957f, -0.05746671f, -0.01392877f, 0.18314402f, 0.06568509f, 0.18176618f, 
0.18525876f, 0.16286622f, 0.18253426f, 0.14195104f, 0.01797854f, -0.10341758f, -0.07004565f, 0.01349934f, 
0.08054294f, 0.01881093f, -0.04349782f, 0.02860516f, 0.04759876f, 0.02995990f, 0.07660509f, 0.10285050f, 
0.04469140f, 0.11521527f, 0.05539853f, 0.04168566f, 0.04750915f, -0.04400778f, 0.00836405f, -0.02412276f, 
-0.02927243f, 0.12179419f, 0.03994654f, 0.11335980f, 0.11507508f, 0.15180235f, 0.21344146f, 0.10720488f, 
-0.03944976f, -0.16034897f, -0.03235407f, 0.02658239f, 0.00546989f, 0.04366396f, 0.06160455f, -0.06791635f, 
0.00898076f, 0.02222154f, 0.05282471f, 0.10925532f, 0.12532605f, 0.09579381f, 0.07387926f, 0.05301283f, 
0.02846498f, -0.02331019f, -0.05192952f, -0.03956358f, -0.06294001f, 0.03403205f, -0.00644987f, 0.13843396f, 
0.17772552f, 0.05359823f, 0.11395213f, 0.09910422f, 0.03508351f, 0.00979824f, 0.11509145f, 0.07618437f, 
0.03016830f, -0.00545316f, 0.02384343f, 0.04898421f, 0.04136516f, 0.06603101f, 0.04793037f, 0.07144302f, 
0.00101478f, -0.01144101f, 0.11769629f, 0.06422259f, 0.02286533f, 0.00043755f, 0.03787051f, -0.07610476f, 
0.01801473f, 0.06597739f, 0.14846534f, 0.07513536f, -0.01886798f, 0.05028715f, 0.05677470f, 0.20410003f, 
0.10388662f, 0.00075998f, 0.12483929f, 0.07704447f, 0.03563893f, 0.07372826f, 0.05239616f, 0.01814604f, 
0.00114355f, 0.04169440f, 0.09560765f, -0.00557302f, -0.00719771f, 0.00881157f, 0.02110521f, 0.01778906f, 
0.02276506f, 0.02657140f, 0.05636382f, 0.03392415f, 0.04300948f, 0.15416662f, 0.12313799f, -0.12747727f, 
-0.04172095f, -0.09081580f, -0.13501778f, 0.05284123f, 0.12204165f, 0.03123621f, 0.10193893f, 0.03785928f, 
0.03696365f, 0.04525306f, 0.09531964f, 0.05272441f, 0.00899973f, 0.04906756f, 0.14002854f, -0.04093387f, 
-0.03740010f, -0.04998425f, 0.03101341f, 0.01793791f, 0.07280968f, 0.00893977f, 0.09049405f, 0.18304558f, 
0.07826219f, 0.04190822f, -0.02129826f, -0.11536682f, -0.14459015f, -0.16426262f, -0.17156734f, 0.14786960f, 
0.19042133f, 0.14702956f, 0.08192406f, 0.02777611f, 0.02150289f, 0.05261086f, -0.05318631f, -0.01818772f, 
0.06185097f, 0.14375396f, 0.24222437f, 0.09356432f, -0.00886768f, -0.02355197f, -0.03036798f, -0.04893432f, 
0.07062796f, 0.00046347f, 0.09690385f, 0.18030480f, 0.21045677f, 0.14413990f, 0.18807736f, -0.09003177f, 
-0.21164605f, -0.17070383f, -0.13774328f, 0.15086709f, 0.24473923f, 0.21456766f, 0.05019796f, 0.00247144f, 
-0.01554140f, -0.01446250f, -0.07205053f, -0.01442956f, -0.01585497f, 0.10740972f, 0.16655269f, 0.08692573f, 
0.01852752f, 0.03398306f, 0.00322369f, -0.05695310f, 0.00441304f, 0.03798197f, 0.04181774f, 0.13662602f, 
0.04702644f, 0.02997024f, 0.05825402f, 0.00782109f, -0.18794373f, -0.20184916f, -0.15732425f, 0.11505696f, 
0.12340906f, 0.12579633f, -0.00170215f, -0.03570287f, -0.02308563f, 0.01592985f, -0.04089832f, 0.05870824f, 
0.04126127f, 0.12951863f, 0.18364383f, 0.12303303f, 0.02808535f, -0.02389394f, -0.00464806f, -0.05100866f, 
0.01134513f, -0.02746710f, 0.03424396f, -0.00160813f, -0.02076864f, 0.08234657f, 0.12995063f, 0.00718385f, 
-0.18042365f, -0.21287937f, -0.23527217f, -0.05658522f, 0.01985520f, 0.00443123f, -0.04516951f, -0.12010912f, 
-0.04753618f, -0.01680420f, 0.04841665f, 0.08785821f, 0.06395664f, 0.13338862f, 0.16177478f, 0.02216823f, 
-0.02949553f, -0.02462206f, -0.00688308f, -0.01923101f, -0.07487075f, -0.01296659f, -0.00697512f, -0.08115908f, 
-0.13160981f, 0.07659459f, 0.05277926f, 0.02905640f, -0.24870262f, -0.26069099f, -0.27385980f, -0.11029071f, 
-0.02479577f, -0.07704275f, -0.02808903f, -0.08854045f, -0.03360192f, -0.00411142f, -0.05187887f, 0.01625930f, 
0.00205194f, 0.06910881f, 0.11401998f, 0.03289297f, 0.03495272f, 0.01749096f, 0.05951452f, -0.01491601f, 
-0.01687368f, -0.10424519f, 0.00138119f, -0.03829899f, -0.06659739f, 0.00050042f, -0.07059208f, -0.02409253f, 
-0.20050713f, -0.31247300f, -0.20492995f, -0.04363540f, -0.00052657f, -0.12834561f, -0.00578061f, -0.02345133f, 
0.00404413f, 0.01732934f, 0.02460993f, -0.00595133f, -0.03544370f, -0.02400528f, 0.05035410f, -0.05030674f, 
0.00746169f, 0.02382223f, 0.00778937f, -0.10315980f, -0.04771606f, -0.12800072f, -0.08369162f, -0.02723010f, 
-0.10471181f, -0.15085429f, -0.13872938f, -0.02802584f, -0.13043584f, -0.17283899f, -0.14412905f, 0.03204503f, 
-0.03850693f, -0.03036039f, -0.06316909f, 0.05802536f, 0.04049029f, -0.04372608f, -0.13358015f, -0.07242324f, 
-0.06447303f, -0.01104996f, -0.05185356f, -0.07727846f, -0.02390397f, -0.03842498f, -0.10507572f, -0.04648646f, 
0.00155697f, -0.00414314f, -0.07388911f, -0.00391160f, 0.06571848f, 0.01212226f, 0.13195199f, -0.03291285f, 
-0.12699758f, -0.16966090f, -0.02024032f, 0.01049546f, -0.05901344f, 0.01103962f, 0.00796543f, 0.01023048f, 
-0.06984569f, -0.12252430f, -0.03874796f, -0.08255560f, -0.10862921f, -0.06350169f, -0.05704592f, -0.08519215f, 
-0.09650744f, -0.07037343f, -0.11073928f, 0.01955895f, 0.10858440f, -0.03048892f, -0.01350068f, -0.03911874f, 
-0.01765658f, 0.06917940f, 0.15000938f, 0.03639048f, -0.13253017f, 0.04043784f, 0.01394439f, -0.03322838f, 
-0.09413350f, 0.02142856f, 0.03575303f, -0.02067640f, -0.01514609f, -0.11585078f, -0.05435579f, -0.13703845f, 
-0.04936361f, -0.09232218f, -0.10420592f, -0.07217959f, -0.04077897f, -0.06500146f, -0.08764734f, 0.07791104f, 
0.03501625f, -0.00626714f, -0.07024843f, -0.01089525f, 0.00082156f, 0.09508385f, 0.01133686f, 0.11083532f, 
-0.08280242f, -0.02574505f, -0.05223472f, -0.01618612f, 0.00766282f, 0.04423544f, 0.00135904f, -0.04900521f, 
-0.04312418f, -0.06318252f, -0.04054915f, -0.11748757f, -0.03719441f, -0.01971262f, -0.09989583f, -0.02961630f, 
-0.09235037f, -0.03221007f, -0.06588831f, -0.03828569f, 0.01761936f, -0.02337210f, -0.01813686f, 0.01621661f, 
0.01458214f, 0.07210384f, 0.08537408f, 0.10760976f, -0.01862903f, 0.04271821f, 0.03380458f, -0.03114215f, 
0.10648207f, -0.06958194f, 0.04403155f, -0.02746718f, -0.06826043f, -0.08127251f, -0.05790111f, 0.03559561f, 
-0.00371950f, 0.03791656f, -0.07974745f, -0.06421236f, -0.00369485f, -0.01623623f, -0.04104557f, -0.00828865f, 
-0.00149585f, 0.03266810f, -0.03432738f, -0.08717623f, -0.08970093f, 0.00742955f, 0.03383389f, 0.09053157f, 
0.04222786f, 0.00908540f, 0.00943691f, 0.07495871f, 0.04571953f, -0.02602503f, -0.02088064f, 0.00070556f, 
-0.10110400f, -0.04135447f, -0.07298645f, 0.01950633f, 0.01471947f, 0.00497464f, 0.06764836f, 0.00344129f, 
-0.03346656f, -0.04022884f, -0.02012509f, -0.05181396f, 0.02007909f, -0.06806973f, -0.02294046f, -0.10452490f, 
-0.10399443f, 0.07530990f, -0.02348545f, 0.04505733f, 0.04574458f, -0.02910453f, 0.01227180f, -0.01933274f, 
0.08923869f, 0.02625292f, -0.09285434f, -0.05633362f, -0.08581600f, -0.06508511f, -0.03797014f, -0.03698162f, 
-0.06402855f, 0.05043329f, -0.03144580f, 0.01772058f, -0.01411350f, -0.05517256f, 0.01694446f, -0.01490009f, 
0.03741484f, -0.08718253f, -0.04291220f, 0.04576410f, 0.00228419f, 0.05622422f, -0.04440330f, -0.03750845f, 
0.05080220f, 0.04138374f, -0.01565245f, -0.01148045f, 0.02104380f, 0.04032400f, -0.02931736f, -0.06776600f, 
-0.09135970f, -0.12007698f, -0.04722952f, -0.00343088f, -0.03261987f, 0.01101153f, -0.09064815f, -0.03339681f, 
-0.03042018f, -0.14083827f, -0.02942947f, 0.03518181f, -0.01697960f, -0.13680175f, -0.06664415f, 0.08706501f, 
0.00561595f, -0.06754613f, -0.06829910f, -0.01554650f, 0.14387690f, 0.05927934f, 0.02541817f, -0.02647761f, 
-0.10104765f, -0.06771690f, -0.01282730f, 0.04280203f, 0.08308376f, 0.10108501f, 0.12371211f, 0.11295896f, 
0.15690154f, 0.05016275f, 0.13197449f, 0.11587518f, 0.11039145f, 0.04305183f, 0.07731356f, 0.27743471f, 
0.13667732f, 0.01001409f, -0.05139376f, -0.03217172f, 0.02178744f, -0.04262910f, -0.09018265f, -0.08153748f, 
0.01343385f, -0.05939695f, 0.01480394f, -0.03998905f, 0.02857036f, 0.06429225f, 0.10710987f, 0.12576543f, 
0.20198482f, 0.25654754f, 0.31331995f, 0.22860213f, 0.23612200f, 0.27369228f, 0.26236370f, 0.02759458f, 
0.14996965f, 0.25165957f, 0.13295686f, 0.11723533f, 0.17571974f, 0.18651475f, 0.08050105f, -0.05240456f, 
-0.07410890f, -0.05138730f, -0.08682038f, -0.10076169f, -0.14485309f, 0.00222243f, 0.08196335f, 0.02668925f, 
0.04865001f, 0.07024767f, 0.03649358f, 0.17116077f, 0.17014936f, 0.18574123f, 0.22261237f, 0.13121621f, 
0.11186434f, 0.06194162f, 0.00801134f, 0.06306458f, 0.05601355f, -0.07937719f, -0.08595182f, 0.02921208f, 
-0.02239305f, -0.03627284f, -0.05492958f, -0.07672651f, -0.09214488f, -0.11051953f, -0.00868057f, -0.00339507f, 
0.01804452f, 0.00389833f, -0.05331020f, -0.01515217f, -0.06574551f, -0.06302297f, -0.05925480f, -0.00761946f, 
-0.02742460f, -0.04033554f, -0.02151567f, -0.03722607f, -0.06550310f, -0.07771991f, -0.11179059f, -0.08661364f, 
-0.04739341f, -0.03511223f, -0.09967348f, -0.02390500f, -0.04372755f, 0.00788500f, -0.06458254f, -0.04545052f, 
0.01779724f, -0.05435479f, -0.02030031f, -0.01450205f, -0.06208162f, -0.04238339f, -0.00876597f, -0.05000196f, 
-0.00892389f, -0.07581597f, -0.01649002f, -0.02382454f, -0.06184491f, -0.01728651f, -0.01092810f, -0.03518536f, 
0.00611398f, -0.03721878f, 0.00605413f, -0.03257896f, -0.07649335f, -0.05035417f, -0.07175951f, -0.05392177f, 
-0.11973038f, -0.06568388f, -0.13324219f, -0.10647110f, -0.02290648f, -0.02503171f, -0.11852687f, -0.02209658f, 
-0.02077237f, -0.06270850f, -0.01865656f, -0.01012044f, -0.03904730f, -0.06349979f, -0.03109294f, -0.01729268f, 
-0.07620553f, -0.02600946f, 0.07873140f, 0.05837819f, 0.09537636f, 0.16869938f, 0.21435238f, 0.22476220f, 
0.25295684f, 0.08438653f, -0.02036600f, -0.06381748f, -0.02183142f, -0.06441387f, -0.09373800f, -0.10842111f, 
-0.08694952f, -0.03974277f, -0.11934081f, -0.04946136f, -0.01328698f, 0.00201340f, -0.02549231f, -0.05688868f, 
-0.09340571f, -0.02100591f, -0.02843371f, -0.07339767f, 0.11498419f, 0.08627115f, 0.19063313f, 0.27751225f, 
0.27652618f, 0.15559244f, 0.27957791f, 0.13694562f, 0.21605952f, -0.09295085f, -0.21146750f, -0.08681332f, 
0.06657576f, 0.06684430f, -0.00336478f, -0.09109114f, -0.01254104f, -0.06329188f, 0.01033090f, -0.01816331f, 
-0.01470622f, -0.04373571f, -0.14978004f, -0.10933536f, -0.05490863f, -0.09111144f, -0.10924159f, -0.08228394f, 
-0.09707808f, -0.20061132f, -0.09707664f, -0.12782504f, -0.14346498f, -0.08331501f, -0.06062781f, -0.02075578f, 
-0.01958644f, -0.15928455f, -0.08355483f, -0.15644658f, 0.00548477f, -0.05127103f, -0.09895744f, -0.01342009f, 
0.04867166f, 0.07208932f, 0.14743236f, -0.00433449f, -0.02601203f, -0.07211857f, -0.09963606f, -0.09377447f, 
-0.07253911f, -0.13543825f, -0.11229201f, -0.13193521f, -0.02980657f, -0.03123626f, -0.11079373f, -0.09321202f, 
-0.24423817f, -0.11684804f, -0.08313423f, -0.04645944f, -0.09834948f, -0.20113277f, -0.16432321f, -0.16393298f, 
-0.06633050f, -0.17863622f, -0.16804333f, -0.01916508f, 0.04646792f, 0.03094955f, -0.07804435f, -0.05599051f, 
-0.04467127f, -0.06964887f, -0.02829659f, -0.08554170f, -0.11446963f, -0.26870999f, -0.19755794f, -0.00499097f, 
0.03166767f, 0.02256546f, 0.03008499f, -0.00183368f, -0.03411951f, 0.06591334f, 0.02153668f, 0.00681394f, 
0.09300435f, 0.10086365f, -0.01150056f, -0.16496260f, -0.08583038f, -0.11632302f, -0.07508178f, -0.19291131f, 
-0.03402458f, -0.04702156f, -0.03164867f, -0.03880727f, -0.03664941f, -0.13897321f, -0.08119795f, -0.13122910f, 
-0.09825689f, -0.20978133f, -0.06908081f, -0.09712009f, 0.06819502f, 0.06954309f, 0.05805735f, 0.05450715f, 
0.01307914f, 0.07709834f, 0.01800915f, -0.00492393f, -0.01163241f, 0.06583776f, 0.00057978f, -0.06402620f, 
-0.08497421f, -0.03117988f, -0.12961648f, -0.08989763f, 0.10258229f, 0.07316087f, 0.00582968f, 0.01082296f, 
-0.05868182f, -0.03622289f, -0.11619736f, -0.15142313f, -0.11543436f, -0.13012348f, -0.06163450f, -0.08190756f, 
0.05076150f, -0.03993540f, -0.02577564f, 0.09320043f, -0.04380555f, -0.05605849f, 0.01172328f, -0.00053613f, 
-0.02360087f, -0.05585108f, -0.04793048f, -0.08914969f, -0.04652133f, -0.03373829f, -0.05269155f, -0.08849266f, 
-0.00121312f, -0.09496999f, -0.17035165f, -0.01511739f, -0.01988468f, -0.02327634f, -0.10623541f, -0.04555372f, 
-0.15727064f, -0.04008837f, 0.00044273f, 0.00477802f, 0.03055002f, -0.08038528f, 0.06446967f, 0.04394263f, 
0.03727335f, 0.02626778f, 0.04303671f, -0.07212165f, -0.10997664f, -0.07782044f, -0.15035352f, -0.10553195f, 
-0.09077862f, -0.11767331f, -0.09472091f, -0.10214917f, -0.06985501f, -0.30743697f, -0.00076246f, 0.08316896f, 
-0.04160732f, -0.07849505f, -0.18339758f, -0.09277056f, -0.04308229f, 0.06616496f, 0.06105609f, 0.03497933f, 
-0.02736851f, 0.03750623f, 0.03576528f, 0.06702798f, 0.03881184f, -0.01813832f, -0.06574627f, -0.03129100f, 
-0.04176971f, -0.15650634f, -0.16094087f, -0.05937087f, -0.10384712f, -0.14671889f, -0.06220542f, -0.04368220f, 
0.05559300f, 0.06007896f, -0.00987649f, -0.07530469f, -0.00814799f, -0.10517583f, -0.23107474f, -0.18208385f, 
-0.11956814f, 0.00705765f, -0.03516096f, 0.02755612f, 0.04557597f, -0.03319268f, -0.11514405f, -0.04137234f, 
0.09896240f, -0.01143539f, -0.03507107f, 0.05939666f, 0.12594697f, 0.10675216f, -0.00589741f, 0.06412183f, 
-0.02153858f, -0.02831032f, -0.09360216f, 0.03880543f, 0.01266707f, -0.08929038f, -0.28444543f, -0.13083829f, 
0.02240582f, -0.07721224f, -0.14368686f, -0.08977970f, -0.04372851f, -0.11072002f, -0.00763563f, 0.04162330f, 
0.02303128f, -0.04514085f, 0.00270366f, 0.04741852f, 0.04817549f, 0.06118016f, 0.12864840f, 0.21454060f, 
0.18294431f, 0.15343119f, 0.15326640f, 0.09610240f, 0.02429578f, -0.02693566f, -0.03964128f, -0.03448024f, 
-0.09890980f, -0.12905194f, -0.16938324f, -0.03540299f, -0.01740797f, -0.05949912f, -0.10965029f, -0.06765588f, 
0.01350003f, -0.08158944f, 0.03898540f, 0.11312173f, -0.00600858f, -0.09300937f, 0.11853399f, 0.02261561f, 
0.11963943f, 0.16073458f, 0.23638533f, 0.15281141f, 0.19215465f, 0.17827699f, 0.13028446f, 0.08022449f, 
-0.00817822f, -0.08047283f, -0.04519788f, -0.21005231f, -0.17546569f, -0.21460456f, -0.13693354f, 0.02217436f, 
-0.00427763f, -0.08776547f, -0.16960502f, 0.05651404f, -0.01299532f, -0.08655855f, 0.03412316f, 0.09090233f, 
0.02192490f, 0.05556830f, 0.15502997f, 0.12433815f, 0.15224230f, 0.14791733f, 0.10245409f, 0.14567122f, 
0.17448004f, 0.17107464f, 0.17066485f, 0.07449931f, 0.02487714f, -0.13000761f, -0.23278053f, -0.24771215f, 
-0.06971046f, 0.03176201f, -0.01567267f, -0.12139235f, -0.05410793f, -0.11840687f, -0.16103579f, -0.07205386f, 
-0.03460028f, -0.02200368f, -0.01269924f, 0.05167599f, 0.05776192f, 0.11076571f, 0.22924297f, 0.19740547f, 
0.10527433f, 0.01128462f, -0.00787690f, 0.13469407f, 0.05630216f, 0.23654027f, 0.20626049f, 0.09005071f, 
-0.05230026f, -0.19436790f, -0.22295977f, -0.09461626f, 0.03821748f, 0.05338818f, -0.02294713f, -0.08027653f, 
-0.06857543f, -0.07297559f, -0.09787770f, -0.05052815f, -0.06358917f, -0.05164687f, -0.16306050f, 0.01158497f, 
0.08617201f, 0.14505556f, 0.21575828f, 0.25018924f, 0.06258459f, -0.04644544f, -0.03326634f, 0.09428603f, 
0.08805271f, 0.14360934f, 0.04614506f, -0.02096869f, -0.16195008f, -0.20335542f, -0.08030871f, -0.00151669f, 
-0.03618526f, 0.10976914f, 0.10977338f, -0.00508906f, -0.00792458f, -0.02807456f, 0.03813416f, 0.00118765f, 
0.04480188f, -0.02780324f, -0.19277559f, -0.21651457f, -0.12141182f, 0.03702769f, 0.19734657f, 0.21756564f, 
0.11370588f, 0.07109091f, 0.02313514f, 0.10552625f, 0.07432435f, 0.01450120f, -0.08545738f, -0.10948532f, 
-0.21558490f, -0.17757319f, -0.16781037f, -0.08411135f, -0.16860519f, 0.00057692f, -0.04808630f, -0.03629251f, 
-0.01629621f, 0.03377621f, 0.04849216f, 0.09901340f, 0.11731292f, -0.01974256f, -0.20702946f, -0.25325838f, 
-0.06338980f, -0.11670378f, 0.09770647f, 0.14317136f, 0.03544052f, 0.03206737f, 0.08382878f, 0.03659949f, 
-0.00333050f, -0.09617607f, -0.17816600f, -0.10043502f, -0.20319173f, -0.11318655f, -0.11395893f, -0.12620997f, 
-0.11417155f, -0.00006325f, -0.00772275f, 0.09230490f, -0.00265882f, -0.02003475f, -0.00708104f, 0.17809032f, 
0.08543907f, -0.06639037f, -0.25978604f, -0.19054505f, -0.20071772f, -0.19339733f, -0.11863340f, -0.03269858f, 
-0.03363815f, -0.15091807f, 0.00210381f, -0.02331586f, -0.07279617f, -0.10492701f, -0.12823690f, -0.06194095f, 
-0.11182201f, -0.09705056f, -0.08153378f, -0.07953701f, -0.05309834f, 0.00216134f, -0.03669183f, 0.13365208f, 
-0.01069158f, -0.10809693f, 0.01902772f, 0.27635771f, 0.04797954f, -0.11663594f, -0.07733582f, -0.13829954f, 
-0.21708657f, -0.18653032f, -0.24531771f, -0.16592938f, -0.20589808f, -0.13602513f, -0.01164331f, -0.16139741f, 
-0.07309625f, -0.07418236f, -0.03277620f, -0.14228119f, -0.23882304f, -0.10021354f, -0.11350983f, -0.14900179f, 
-0.12932628f, 0.02571303f, 0.04121037f, 0.10453342f, -0.02798303f, -0.00055087f, -0.01576114f, 0.15734814f, 
-0.05327376f, -0.05535735f, -0.00921770f, -0.12087455f, -0.11236174f, -0.13014947f, -0.12282889f, -0.13945919f, 
-0.12767425f, -0.17007433f, -0.18423919f, -0.24717061f, -0.04648750f, -0.12969725f, -0.08116450f, -0.13847600f, 
-0.16389392f, -0.01273906f, -0.08108155f, -0.09402588f, -0.12782888f, 0.01305862f, 0.05537903f, 0.08976860f, 
-0.02467111f, -0.01680690f, -0.06963044f, 0.03606654f, -0.04510468f, -0.12655053f, -0.11833163f, -0.11309071f, 
-0.08595888f, -0.14308447f, -0.07244410f, -0.19053164f, -0.21928294f, -0.31956568f, -0.23686610f, -0.17945845f, 
-0.15049048f, -0.14791577f, -0.09633148f, -0.14092293f, -0.02544866f, -0.03688096f, -0.00289377f, -0.11163469f, 
-0.03266359f, 0.10255201f, 0.10478914f, 0.01747570f, -0.04119864f, -0.10131841f, -0.07485593f, 0.05118570f, 
-0.05896166f, -0.01738319f, 0.02218663f, 0.08130786f, -0.00358210f, -0.09769753f, -0.06391811f, -0.12220304f, 
-0.22663675f, -0.19040863f, -0.08005422f, -0.17010851f, -0.16691901f, -0.15699860f, -0.12807834f, -0.10668763f, 
-0.00370864f, 0.02773037f, 0.12281607f, 0.02272018f, 0.13977157f, 0.10146941f, 0.09129127f, 0.03064104f, 
-0.06513934f, -0.07501376f, -0.08847643f, 0.00249674f, 0.12320162f, 0.07623856f, 0.05798241f, 0.09789348f, 
0.12975229f, -0.01966650f, -0.14089736f, -0.16759394f, -0.09177922f, -0.05312445f, -0.04649324f, -0.17656161f, 
-0.12631613f, -0.07899598f, -0.04029865f, -0.02068484f, 0.12535046f, 0.21870950f, 0.18333673f, 0.15048268f, 
-0.01585249f, 0.14811620f, 0.04492713f, 0.00867560f, -0.03766968f, 0.03006878f, -0.06619025f, -0.10265355f, 
-0.00893031f, 0.06027942f, 0.02524760f, 0.09595454f, 0.06467500f, -0.05058077f, -0.02822203f, 0.01683857f, 
-0.03690242f, 0.01204343f, 0.00826829f, -0.04883032f, 0.10956836f, -0.00715113f, -0.03932182f, 0.00443193f, 
0.18311061f, 0.13661860f, 0.05335926f, -0.04357504f, -0.09770088f, -0.08999452f, -0.09274583f, -0.06711753f, 
-0.01496649f, 0.05131805f, -0.00967653f, 0.03291705f, 0.05780453f, -0.01813390f, 0.03082921f, 0.01959596f, 
-0.02250380f, 0.05945181f, 0.19705987f, 0.09095886f, 0.00460235f, 0.03137611f, 0.12261212f, 0.13223584f, 
0.13695633f, 0.05402522f, -0.00135023f, 0.07249394f, 0.17948484f, 0.13986385f, 0.01803284f, -0.02384845f, 
-0.05361528f, -0.06038251f, -0.03313403f, -0.03802608f, 0.02674855f, -0.04775520f, -0.02757017f, 0.00083384f, 
-0.03048832f, -0.03728851f, -0.00654627f, -0.03252339f, -0.04667264f, 0.01616863f, -0.01515600f, 0.01352853f, 
0.03796126f, -0.02363446f, 0.04054260f, 0.10661338f, 0.01748529f, -0.05781267f, 0.13790287f, 0.16261293f, 
0.06280503f, -0.10331519f, -0.08764478f, -0.01885651f, -0.00216904f, -0.00486678f, -0.01199553f, -0.02982547f, 
0.02071994f, -0.00040389f, -0.03362286f, 0.03018969f, -0.00889752f, -0.02297399f, -0.02212274f, -0.06537936f, 
-0.02858991f, 0.01016956f, 0.00308259f, -0.04907581f, -0.05357048f, 0.00723844f, -0.03893553f, -0.03119962f, 
-0.07079993f, -0.04403130f, -0.06443278f, -0.03674655f, -0.05247374f, -0.00054858f, -0.00264736f, -0.00858018f, 
-0.07171702f, -0.04688774f, -0.03862553f, -0.03497450f, 0.00736751f, -0.03565473f, -0.03541420f, -0.01706579f, 
-0.06526514f, -0.02138259f, -0.02653229f, 0.00419715f, -0.06540577f, -0.06569459f, -0.02566889f, -0.01692625f, 
-0.03398322f, -0.04085556f, -0.06831885f, -0.02703796f, -0.05454864f, -0.06792834f, -0.03690167f, -0.04706765f, 
0.03710620f, -0.00259718f, 0.01631080f, -0.06256605f, -0.07482287f, -0.10107998f, -0.07388874f, -0.09182601f, 
-0.05660007f, 0.00145659f, -0.02904283f, -0.04567660f, -0.00420593f, -0.05872467f, -0.06114487f, -0.06935985f, 
-0.08241795f, -0.11638754f, -0.15629533f, -0.11486167f, -0.13473414f, -0.16014639f, -0.15112984f, -0.07984082f, 
0.05913195f, 0.00575013f, -0.03550066f, 0.00225109f, -0.02526477f, -0.02333351f, -0.04144999f, -0.06774030f, 
-0.10106228f, -0.09508234f, -0.10362744f, -0.06134722f, -0.04565273f, -0.06787336f, -0.03634855f, -0.05321449f, 
-0.05634415f, -0.10689223f, -0.11424349f, -0.06744996f, -0.10340547f, -0.17432331f, -0.18144678f, -0.14427741f, 
-0.07742818f, -0.05811516f, -0.07960323f, -0.18752028f, -0.15451713f, -0.05708410f, 0.08469927f, 0.12599528f, 
0.05775603f, -0.03247524f, -0.08603020f, -0.11041251f, -0.03401529f, -0.05703520f, -0.09084973f, -0.06365857f, 
-0.03065351f, -0.04180036f, -0.05769658f, -0.04355559f, -0.09634782f, -0.16121703f, -0.21217492f, -0.18607746f, 
-0.15560849f, -0.02591406f, -0.00483430f, -0.03788891f, -0.01901031f, -0.12580803f, -0.18961774f, -0.16495593f, 
-0.12011408f, -0.01355742f, 0.04522645f, 0.04187999f, 0.12797633f, 0.21715988f, 0.13144729f, 0.06417340f, 
-0.09693038f, -0.02635523f, -0.08928581f, -0.08069667f, 0.00648650f, -0.06274912f, -0.02518743f, -0.12130732f, 
-0.19337979f, -0.25944531f, -0.26650336f, -0.09271080f, -0.03412534f, 0.04029230f, 0.06477471f, -0.08426598f, 
-0.17799921f, -0.07054653f, -0.06690600f, -0.12305934f, -0.02973186f, -0.00559915f, 0.05679348f, 0.01847400f, 
0.02679927f, 0.12762515f, 0.13466568f, 0.16297761f, 0.09030599f, -0.06334563f, -0.07933492f, -0.05951103f, 
-0.07913880f, -0.04547830f, 0.04236418f, -0.10580696f, -0.11902316f, -0.12433806f, -0.24050122f, -0.11107697f, 
-0.02778672f, -0.02718687f, 0.03043432f, -0.02715178f, 0.03413065f, 0.02971039f, -0.02672463f, -0.00760966f, 
-0.02987828f, 0.03842531f, 0.02664625f, 0.10922272f, 0.07657369f, 0.11589542f, 0.17047745f, 0.01759657f, 
0.07495146f, 0.10380723f, 0.04268298f, -0.09751508f, -0.06988627f, -0.09172533f, 0.02036293f, -0.13129333f, 
-0.22649506f, -0.17054233f, -0.15136652f, -0.02579064f, 0.09943178f, 0.14878190f, 0.16275311f, 0.18231319f, 
0.06510943f, 0.12807722f, 0.13013162f, 0.10886671f, 0.24428862f, 0.18204457f, 0.21699412f, 0.22926663f, 
0.17658266f, 0.08414735f, 0.15612872f, 0.08566956f, 0.01353090f, 0.06981900f, 0.04944869f, -0.04928560f, 
-0.06863971f, -0.01904090f, -0.04869862f, -0.08736502f, -0.27733147f, -0.12939692f, -0.11762886f, -0.00769482f, 
